100 32
81 0.41860214 0.36835724 0.61704421 -0.030260032 -0.11336679 -0.0050702388 -0.56873143 -0.57206523 0.11738601 -0.063650094 -0.56133664 0.2285699 0.38626358 -0.70224589 -0.089689836 0.54304206 0.59806001 0.42866743 0.12258774 -0.87005222 0.35741168 -0.12617214 -0.9212262 0.022654569 -0.1488125 -0.24061328 0.28825989 0.23608083 0.42558756 -0.10497948 -0.36207461 0.11204266
88 -0.062582187 1.0380352 0.51190692 -0.03935359 -0.3793512 -0.80659604 0.3641496 -0.11694448 0.12120222 -0.49202663 0.37188792 0.56850266 0.14151525 -0.58769208 0.021898499 0.60258907 -0.12774558 -0.054749902 -0.15011168 0.28567004 0.056327999 -1.070329 -0.51004362 -0.40411568 0.27238628 -0.6922586 0.069764107 0.20922926 -0.36206341 -0.27438325 -0.58795208 0.40575042
18 -0.55709171 0.74510723 0.18415441 0.29035828 -0.23882322 -0.74674487 -0.019239521 0.73533678 -0.22031251 -0.25978559 -0.06394808 -0.4116489 0.37770048 -0.28181651 0.61922884 0.036208864 0.40194702 -0.44392064 -0.59985369 -0.54975277 0.325077 -0.42717439 0.2920244 -0.070507757 -0.37845209 0.88033217 0.16542363 -0.43887642 0.52273953 -0.55751085 -0.33703208 0.55497175
83 0.11398503 0.44590762 0.66879046 -0.16693534 -0.1352061 -0.26792619 -0.36774945 -0.20719904 0.0055252141 -0.22279388 -0.38893884 0.50789368 -0.61128289 -0.44594195 -0.25806832 0.49378327 0.81336313 0.42387792 -0.12939022 -0.45184973 0.32472751 -0.023670761 -0.56582785 0.3215178 0.11345172 0.1265886 0.24802953 0.60399675 0.20538807 0.30713731 0.21852084 0.23081356
82 0.37426156 0.32045558 0.64093155 -0.082531683 -0.15840447 -0.27720276 -0.78953755 -0.59111106 -0.12083928 -0.1203082 -0.55843323 0.42053208 0.003577231 -0.62348634 -0.21521841 0.50792032 0.65714741 0.23682542 0.030055676 -0.6965884 0.15285641 -0.13010769 -0.5621134 0.25276196 0.20753032 -0.060879901 0.11012695 0.44728351 0.37527061 -0.07354793 -0.092903659 0.28078145
71 0.26372638 0.29439017 0.65157425 -0.32098833 0.11422962 -0.014288665 -0.6562174 -0.38830513 0.03784496 -0.10099192 -0.56218982 0.24672152 0.68547082 -0.23148039 0.024691559 0.4393495 0.73763305 0.39414647 0.16580966 -0.64739335 0.53871262 -0.11622549 -0.65752822 -0.18142308 -0.19239679 -0.4533256 0.14970513 0.17122319 0.38775629 0.071999989 -0.00020106717 -0.11473037
52 0.43388626 -0.17591208 0.19343868 -0.20993617 0.61529195 -0.066627212 -0.31510219 0.11037829 -0.15868263 -0.083509579 -0.37648913 0.5310185 0.5597592 -0.20168218 0.25546151 0.028253073 0.37181976 -0.08080031 -0.056877568 -0.18470806 0.37421933 -0.01356907 -0.50893068 -0.48610213 -0.12879385 -0.030079488 -0.25510347 0.40466493 -0.13148364 0.30158919 0.23300971 -0.077184007
62 0.46029657 0.15518615 0.19065925 -0.2625196 0.62416822 -0.038795605 -0.51012588 0.04013088 -0.33924133 0.044625051 -0.54022396 0.27085891 0.14811093 -0.11964038 -0.14042948 0.46957043 0.38521528 0.069182031 -0.13863097 -0.3355785 0.14610611 -0.2098546 -0.78926271 -0.25412714 -0.11529663 -0.12655284 -0.22539848 0.24113098 -0.045143642 0.18284953 0.18905526 0.12299589
72 0.45493671 0.2564024 0.41334286 -0.44061348 0.11941523 -0.11803541 -0.55684024 -0.46406072 -0.12653477 0.19912241 -0.57104784 0.55965018 0.28313196 -0.37223625 -0.14675197 0.40093842 0.56891513 0.011373453 -0.11520771 -0.63374543 0.2540077 -0.07451085 -0.70983857 -0.18224235 0.22390023 -0.13269125 0.17682506 0.31730548 0.37022337 0.24218431 0.2417502 0.19388269
12 0.40789801 0.28735688 0.57355225 0.18032581 0.59200031 -0.21095039 -0.26894706 0.52102041 0.1937955 -0.47794649 -0.27442262 -0.15123743 0.053356342 -0.50230002 0.33217677 0.45331526 -0.40444142 -0.11080287 0.33490333 -0.33702061 1.1790861 0.15703309 0.26936746 -0.10550234 0.41807982 0.37969491 -0.23747268 -0.58335418 -0.41145232 -0.019802779 0.00040621543 -0.62781519
73 0.14899531 0.14100826 0.54641992 -0.39820299 0.11934301 -0.36527935 -0.43585923 -0.19235408 -0.12283211 0.080255903 -0.35762256 0.76987988 -0.10531951 -0.40569288 -0.26842281 0.38974693 0.2910811 0.087007463 -0.083064571 -0.27492896 0.12259305 0.37600589 -0.63917303 -0.13491386 0.013556739 0.20825389 0.4219318 0.47606289 0.14711973 0.3252584 0.28690431 0.19389503
61 0.39525044 0.11738352 0.67970002 -0.46958381 0.57065332 -0.0010365243 -0.58184975 -0.16328873 -0.16665967 -0.048972964 -0.29724437 0.05344684 0.4743143 -0.25925261 0.15606543 0.42503676 0.55368477 0.31040058 0.038989853 -0.29782993 0.33810624 -0.098213226 -0.93862528 -0.34424165 -0.31582469 -0.18255611 -0.17923875 0.18057528 0.2951473 0.038442787 -0.0097270822 -0.38950393
86 0.20111208 0.20229483 0.3431946 -0.27969179 -0.54582769 -0.91458088 0.17978035 0.094924144 0.14022867 -0.42775497 0.62503922 0.78608894 -0.24929811 -0.33912453 -0.38409564 0.71677965 0.28912577 0.049499575 -0.054916985 -0.10398044 0.10272899 -0.61915183 -0.33797553 -0.27839851 0.13657981 -0.2941843 0.12577604 0.25756058 -0.11042716 0.021370076 0.077522129 0.23264332
84 0.35290429 0.35955781 0.48563331 -0.56867206 -0.56210303 -0.4996703 -0.32140723 -0.048203692 -0.24871983 -0.51645654 -0.07790301 0.64673179 -0.89390439 -0.43531454 -0.21481338 0.51257694 0.61359817 0.15756887 -0.12051805 -0.50398403 0.032050118 0.018657532 -0.33571985 0.040307455 0.22395085 0.10670417 0.16799518 0.57061338 0.13884589 0.036376912 0.12686136 -0.055923257
28 -0.78038681 0.66936171 0.35070992 0.13584046 -0.0011556987 -0.72382611 0.10936164 0.57986373 -0.28355995 0.23005153 -0.080044962 -0.34964713 0.094061993 -0.35955378 0.68455064 0.099200301 0.3825959 -0.36760592 -0.89624041 -0.29201126 0.35037762 -0.28335807 0.4396261 -0.24721703 -0.40189779 0.68158793 0.45870295 -0.37294614 0.19536054 -0.21407928 -0.21158791 0.36429578
41 0.60215122 -0.22550623 0.71248138 -0.13576244 0.52280176 -0.037552133 -0.14405631 0.40254369 -0.2775912 -0.41749936 -0.66920561 0.2892389 0.36535472 -0.12052687 0.25136772 -0.050487719 0.62898934 0.19995464 0.19091842 0.053416904 0.21656063 -0.013247855 -0.56780988 -0.46283978 0.23485188 0.30227065 -0.44923779 0.031632278 -0.071917057 0.010628805 -0.29339439 -0.59228384
22 0.53332323 0.024233501 0.29509324 0.20685326 0.54751015 -0.18974666 0.10729015 0.52848625 0.29896158 -0.32730964 -0.56319481 0.1800658 0.2851021 -0.36111796 0.14568292 0.32158607 -0.067507468 0.013029638 0.10571432 -0.25840682 0.62497765 0.24410799 -0.035355058 -0.20501196 0.354514 0.41291463 0.057885226 -0.63943464 -0.56963158 0.013143566 0.2101624 -0.75021833
27 -0.53098029 0.40753633 0.13914973 0.10672785 -0.038569544 -0.46560866 0.070877805 0.62603134 -0.22191428 0.13640632 0.018049702 -0.041661929 0.24139358 0.13403304 0.41531643 0.36267221 0.40242341 -0.78450197 -0.49144605 -0.13245544 0.26790041 0.14003713 0.1789058 -0.42402199 -0.26822105 0.72788066 0.30578929 -0.23460257 0.25577348 -0.48364827 -0.18158628 0.40050879
87 0.16807851 0.48175749 0.22546029 -0.13327464 -0.5110777 -0.99918842 0.25889218 0.0052724322 0.0082679428 -0.34988767 0.58134747 0.79453254 0.080770366 -0.58059996 -0.097318396 0.57117915 0.21940053 0.022176182 -0.12854588 0.22148775 0.17949679 -0.80793905 -0.45925787 -0.21764195 0.13639128 -0.63962448 0.12468215 0.16089101 -0.24370964 -0.087483086 -0.2301061 0.39677572
51 0.61117852 -0.11411082 0.62082255 -0.33738071 0.50354898 -0.0014433183 -0.4448123 0.15912409 -0.17163126 -0.11482764 -0.4496181 0.17665079 0.59656459 -0.037838232 0.43202996 0.013700258 0.74089479 0.27702233 0.13015726 -0.1332821 0.50322652 -0.15177327 -0.69066489 -0.3011575 -0.031242784 -0.0023881916 -0.48661664 0.16351748 0.12062073 0.015500098 0.093477733 -0.35681885
13 0.11457164 0.11575782 0.55835998 0.24864413 0.26658711 -0.15056622 -0.50902045 0.53261983 0.052080151 -0.45446613 -0.36192724 -0.12235644 0.24044813 -0.26519459 0.24473982 0.34257632 -0.28947917 -0.44923887 0.20839995 -0.079900712 1.1784672 -0.043227833 0.37257192 0.16887578 0.0091738934 0.52197903 -0.26056874 -0.31873059 -0.59904975 0.069683611 0.020675238 -0.65188146
11 0.27067634 0.23861457 0.30821121 0.25372168 0.47160432 -0.32138601 -0.056112707 0.54657137 -0.032555435 -0.37916741 -0.49854925 0.057848945 0.068941981 -0.55539942 0.48794246 0.47841465 -0.35531873 0.18566801 0.74080539 -0.59372222 1.1993388 0.15947834 -0.067614369 0.085871786 0.69194901 0.39075375 -0.04269328 -0.64791632 -0.15946691 0.067495123 -0.196152 -0.8237226
21 0.42555022 -0.1553202 0.36854985 0.12376428 0.48529923 -0.20501074 -0.032320287 0.48658442 -0.10959773 -0.36122045 -0.39018393 0.32037732 0.39418668 -0.3489393 0.24115108 0.35785231 -0.048600066 0.15403773 0.46676204 -0.40251106 0.83314294 -0.031997159 -0.15137509 -0.22043489 0.84197825 0.6036889 0.030641329 -0.50588322 -0.14729726 0.31247848 -0.29507741 -0.83128345
74 0.25578484 0.046847235 0.21289693 -0.46382266 -0.25061935 -0.52862823 0.17989962 -0.26157102 -0.2746968 -0.30933604 -0.36974284 0.40465432 -0.34437755 -0.28554052 -0.36942607 0.39112318 0.30120793 -0.11576305 -0.19438691 -0.38998839 0.046799861 0.069286354 -0.51739842 0.079334259 0.10113152 0.29957822 0.17466667 0.49756849 -0.16987279 0.26918006 0.38248038 0.29232121
85 0.26981798 0.16741168 0.26358581 -0.42528564 -0.54551727 -0.75072998 0.10614129 0.13515379 -0.18585008 -0.30726629 0.34930107 0.73918945 -0.66550779 -0.47387585 -0.10714073 0.40868288 0.44303873 0.22257048 -0.15798956 -0.35321856 0.33672616 -0.27712554 -0.59775054 0.21124452 0.095131554 -0.12204993 0.19731353 0.25237426 0.0099975867 0.19149314 0.29235646 0.19875459
31 0.35077199 -0.23095784 0.56352127 -0.16245461 0.71568692 -0.049308896 -0.012518235 0.81540287 -0.18596165 -0.37303409 -0.5237602 0.21331961 0.35010448 -0.30212927 0.16431279 -0.059531379 0.26191664 0.40113243 0.18902993 -0.17719901 0.70927 -0.047859773 -0.31451726 -0.37763119 0.61989743 0.3506636 -0.25428224 -0.10471873 0.00063851505 0.015059402 -0.1706026 -0.61518359
14 0.028867511 0.099018514 0.32651359 0.079134628 0.14613208 -0.3293305 -0.57799816 0.3596817 0.085253283 -0.39199957 -0.17419069 -0.42655122 0.23121768 -0.076205142 -0.13941863 -0.041824926 -0.082242765 -0.85590941 0.21782164 -0.19970891 0.84148556 -0.067030743 0.093572848 -0.035037886 -0.027047597 0.53412044 0.057201669 -0.46995556 -0.5627417 -0.60439491 -0.088684931 -0.55665118
17 -0.50362676 0.56484342 0.023969598 0.27126965 -0.11037521 -0.51619983 -0.24045877 0.95641226 -0.14582424 0.058396824 0.017686281 -0.18202458 0.49606532 -0.055455986 -0.013314291 0.23147115 0.38816559 -0.7954753 -0.41165274 -0.51673061 0.26280358 -0.26313087 0.054037701 -0.17006981 -0.23919752 0.89730388 0.22810365 -0.59299761 0.42207855 -0.34829709 -0.26600951 0.4680711
42 0.68442726 -0.16842115 0.18653972 -0.13609301 0.63957959 -0.1899056 -0.064238213 0.43126336 0.040554363 -0.14506444 -0.68819755 0.4228971 0.23686318 0.0031140051 0.24213178 0.08929006 0.42808381 0.00062619545 0.23277298 -0.2468808 0.035561308 -0.08561226 -0.32574406 -0.47776112 -0.057582926 0.16146736 -0.15160379 0.11017462 -0.42841488 0.080593422 -0.012783187 -0.50835347
16 -0.23303369 0.19658901 -0.1378229 0.31304795 0.03224447 -0.30058506 -0.43530339 0.93946707 -0.21923409 0.080360033 0.050682165 -0.28040472 0.28748623 -0.24185841 -0.052722171 0.029955266 0.48743969 -0.94892043 -0.14567724 -0.046600629 0.55111504 -0.19773355 -0.20031606 -0.048067637 0.040193334 0.8766191 0.30706477 -0.50054199 0.069579378 -0.60678613 -0.32069474 0.23444919
23 0.15598656 -0.13017285 0.24163765 0.52851844 0.520244 -0.21915349 -0.19091107 0.50801474 -0.0084901126 -0.288605 -0.42516392 -0.018280728 0.31087005 -0.30228379 0.073149972 0.32687753 -0.058191679 -0.36765704 -0.018363714 -0.1701376 0.61558855 -0.12700258 0.29046968 -0.013934096 0.097966708 0.22084761 0.1171423 -0.18664937 -0.47177684 0.046594951 0.35620773 -0.8707189
32 0.56028658 -0.20802921 0.23739898 -0.1567989 0.92586756 -0.32025233 0.07636518 0.47171161 0.34432584 -0.31070781 -0.44894016 0.17109375 0.24340947 -0.1865157 0.22588518 0.060797181 0.20926848 0.051475585 0.21541418 -0.1930258 0.61267841 0.049973987 0.081056736 -0.38139248 0.27287182 0.39858925 -0.042840056 -0.02484511 -0.19853628 0.048875757 0.069513872 -0.46595928
53 0.10988597 -0.21149571 0.18582125 -0.18876174 0.65332824 -0.51545119 0.041575264 -0.084356233 -0.23781002 0.069298692 -0.15899447 0.46141812 0.42184183 -0.2766417 -0.035138372 -0.10222298 0.25410956 -0.13131765 0.25430945 -0.23965254 0.17232363 0.30337265 -0.47472456 -0.2640723 -0.33066449 0.12478109 -0.27011538 0.33771887 -0.27133337 0.11101099 0.48174596 0.0038028688
43 0.17280966 -0.030616708 0.0082129305 0.13466659 0.64801592 -0.08736106 0.20739292 0.34646109 -0.10291548 -0.063487642 -0.33203149 0.23262919 0.31927422 -0.3523699 0.12285589 -0.010249951 0.32333773 -0.24097103 0.24131662 -0.52361596 -0.10929244 0.061489813 -0.29469436 -0.22361636 -0.14904937 0.058578495 -0.2807042 0.22989379 -0.37916881 -0.17350829 0.39294469 -0.51789373
78 -0.30957854 1.049352 0.50292218 -0.0035694987 -0.32275999 -0.71312565 0.39541942 0.0097449953 0.055197258 0.10996188 0.39587075 0.55767268 0.25448012 -0.22761598 0.13566798 0.43210241 0.16074821 -0.10168153 -0.37728465 0.52831209 0.056654558 -0.88506824 -0.42290047 -0.11653028 0.48216116 -0.57165956 0.06993366 0.25864923 -0.38367525 -0.33837345 -0.21872492 -0.07085339
75 0.13641268 -0.13587441 0.28776497 -0.05290835 -0.41673398 -0.86302155 0.36734122 0.051226079 -0.1636411 -0.32636026 -0.012116632 0.36531264 -0.3958239 -0.27360624 -0.21261849 0.45711517 0.33221355 0.083387196 -0.047043201 -0.059316523 0.18645538 -0.11703301 -0.46889272 0.18497001 0.012519257 -0.07410261 0.26148975 0.48973039 -0.1625191 0.093604565 0.51703644 0.29457358
77 0.067351088 0.46147251 0.37090656 -0.068962105 -0.50527763 -0.79870832 0.49902731 0.083709836 0.017825048 0.026826538 0.31936431 0.56161636 0.037035111 -0.22426997 0.11563069 0.47834846 0.32781121 -0.0857675 -0.050473776 0.25884372 -0.0016421222 -0.72591609 -0.37696069 -0.095410362 0.086992547 -0.58364171 0.27620679 0.058194585 -0.49498016 -0.20598857 0.18196049 0.13121343
63 0.39973032 0.017457096 0.27192181 -0.42973992 0.32380143 -0.31553379 -0.31530955 0.20430781 -0.28629607 0.22514413 -0.50130731 0.34683695 -0.14307757 -0.31082565 -0.16455193 0.44172388 0.26230413 -0.0023768619 0.18827501 -0.20839982 0.19930212 0.31053039 -0.54536939 -0.031504888 -0.26582876 -0.060294908 0.0059635518 0.49071702 -0.043323401 0.12867495 0.40728426 0.33710665
25 -0.21980923 -0.021943584 0.090286225 0.61507225 0.23028167 -0.23288411 -0.165951 0.48919722 0.12931217 -0.20081608 0.078539647 -0.23788157 0.45169041 -0.048562456 -0.039376181 0.21952397 0.079927258 -0.86620623 -0.071769208 -0.095559776 0.42755789 0.29736251 -0.09350083 -0.16269206 -0.046996117 0.5608241 0.17452908 0.2383327 -0.26958215 -0.54128122 0.073339611 -0.096115015
68 -0.35782292 0.9268918 0.47721672 -0.35436955 -0.236001 -0.63501227 0.42970636 0.15907165 0.22218812 0.40032521 0.34202999 0.25517529 0.31278071 -0.41913629 0.18313117 0.38959426 0.33872706 -0.27717015 -0.40371022 0.42827609 -0.0069001941 -0.38380346 -0.029906608 0.17162487 0.24684684 -0.4338918 -0.24384962 0.47625083 -0.61888522 -0.25567868 -0.51926064 -0.0049825832
34 0.065996677 -0.085219882 -0.09199176 0.2287861 0.65964764 -0.43001083 0.21041295 0.036221378 0.19025005 -0.26045629 -0.101404 0.071933471 0.23049614 0.11135808 -0.021416441 0.03707793 0.0079796445 -0.4021945 0.16286263 -0.31619346 0.4990851 0.027780086 0.026690718 -0.010584628 -0.38802096 0.43426022 0.14216319 0.17484343 -0.59733105 -0.51954955 0.037312556 -0.48256594
56 -0.32935062 -0.097438999 0.19679934 0.10407936 -0.31221595 -0.44440514 0.80176479 0.12618828 0.044372465 0.35889852 -0.0066793635 0.11244366 0.02671436 0.02452627 0.042312171 0.20495038 0.07914383 -0.24397781 -0.16262384 -0.48029184 0.31819841 -0.13170624 -0.11718369 0.049950518 -0.14518686 -0.22332074 -0.16456188 0.54946721 -0.79084659 -0.40486065 -0.10246381 0.038505957
38 -0.71510416 0.4095158 0.26548594 -0.10290093 0.074183725 -0.67910898 0.26192629 0.46945661 -0.26716408 0.3877365 -0.23368722 -0.51838887 0.15708794 -0.2023184 0.5620867 0.73575783 0.33072126 -0.48030218 -0.82277 -0.10782179 0.011512706 -0.22510123 0.40733552 -0.1825455 -0.041326776 0.20845799 0.2730549 -0.13378108 0.041511558 -0.3022081 -0.18015279 0.20117685
26 -0.46513182 0.25590563 -0.11196441 0.20045505 0.25126553 -0.25868812 0.1840232 0.48695949 -0.1002029 0.083586276 0.17597358 -0.20218998 0.084290534 0.14281546 0.15790582 0.29925263 0.48044336 -0.94953549 -0.18086334 -0.041547019 0.61634535 0.090228565 -0.064122282 -0.21656446 -0.10631193 0.57093316 0.20914872 -0.10601401 0.25645819 -0.68611813 -0.049254332 0.13731779
64 0.14765984 0.0056111999 -0.044044632 -0.36712989 0.031112693 -0.26366526 0.23496112 0.069511287 -0.12396457 -0.0017634111 -0.43564886 0.25863513 -0.23914956 -0.36645779 -0.28384131 0.1672979 0.098677084 -0.11975626 0.095048949 -0.44357419 0.27809528 0.0092133889 -0.46368316 -0.040255398 0.020942772 0.089810006 0.030667042 0.83254468 -0.18514262 0.015116476 0.35446686 0.27814817
76 -0.081974104 0.26315269 0.15165618 -0.23901705 -0.60857308 -0.7329995 0.52976739 0.2114519 0.11052139 -0.32493767 0.11165485 0.54235971 0.014217183 -0.22658326 -0.24054123 0.76003611 0.2831462 0.089421943 -0.13601787 -0.14399615 -0.1139105 -0.29952714 -0.28528079 -0.0070949695 0.13466077 -0.39247647 0.086913876 0.25285062 -0.38919055 -0.096729837 0.41252559 -0.017829238
47 -0.37587529 0.23415811 0.52392954 -0.053753573 -0.1260978 -0.45944235 0.56118053 0.29239792 -0.28826901 0.57553703 0.22532855 -0.14241534 0.21032478 0.024353493 0.3273454 0.20618241 0.3073464 -0.65269625 -0.36388594 -0.21853429 0.30830419 0.10006221 0.36920634 -0.013368106 0.11947472 -0.11503289 0.19335099 0.37330881 -0.32970324 -0.33186889 -0.2465775 0.1392968
33 0.28373042 -0.02407624 0.12926529 0.16655673 0.94597548 -0.33340925 0.077664055 0.31329083 -0.17500286 -0.47308594 -0.200455 0.11134036 0.43691447 -0.1973092 0.0010586989 -0.072072536 0.2762076 -0.2045635 0.2561639 -0.32078195 0.45044726 -0.0016501122 0.33215836 -0.052671585 -0.011209424 0.11857573 -0.11206948 0.044987518 -0.50204188 -0.10639847 0.26403916 -0.55401123
37 -0.23249204 0.12323195 0.40987825 0.067620322 0.062993079 -0.31341007 0.50194621 0.49887809 -0.30520806 0.35158843 -0.044010803 -0.28764758 0.14243509 0.030776383 0.26385337 0.54807651 0.1571127 -0.64731026 -0.57518178 -0.12933969 0.36847809 -0.074102804 0.40979072 -0.33673805 -0.12532286 0.41976362 0.17133273 0.10797296 -0.10741088 -0.38414904 -0.24261275 0.60001892
67 -0.12901518 0.3237837 0.6265713 -0.029669421 -0.27269834 -0.7677263 0.58103222 0.11774383 -0.14120981 0.25862113 0.46297935 0.28730023 0.29823226 -0.37844262 -0.054170448 0.16298868 0.24764626 -0.22015373 -0.14498325 0.091134205 -0.20215118 -0.54238021 -0.15856519 0.36062822 -0.020392967 -0.26157859 0.13725619 0.41374904 -0.70271719 -0.059151679 -0.24159865 -0.083894543
65 0.12123095 -0.064271018 0.32460001 -0.18845779 -0.17871612 -0.64298028 0.54287654 0.2749469 -0.10370466 0.096675277 -0.0098579191 0.1945329 -0.37416083 -0.36028275 -0.36335629 -0.013574511 -0.020075928 -0.22419067 0.12114511 -0.31080461 0.10257608 -0.022148192 -0.39007878 0.08666604 -0.067119256 -0.11768524 0.2710824 0.67445242 -0.19183949 -0.15014414 0.43059266 0.069025598
48 -0.55723673 0.33520573 0.37696323 -0.22276996 -0.0074502653 -0.78229445 0.21906999 0.31854513 -0.033130527 0.87737709 -0.04923021 -0.1255759 0.19158097 -0.35850671 0.54532999 0.40425044 0.3908076 -0.72801346 -0.52364582 0.11847313 -0.059238594 -0.15024215 0.37381423 -0.073497616 0.061113987 -0.14713992 0.22168751 0.037740849 -0.42554712 -0.1047027 -0.26166445 0.30244821
36 -0.48396668 0.071906701 0.29365993 0.23451366 0.41327509 -0.34408757 0.47209328 0.44914678 -0.12753347 0.34984022 0.093260556 0.019502861 -0.07689324 0.22576182 -0.14952126 0.36949354 0.053489115 -0.53512168 -0.1022338 -0.22805837 0.378759 -0.19671243 0.13316782 -0.22149892 -0.4280276 0.41080981 0.069865391 0.11599456 -0.18008986 -0.58933723 -0.17180687 0.14402254
45 0.086925097 0.070742592 0.046877895 0.37924078 0.087217472 -0.26787493 0.72074491 0.066432565 -0.23167722 0.18903424 0.046233043 -0.036091387 0.16714992 -0.035221357 -0.015567085 -0.028612515 -0.07473813 -0.66614199 0.23708285 -0.499309 0.42128113 0.030084442 -0.084670037 0.011694923 -0.26587564 0.035302594 -0.011783889 0.60940945 -0.266651 -0.35720173 0.17099142 -0.071512543
24 0.20620717 -0.014177967 0.12144416 0.5129143 0.57087976 -0.17490245 -0.066404924 0.30245566 0.34490791 -0.20179388 0.025508329 -0.29328269 0.27472207 -0.098704271 0.017035624 0.12234393 -0.063112214 -0.61981958 -0.048338093 -0.12883945 0.68989629 -0.074979 -0.18332602 -0.057447016 -0.012765939 0.53998202 0.25866869 -0.094256312 -0.4375509 -0.47904217 0.27830306 -0.46517777
58 -0.2155797 0.51018322 0.31597281 -0.35248429 -0.28249097 -0.67434365 0.61290866 0.089353524 -0.23249155 0.89372534 0.089012533 0.012524754 0.31191561 -0.27382112 0.38838983 0.62949216 0.39128354 -0.59121782 -0.47354957 0.32415828 -0.16041337 -0.27906987 -0.096496113 0.22065131 0.20581396 -0.10791394 -0.043425038 0.054847158 -0.56708211 -0.27843657 -0.56827956 0.040911399
46 -0.2711693 0.044929475 0.13866192 0.22264062 0.12683907 -0.36427933 0.69417083 0.12116916 -0.071449444 0.40689552 0.22560713 -0.096580796 -0.025671832 0.09733656 -0.015640413 0.1338021 0.01114857 -0.59931338 -0.2048904 -0.44300801 0.42298722 0.10934719 -0.11018825 -0.17642543 -0.2222441 -0.056114253 0.26349235 0.54222125 -0.27636319 -0.27830648 -0.34697038 -0.26990125
66 -0.01293983 0.25318748 0.19020301 -0.11536761 -0.35146528 -0.58112967 0.69197071 0.20346113 0.11301649 0.13650849 0.34928879 0.090541631 -0.049525362 -0.35250089 -0.25704184 -0.021234954 0.2331941 -0.06354218 -0.22989762 -0.38425007 0.15515412 -0.16332571 -0.34449196 0.026646363 0.052335385 -0.34912783 0.11154839 0.44859904 -0.64349788 -0.18641499 0.18856843 -0.042566553
35 0.00075459137 0.070746571 0.041782707 0.4903225 0.31173298 -0.31850284 0.2067188 0.1154034 -0.32362837 -0.0081516281 0.061914455 0.029187698 0.17784677 0.36789614 0.057415675 0.10997315 0.21128157 -0.6850794 0.21483921 -0.3614333 0.31124875 0.034283422 0.17627229 -0.13091324 -0.20010011 0.36104038 0.22215106 0.25328919 -0.53996366 -0.64200431 -0.071502157 -0.072619714
54 -0.0051305033 -0.15351745 -0.19228199 -0.15253839 0.26683649 -0.41245371 0.34809518 -0.16254574 -0.43845308 -0.023863979 -0.18367697 0.11669683 0.079030424 -0.21496689 -0.17886525 -0.10501071 0.038227309 -0.13408901 0.1164912 -0.5247364 0.42912695 0.15159643 -0.37368643 -0.23002884 -0.20539694 0.043295857 0.16119747 0.55965626 -0.62456679 0.029945193 0.067231864 0.013464775
57 -0.25896949 0.035170693 0.55196321 -0.13527799 -0.37720093 -0.47738835 0.81333029 0.096487671 0.034430169 0.56764597 0.052687708 0.14887619 0.2396175 -0.081475496 -0.082045063 0.3459197 0.21028434 -0.47461653 -0.3088364 -0.079424821 0.15394054 -0.47256014 0.15833007 0.22427191 0.045754116 -0.078541599 0.070986062 0.2910167 -0.48221213 -0.29582131 -0.2055665 -0.076634526
44 0.2363168 -0.18612297 -0.33007792 0.33652619 0.34751844 -0.32191086 0.31275424 0.17585605 -0.0034271905 0.079358958 -0.30854633 0.35527864 0.14244884 -0.12393039 0.014530961 -0.094388016 -0.28257453 -0.50383729 -0.033868182 -0.57619226 0.36846063 -0.048105638 -0.24077414 -0.1166352 -0.34948632 0.092582561 -0.079680756 0.52954239 -0.37084264 -0.37150523 0.12122724 -0.2673395
15 -0.40389925 0.15741739 0.25016579 0.37099388 0.1240081 -0.28231072 -0.70672166 0.71920711 0.053231273 -0.077432983 -0.011458642 -0.24353853 0.40755671 0.026710672 -0.20556559 0.001289212 0.17839591 -0.81650817 0.062889352 -0.01883636 0.61916637 0.12743595 -0.114118 0.00085138332 0.082517989 0.64891458 0.201937 -0.26168901 -0.4028309 -0.60354698 -0.18915087 -0.016459396
55 -0.21606036 -0.12600675 0.19294484 0.097608641 -0.016874449 -0.44819281 0.72965628 -0.0062505309 -0.37160257 -0.0026730453 -0.27509105 0.17451017 -0.048928738 -0.091841578 -0.16078994 -0.061496798 0.07715527 -0.31758904 0.30352083 -0.33328328 0.32892489 0.030432533 -0.12143268 0.04073653 -0.39611107 -0.11457097 0.088694289 0.53543866 -0.53315783 -0.30170324 0.13879372 0.075065061
80 0.53192514 0.18944949 0.69000107 0.010009973 0.072323211 0.039132219 -0.60453993 -0.61961389 0.090520926 -0.052095894 -0.49935105 0.044048257 0.2846373 -1.0121831 0.1015623 0.47355789 0.70354372 0.55163777 0.20123918 -0.9153074 0.48085821 -0.14845742 -0.9958747 -0.2413386 -0.041858919 -0.42516169 0.31544626 0.015163177 0.51723826 -0.45568645 -0.43690857 0.23689343
98 0.012672131 1.0550836 0.48532304 -0.17461006 -0.43915835 -0.77169126 0.42658257 -0.14049956 0.32179224 -0.50395435 0.40829691 0.60653198 0.11938818 -0.69268411 -0.09871842 0.60538512 -0.14468655 -0.29009306 -0.037232257 0.28678221 0.11377962 -0.94139332 -0.73683077 -0.68806911 0.53134882 -0.74205798 0.19370797 0.024457691 0.0098723471 -0.17959714 -0.18022265 0.5478819
8 -0.44898441 0.96026474 0.19589637 0.40217957 -0.40886608 -0.85781008 -0.10859209 0.74062121 -0.097750671 -0.16084778 -0.24140312 -0.3587018 0.36297908 -0.31096944 0.5132671 -0.085749745 0.30673563 -0.52928299 -0.3713758 -0.61352473 0.26574486 -0.25005347 0.022410393 0.1089553 -0.38556427 1.2605182 0.22947609 -0.72244698 0.49001804 -0.37988079 -0.51810038 0.51569277
89 0.035132337 1.2743187 0.44439566 -0.31912297 -0.19002351 -0.89576322 0.49309534 -0.29817754 0.40550515 -0.33628112 0.25313339 0.39309996 0.063085839 -0.73025614 0.033734713 0.41009405 0.038390201 -0.17065653 -0.22691998 0.46462929 0.2740626 -0.89477068 -0.34554225 -0.32240427 0.42693445 -0.91777503 0.14809245 0.093609825 -0.25172243 -0.53768986 -0.62949783 0.43765035
97 0.046309423 0.61710572 0.31219384 -0.10746923 -0.48477191 -1.1446577 0.35058567 -0.18816891 -0.0066143377 -0.52584773 0.34977123 0.70811903 -0.067239858 -0.32235688 -0.1510247 0.846457 0.27387357 -0.14580686 -0.082996435 0.28106543 0.29019806 -0.62174523 -0.55133229 -0.43396023 0.43170014 -0.91797394 -0.014757263 -0.059348878 0.17755355 0.055475798 -0.063287519 0.33597767
91 0.30255595 0.41621837 0.59299284 0.049027685 -0.25862902 -0.21288587 -0.55316043 -0.70085895 0.45091429 -0.14276278 -0.86128378 0.34125164 0.10254821 -0.70274228 -0.014571281 0.40524328 0.83146089 0.36551654 0.20070753 -0.87453514 0.54367238 -0.041916661 -0.8513484 0.045882598 -0.057623919 -0.48130727 0.46255547 0.23684511 0.48761818 -0.049135517 -0.44701225 0.29235175
7 -0.46652323 0.73853129 -0.11391301 0.30995813 -0.16592854 -0.79447937 -0.32074603 0.93892574 0.11914644 -0.17263502 -0.52920073 -0.35180715 0.45033696 -0.06494543 -0.018236175 -0.027788235 0.57928938 -1.0282855 -0.43615031 -0.17889972 0.38485852 -0.1120555 -0.016726056 0.10863281 -0.21979026 0.81918198 0.2148377 -0.6321376 0.63218099 -0.36532396 -0.37631252 0.34025156
92 0.0063626361 0.34743187 0.69113004 -0.077818774 -0.29672959 -0.14891738 -0.6331448 -0.58587664 0.24570686 -0.29076275 -0.63410217 0.64067161 -0.20558611 -0.96876299 0.023038717 0.33473092 0.81078917 0.23742682 -0.034983683 -0.73431307 0.12221751 0.062853575 -0.51708961 -0.0036004211 0.16492298 -0.14591509 0.24422213 0.40736631 0.40507603 -0.12794977 -0.1300492 0.21524082
94 0.36079094 0.27213284 0.62768006 -0.33195964 -0.44863883 -0.80285704 -0.36411732 -0.43512893 0.16107039 -0.44679284 0.13466585 0.71969128 -0.919303 -0.2166663 0.16976075 0.38653955 0.77782559 0.12065203 -0.29329202 -0.39315951 0.17685795 -0.11923029 -0.52986026 0.21694449 0.18315452 0.1993776 0.0025461093 0.48444271 0.24125664 0.049038693 0.24070413 0.035343979
10 0.12285861 0.31055084 0.42664963 0.3024902 0.62909877 -0.50441313 0.0693198 0.46667597 0.08682844 -0.53082263 -0.67515409 0.29970506 0.02519392 -0.37561807 0.46176255 0.2184459 -0.48300219 0.1934365 0.71777654 -0.50257593 1.2447752 0.31599623 -0.28053346 -0.10118006 0.98089349 0.27046064 -0.13264018 -0.71677285 0.18336664 -0.21573865 -0.18257813 -0.80973464
96 0.16190434 0.28600371 0.26280433 -0.159032 -0.57922482 -1.0458194 0.0060240231 0.18659522 0.18829904 -0.61692917 0.52046359 0.66246694 -0.34687057 -0.31250238 0.1106508 1.0349624 0.35828099 -0.042328797 0.30823618 -0.0016239136 -0.12380037 -0.63323426 -0.60373318 -0.21076529 0.25995353 -0.44441992 0.0042927912 0.30065826 0.044591691 0.072156258 0.1842065 0.38798687
95 0.39301056 0.32628772 0.33884278 -0.08991982 -0.67233711 -0.72524196 0.18087947 -0.1516149 0.01163003 -0.6450513 0.33122686 0.88416845 -0.59476495 -0.38588676 -0.2278493 0.7110061 0.71367013 -0.053698998 -0.24871846 -0.26348269 0.20411932 -0.19027323 -0.50844681 0.049442548 0.11484013 -0.061702605 -0.09990821 0.10429239 0.1243477 0.50274378 0.1921339 0.12780805
79 -0.12455639 1.1302692 0.35356835 -0.3386386 -0.30273283 -0.57458436 0.56325734 -0.090265773 0.0056668464 0.14232142 0.15017578 0.51552266 0.34706417 -0.49239469 0.19771259 0.37564233 0.13214202 -0.40072843 -0.12188613 0.76982903 0.074527808 -0.94776785 -0.4197053 0.012912298 0.32337254 -0.49057367 0.28552458 0.34899351 -0.22221059 -0.46433958 -0.58549994 0.027259553
29 -0.55339301 0.66545653 0.37434092 -0.16742547 -0.22884481 -1.0522339 0.047369596 0.42995062 -0.24417058 0.35150662 -0.14598484 -0.45839608 0.39908487 -0.24883866 0.96949434 0.18781677 0.0081298901 -0.35334069 -0.81136256 -0.33613572 0.12036979 -0.3380267 0.315465 -0.23245798 -0.22957192 0.73785067 0.51777184 -0.39422271 0.22795847 -0.197611 -0.10065538 0.46965408
70 0.39447913 0.042491101 0.47363618 -0.19328474 0.300439 -0.10360729 -0.67083716 -0.47592759 -0.019067481 -0.14702798 -0.57272953 0.17844218 0.67252433 -0.46317679 0.059041545 0.41014636 0.94802976 0.35195276 0.045945376 -0.68115729 0.53037876 -0.43807921 -0.97044432 -0.16917181 0.062800191 -0.61772084 0.17659906 -0.019991998 0.73714221 -0.13098256 -0.25029773 -0.32836643
93 0.3115215 0.50884402 0.62343401 -0.0061161336 -0.49101201 -0.28789517 -0.45399803 -0.27930158 0.19879632 -0.17074369 -0.25555447 0.69885725 -0.65926868 -0.50594866 0.063155912 0.42017654 0.93190056 0.24470654 -0.14939782 -0.71393746 0.069524191 -0.025502928 -0.81474864 0.17776111 0.28332123 0.1291354 0.40666234 0.32468373 0.1779848 0.35878626 0.043257572 0.14365207
19 -0.6464988 0.97973728 0.32839698 0.19275644 -0.28162351 -0.8633095 0.0093856743 0.59173548 -0.102832 -0.20485254 -0.37093264 -0.54900312 0.28142461 -0.13280585 0.92222518 0.12562199 0.11811267 -0.53476 -0.58165443 -0.80559361 0.04906439 -0.42570883 0.13946828 -0.15255588 -0.50914663 0.78202069 0.38696828 -0.41964021 0.65677732 -0.42206025 -0.45529994 0.4795256
2 0.14494696 0.34330887 0.45798633 0.36921933 0.35536879 -0.18736582 -0.60179663 0.41467974 -0.086707152 -0.31819111 -0.33599862 0.039425045 -0.097114794 -0.40270987 0.40285012 0.62476587 -0.46628988 -0.28660104 0.32200995 -0.35580412 1.4762183 0.17932214 0.165803 -0.055289954 0.53369516 0.23539469 -0.3566038 -0.86622751 -0.43039057 -0.061798759 -0.015367244 -0.65879655
1 0.33995116 0.26821643 0.43697739 0.36094603 0.40956366 -0.37843627 -0.11442251 0.41910756 -0.0079090381 -0.43532553 -0.44186997 0.19916995 0.23591307 -0.56809384 0.4850837 0.63630223 -0.73071021 -0.052531056 0.78162575 -0.60927302 1.2741953 0.097452641 -0.27218673 0.15893181 0.431135 0.51159042 -0.2614626 -0.95277125 -0.13177218 0.19581527 -0.26916644 -0.70792407
3 0.021329477 0.24946442 0.48923668 0.34082204 0.065341279 -0.3759478 -0.61253834 0.48381025 -0.057522584 -0.42265579 -0.38688463 -0.37143207 0.297456 -0.11213817 0.37628531 0.39853367 -0.37102675 -0.42711264 0.27493712 0.16228691 1.381743 0.095372535 -0.1767723 0.26331821 0.031822525 0.64793438 -0.30621055 -0.70300382 -0.59729695 -0.021355666 0.11643789 -0.52047741
20 0.51728791 -0.23113443 0.74085957 0.11484268 0.4553557 -0.41314542 0.11309049 0.62569559 0.13585334 -0.50085819 -0.44786525 0.3641932 0.34782672 -0.48118097 0.29427105 0.26571599 -0.17914584 0.18828316 0.59942472 -0.33856434 0.74936914 0.38961005 -0.31792381 -0.25522956 0.95893359 0.51800895 -0.32478076 -0.43216181 0.25704598 0.12957491 -0.31792361 -0.59047759
60 0.45514515 -0.069646142 0.78889877 -0.1949929 0.443984 0.14545949 -0.50266343 -0.21643727 -0.27361223 -0.32846481 -0.59483778 0.090007417 0.24871774 -0.21837898 0.2366219 0.27140933 0.71050358 0.13505411 -0.22810777 -0.41060528 0.42917803 -0.4597773 -1.0103223 -0.58146465 -0.17978393 -0.39898929 -0.092927568 -0.15745828 0.41329569 0.12455951 -0.23007125 -0.46820027
30 0.60536158 -0.1573261 0.5493629 -0.30567345 0.3709237 -0.052745651 -0.049198318 0.79527128 -0.065356724 -0.45201576 -0.7663964 0.24230658 0.2706255 0.044097673 0.50605363 0.11222573 0.27655473 0.43478015 0.30758953 -0.13578741 0.73713607 0.22071624 -0.45850947 -0.46636263 0.71301085 0.39870641 -0.12731771 -0.053326685 0.075492077 -0.15131785 -0.29326758 -0.62300819
69 -0.12795231 1.0837657 0.44800761 -0.43059418 -0.11759852 -0.55619305 0.4498969 -0.18584223 0.089359067 0.22856978 0.28228611 0.23073481 0.18940079 -0.49602452 0.23587438 0.52773947 0.33394843 -0.67798525 -0.38961345 0.49340251 0.011484846 -0.9686439 0.12897946 0.27518031 0.20678148 -0.26416555 -0.18997946 0.27845839 -0.43551949 -0.26962119 -0.55490834 0.06357111
40 0.50446367 -0.38560298 0.88891482 -0.38950658 0.44157386 -0.056278635 -0.23342137 0.49995998 -0.028971642 -0.47415528 -0.73300576 0.074849352 0.46308142 -0.040044334 0.41719684 0.14881164 0.39852574 0.20187795 0.38393453 0.055838011 0.3182351 -0.09009853 -0.6222229 -0.607647 0.40292683 0.29786721 -0.27674022 0.27024129 0.20105718 0.072028577 -0.40124136 -0.64247888
50 0.54991072 -0.27822801 0.75569868 -0.24134837 0.49826887 -0.073088437 -0.49261844 0.26370576 -0.085620515 -0.33546859 -0.67171448 0.1047757 0.60210645 0.1181023 0.28149173 -0.036240865 0.70273161 0.47631112 -0.15301073 -0.36666679 0.42975381 -0.30932704 -0.84763336 -0.54111165 0.32827491 -0.1539042 -0.36754274 -0.0079648858 0.031166963 0.024123464 -0.10616002 -0.19965135
4 -0.083638459 0.074999288 0.41133636 0.27294978 0.068832658 -0.41254938 -0.86697572 0.680825 0.048115797 -0.43019363 -0.18921849 -0.72011691 0.04526994 -0.23188064 0.096609831 0.053481709 -0.33387792 -1.0120069 0.004317699 -0.10744606 0.92587674 0.091551751 -0.20676878 -0.17426442 0.28850278 0.3931146 -0.063238114 -0.44111779 -0.41721529 -0.45949945 -0.065101154 -0.5571329
5 -0.59680343 0.27630231 0.14361387 0.26976156 -0.077362813 -0.24721864 -0.60902369 0.74446964 0.40698457 -0.2604402 -0.22495265 -0.49875358 0.38249028 -0.12600024 -0.11133871 -0.13811447 0.46361667 -0.97300786 0.090794928 0.15755521 0.92596298 0.20159931 -0.33917719 -0.10097076 0.18828468 0.79262698 0.19322792 -0.43162563 -0.34107456 -0.28961655 -0.22179118 0.043437943
39 -0.46413389 0.40080667 0.47869155 -0.43601292 -0.12426811 -0.76745355 0.24146748 0.10134245 -0.32335457 0.19142905 0.018380918 -0.71627825 0.17493121 -0.36479232 0.9335463 0.44036525 0.44146341 -0.65375352 -0.84679335 -0.21047254 -0.055586811 -0.3524735 0.44198969 -0.27500838 0.089386746 0.30684939 0.24087678 -0.26287839 -0.21457224 -0.30544886 -0.20636441 0.5670774
6 -0.37794942 0.055762798 -0.15490241 0.18202102 -0.2593596 -0.37006679 -0.49512428 1.1036148 0.026756167 -0.36040953 0.040951513 -0.37115923 0.36085421 -0.36484492 0.055792782 -0.069323815 0.5334236 -1.0340101 -0.011453029 -0.062767372 0.4379473 -0.018656161 -0.40974888 -0.018193277 -0.023656903 0.87034726 0.060089167 -0.501311 0.19657353 -0.60423374 -0.45753485 0.088229567
59 -0.38945967 0.35259587 0.30501962 -0.58196825 -0.1170745 -0.87275469 0.31340185 -0.10870075 -0.45486534 0.63422978 0.071466357 -0.079314277 0.3747122 -0.43967918 0.35750738 0.58192676 0.41048449 -0.68840528 -0.49658942 0.52171367 -0.17544557 -0.5364449 0.051424749 0.32069939 0.57355368 -0.1859155 0.038825955 0.098064318 -0.35183284 -0.5796001 -0.64012903 -0.026907237
49 -0.70957285 0.38916746 0.17578387 -0.60468447 -0.025743119 -0.74829978 0.19465046 0.19181409 -0.056258235 0.74165708 -0.0075053307 -0.15474896 0.48308995 -0.37366962 0.64085543 0.75513506 0.37477806 -0.55634117 -0.70582926 0.10191402 0.13488357 -0.40849334 0.42045313 0.36403924 0.32909524 0.13698284 0.22684142 0.10191036 -0.43907651 -0.11533786 -0.31165224 0.46069512
99 -0.2233589 1.1234607 0.3079429 -0.22417833 -0.50775349 -0.91949308 0.42386696 -0.33741364 0.25386196 -0.54666734 0.11757543 0.59043366 0.23859994 -0.55290139 -0.039710224 0.54998285 0.077715956 -0.37411267 -0.26696613 0.41572219 0.38197172 -1.0537937 -0.47036463 -0.53099781 0.43228182 -0.97259581 0.25533256 0.086264826 -0.033126544 -0.18726483 -0.45449293 0.37294924
90 0.36640355 0.11964883 0.48956108 -0.046233714 -0.24046928 -0.047583099 -0.66365367 -0.54127359 0.38179451 -0.30119193 -0.57858354 0.24791652 0.50875056 -1.2487187 -0.21217845 0.57351947 0.80617934 0.33842477 0.20291197 -0.98842043 0.55837232 -0.24589677 -0.74207526 0.059126828 -0.32922518 -0.53322375 0.19532113 0.18135609 0.7423563 -0.18650442 -0.62325943 0.13559403
9 -0.53221428 1.1446682 0.19482674 0.23406453 -0.49119276 -0.99341553 -0.11241513 0.59145737 -0.20867994 -0.2678363 -0.21951658 -0.42912492 0.41880634 0.064846307 0.76186824 0.021200333 0.24445678 -0.39948872 -0.73168975 -0.72208238 0.41270545 -0.33589542 0.040623996 0.18532616 -0.80530107 1.0679724 0.2825366 -0.62267387 0.53066432 -0.1865245 -0.63511884 0.19426748
0 0.097053476 0.33054641 0.53800893 0.45143652 0.59834516 -0.29372969 -0.090190977 0.4068988 -0.19698535 -0.57388771 -0.19886473 0.38319278 0.032713234 -0.60462242 0.39239192 0.59006137 -0.47117394 0.16386558 0.73193204 -0.89186293 1.4178432 0.28456482 -0.10948808 -0.097119972 1.0093687 0.42074507 -0.58738756 -0.94264936 -0.0070730802 -0.02405584 -0.2785939 -0.64406562
