100 32 
0 0.0 0.0 0.1522456705570221 0.0 0.0 0.0 0.40088149905204773 0.10232407599687576 0.0 0.0 0.23816223442554474 0.11581333726644516 0.0 0.0 0.10832057148218155 0.3111402690410614 0.2895585894584656 0.0 0.0 0.18140822649002075 0.0 0.0 0.0 0.0 0.23827601969242096 0.0 0.20840667188167572 0.0 0.07458243519067764 0.22555699944496155 0.2188233882188797 0.0
1 0.0 0.0 0.1727263629436493 0.0 0.0 0.0 0.42443034052848816 0.09858521074056625 0.0 0.0 0.24572902917861938 0.1182214692234993 0.0 0.0 0.10764719545841217 0.30595168471336365 0.29510852694511414 0.0 0.0 0.19647955894470215 0.0 0.0 0.0 0.0 0.24404312670230865 0.0 0.22156521677970886 0.0 0.08145727217197418 0.21865397691726685 0.2199382781982422 0.0
2 0.0 0.0 0.15124604105949402 0.0 0.0 0.0 0.4292166233062744 0.10622993856668472 0.0 0.0 0.2464011013507843 0.11968612670898438 0.0 0.0 0.09798246622085571 0.3131847381591797 0.28949594497680664 0.0 0.0 0.18353302776813507 0.0 0.0 0.0 0.0 0.23791512846946716 0.0 0.2246367335319519 0.0 0.09003499150276184 0.2336922585964203 0.21034139394760132 0.0
3 0.0 0.0 0.15436531603336334 0.0 0.0 0.0 0.40848201513290405 0.09849105030298233 0.0 0.0 0.24057428538799286 0.11320032179355621 0.0 0.0 0.08096187561750412 0.30939000844955444 0.2826310992240906 0.0 0.0 0.18805208802223206 0.0 0.0 0.0 0.0 0.24417155981063843 0.0 0.2139720618724823 0.0 0.09040624648332596 0.23312720656394958 0.20917142927646637 0.0
4 0.0 0.0 0.14160096645355225 0.0 0.0 0.0 0.43674203753471375 0.10560447722673416 0.0 0.0 0.23888982832431793 0.11443085968494415 0.0 0.0 0.09202650189399719 0.3118593990802765 0.2837783694267273 0.0 0.0 0.18861418962478638 0.0 0.0 0.0 0.0 0.2390872985124588 0.0 0.23188237845897675 0.0 0.08922505378723145 0.23600487411022186 0.21052490174770355 0.0
5 0.0 0.0 0.14275987446308136 0.0 0.0 0.0 0.42168134450912476 0.10530341416597366 0.0 0.0 0.2385176122188568 0.11412660777568817 0.0 0.0 0.0946550965309143 0.31159156560897827 0.2837070822715759 0.0 0.0 0.18532392382621765 0.0 0.0 0.0 0.0 0.23975272476673126 0.0 0.22277846932411194 0.0 0.09560108929872513 0.2432461678981781 0.20937927067279816 0.0
6 0.0 0.0 0.15103599429130554 0.0 0.0 0.0 0.4005160927772522 0.1027437299489975 0.0 0.0 0.24181582033634186 0.11283499002456665 0.0 0.0 0.1083071231842041 0.30571645498275757 0.29092738032341003 0.0 0.0 0.18142420053482056 0.0 0.0 0.0 0.0 0.2360062301158905 0.0 0.21210502088069916 0.0 0.07931102812290192 0.22860926389694214 0.2109740674495697 0.0
7 0.0 0.0 0.15075872838497162 0.0 0.0 0.0 0.4019432067871094 0.10210053622722626 0.0 0.0 0.23612520098686218 0.10931858420372009 0.0 0.0 0.10528554022312164 0.3060153126716614 0.28855231404304504 0.0 0.0 0.17721562087535858 0.0 0.0 0.0 0.0 0.239705890417099 0.0 0.20778661966323853 0.0 0.08141832053661346 0.22733232378959656 0.21226602792739868 0.0
8 0.0 0.0 0.14538787305355072 0.0 0.0 0.0 0.39229586720466614 0.10696759074926376 0.0 0.0 0.2325783669948578 0.10734426975250244 0.0 0.0 0.10042975842952728 0.30377745628356934 0.28648412227630615 0.0 0.0 0.17682653665542603 0.0 0.0 0.0 0.0 0.2322053462266922 0.0 0.20493555068969727 0.0 0.06460005789995193 0.22377389669418335 0.2031903862953186 0.0
9 0.0 0.0 0.1619313359260559 0.0 0.0 0.0 0.38066574931144714 0.10377884656190872 0.0 0.0 0.24328389763832092 0.09512896835803986 0.0 0.0 0.12608855962753296 0.29115837812423706 0.30051931738853455 0.0 0.0 0.16965626180171967 0.0 0.0 0.0 0.0 0.23497740924358368 0.0 0.20029804110527039 0.0 0.05084799975156784 0.20287099480628967 0.2117452770471573 0.0
10 0.0 0.0 0.1627587378025055 0.0 0.0 0.0 0.39722922444343567 0.1002470999956131 0.0 0.0 0.24142986536026 0.11850983649492264 0.0 0.0 0.10758228600025177 0.3022117018699646 0.2884863317012787 0.0 0.0 0.1962824910879135 0.0 0.0 0.0 0.0 0.23532526195049286 0.0 0.20257073640823364 0.0 0.06700372695922852 0.21654236316680908 0.2206006497144699 0.0
11 0.0 0.0 0.15585754811763763 0.0 0.0 0.0 0.41907066106796265 0.11067336797714233 0.0 0.0 0.2442944347858429 0.11899708956480026 0.0 0.0 0.11415120959281921 0.30429700016975403 0.28821927309036255 0.0 0.0 0.19197708368301392 0.0 0.0 0.0 0.0 0.23497743904590607 0.0 0.21692252159118652 0.0 0.06916121393442154 0.2219948023557663 0.21175026893615723 0.0
12 0.0 0.0 0.16651196777820587 0.0 0.0 0.0 0.404930055141449 0.1046842634677887 0.0 0.0 0.24668234586715698 0.11651381850242615 0.0 0.0 0.11435066163539886 0.30094918608665466 0.2956146001815796 0.0 0.0 0.19384706020355225 0.0 0.0 0.0 0.0 0.23786717653274536 0.0 0.20842480659484863 0.0 0.059486743062734604 0.2121589034795761 0.21760722994804382 0.0
13 0.0 0.0 0.15433534979820251 0.0 0.0 0.0 0.4255634546279907 0.10369978845119476 0.0 0.0 0.24429203569889069 0.1173936128616333 0.0 0.0 0.10664784908294678 0.3100290298461914 0.28994032740592957 0.0 0.0 0.18727155029773712 0.0 0.0 0.0 0.0 0.2349070906639099 0.0 0.2179231345653534 0.0 0.0742434561252594 0.22536829113960266 0.21394844353199005 0.0
14 0.0 0.0 0.1411050409078598 0.0 0.0 0.0 0.42194753885269165 0.10343902558088303 0.0 0.0 0.23736269772052765 0.11612468957901001 0.0 0.0 0.09591269493103027 0.32112568616867065 0.2867305874824524 0.0 0.0 0.17587381601333618 0.0 0.0 0.0 0.0 0.24735485017299652 0.0 0.22272028028964996 0.0 0.1008368507027626 0.24913156032562256 0.2088577002286911 0.0
15 0.0 0.0 0.15500958263874054 0.0 0.0 0.0 0.4119287133216858 0.09640774130821228 0.0 0.0 0.24148669838905334 0.10999277979135513 0.0 0.0 0.10079480707645416 0.31006932258605957 0.29319697618484497 0.0 0.0 0.18404366075992584 0.0 0.0 0.0 0.0 0.24114851653575897 0.0 0.2207755148410797 0.0 0.08356838673353195 0.22915613651275635 0.2156773805618286 0.0
16 0.0 0.0 0.17292632162570953 0.0 0.0 0.0 0.41112738847732544 0.11075562983751297 0.0 0.0 0.24331553280353546 0.12140397727489471 0.0 0.0 0.11836951971054077 0.30692794919013977 0.29309967160224915 0.0 0.0 0.19912955164909363 0.0 0.0 0.0 0.0 0.23405027389526367 0.0 0.20458516478538513 0.0 0.06279970705509186 0.21507936716079712 0.21224063634872437 0.0
17 0.0 0.0 0.162331223487854 0.0 0.0 0.0 0.41454094648361206 0.10755273699760437 0.0 0.0 0.24406957626342773 0.12250219285488129 0.0 0.0 0.11311248689889908 0.30812907218933105 0.29090046882629395 0.0 0.0 0.18893766403198242 0.0 0.0 0.0 0.0 0.23443232476711273 0.0 0.2095896303653717 0.0 0.07100563496351242 0.2199518084526062 0.214636892080307 0.0
18 0.0 0.0 0.16084063053131104 0.0 0.0 0.0 0.407170832157135 0.10546013712882996 0.0 0.0 0.23806315660476685 0.11832105368375778 0.0 0.0 0.10458506643772125 0.3041221499443054 0.28377291560173035 0.0 0.0 0.1954120397567749 0.0 0.0 0.0 0.0 0.23566292226314545 0.0 0.20925351977348328 0.0 0.06357093900442123 0.2201257348060608 0.20674574375152588 0.0
19 0.0 0.0 0.1602506935596466 0.0 0.0 0.0 0.4034919738769531 0.10831103473901749 0.0 0.0 0.2452157586812973 0.10500882565975189 0.0 0.0 0.11066997796297073 0.2929726839065552 0.2966078221797943 0.0 0.0 0.19128915667533875 0.0 0.0 0.0 0.0 0.2344333976507187 0.0 0.20546256005764008 0.0 0.054870035499334335 0.19686651229858398 0.21017086505889893 0.0
20 0.0 0.0 0.14815601706504822 0.0 0.0 0.0 0.39941298961639404 0.10339666903018951 0.0 0.0 0.2394842654466629 0.11108788847923279 0.0 0.0 0.09702096879482269 0.3035613000392914 0.288063645362854 0.0 0.0 0.18584534525871277 0.0 0.0 0.0 0.0 0.2351154088973999 0.0 0.20778799057006836 0.0 0.08073682337999344 0.2252632975578308 0.2077069878578186 0.0
21 0.0 0.0 0.15949590504169464 0.0 0.0 0.0 0.4235333204269409 0.1030171811580658 0.0 0.0 0.23964399099349976 0.12318040430545807 0.0 0.0 0.10443288087844849 0.3183285593986511 0.28960567712783813 0.0 0.0 0.19040937721729279 0.0 0.0 0.0 0.0 0.2434566169977188 0.0 0.21647551655769348 0.0 0.0826607495546341 0.2333620935678482 0.21239745616912842 0.0
22 0.0 0.0 0.15807434916496277 0.0 0.0 0.0 0.411155641078949 0.10490503162145615 0.0 0.0 0.23936711251735687 0.11563257873058319 0.0 0.0 0.1105271726846695 0.30141758918762207 0.28907889127731323 0.0 0.0 0.19001436233520508 0.0 0.0 0.0 0.0 0.23382443189620972 0.0 0.21591120958328247 0.0 0.0636141449213028 0.2176843285560608 0.21287594735622406 0.0
23 0.0 0.0 0.15836487710475922 0.0 0.0 0.0 0.417622447013855 0.10685166716575623 0.0 0.0 0.23689085245132446 0.11114469170570374 0.0 0.0 0.11092730611562729 0.31241029500961304 0.2908432185649872 0.0 0.0 0.1813131719827652 0.0 0.0 0.0 0.0 0.23774896562099457 0.0 0.21960389614105225 0.0 0.07316791266202927 0.21825121343135834 0.20864856243133545 0.0
24 0.0 0.0 0.165815070271492 0.0 0.0 0.0 0.44160348176956177 0.09859791398048401 0.0 0.0 0.2465292066335678 0.12052714079618454 0.0 0.0 0.11008090525865555 0.3156231641769409 0.29589566588401794 0.0 0.0 0.192144513130188 0.0 0.0 0.0 0.0 0.2349354475736618 0.0 0.22775238752365112 0.0 0.07960923761129379 0.22346897423267365 0.22143685817718506 0.0
25 0.0 0.0 0.17088845372200012 0.0 0.0 0.0 0.4161549210548401 0.11088826507329941 0.0 0.0 0.2454555332660675 0.11900921165943146 0.0 0.0 0.11818484961986542 0.3047160506248474 0.2896328866481781 0.0 0.0 0.19128936529159546 0.0 0.0 0.0 0.0 0.23303918540477753 0.0 0.2096339464187622 0.0 0.05968392640352249 0.21127158403396606 0.21444976329803467 0.0
26 0.0 0.0 0.16262026131153107 0.0 0.0 0.0 0.3912304639816284 0.10519161820411682 0.0 0.0 0.24117767810821533 0.10905874520540237 0.0 0.0 0.11852262914180756 0.29986676573753357 0.29677024483680725 0.0 0.0 0.18429255485534668 0.0 0.0 0.0 0.0 0.23983043432235718 0.0 0.19959503412246704 0.0 0.0610964335501194 0.20836669206619263 0.2128836065530777 0.0
27 0.0 0.0 0.15241818130016327 0.0 0.0 0.0 0.39208585023880005 0.10800465941429138 0.0 0.0 0.23694446682929993 0.12042072415351868 0.0 0.0 0.11004271358251572 0.30928486585617065 0.288179486989975 0.0 0.0 0.1837928593158722 0.0 0.0 0.0 0.0 0.23856902122497559 0.0 0.19943714141845703 0.0 0.07563532143831253 0.2319202721118927 0.21110209822654724 0.0
28 0.0 0.0 0.16016767919063568 0.0 0.0 0.0 0.41275933384895325 0.10874290019273758 0.0 0.0 0.2437441051006317 0.12813588976860046 0.0 0.0 0.10457955300807953 0.31297093629837036 0.2905116379261017 0.0 0.0 0.19545795023441315 0.0 0.0 0.0 0.0 0.2338174283504486 0.0 0.2135038822889328 0.0 0.0765448659658432 0.23184488713741302 0.21272554993629456 0.0
29 0.0 0.0 0.1704414039850235 0.0 0.0 0.0 0.3960101008415222 0.1019967794418335 0.0 0.0 0.23983106017112732 0.10633818805217743 0.0 0.0 0.12759530544281006 0.298118531703949 0.30295270681381226 0.0 0.0 0.18316930532455444 0.0 0.0 0.0 0.0 0.2429818958044052 0.0 0.20193037390708923 0.0 0.06309386342763901 0.20018741488456726 0.2168203741312027 0.0
30 0.0 0.0 0.16563864052295685 0.0 0.0 0.0 0.4447700083255768 0.11083563417196274 0.0 0.0 0.24391832947731018 0.1251797378063202 0.0 0.0 0.11245027184486389 0.31951913237571716 0.2891417145729065 0.0 0.0 0.1947120875120163 0.0 0.0 0.0 0.0 0.23467347025871277 0.0 0.22977197170257568 0.0 0.07950180023908615 0.2325131595134735 0.215974360704422 0.0
31 0.0 0.0 0.16249211132526398 0.0 0.0 0.0 0.4262649118900299 0.0994025319814682 0.0 0.0 0.24393616616725922 0.123175710439682 0.0 0.0 0.1093970388174057 0.31362590193748474 0.2909183204174042 0.0 0.0 0.19112561643123627 0.0 0.0 0.0 0.0 0.23518520593643188 0.0 0.21882842481136322 0.0 0.08503995835781097 0.22863727807998657 0.216157466173172 0.0
32 0.0 0.0 0.16166825592517853 0.0 0.0 0.0 0.4031638205051422 0.09947492927312851 0.0 0.0 0.24705059826374054 0.11923643946647644 0.0 0.0 0.10483010113239288 0.3077245056629181 0.2904088497161865 0.0 0.0 0.1852872371673584 0.0 0.0 0.0 0.0 0.23808427155017853 0.0 0.20840737223625183 0.0 0.07942873984575272 0.23084042966365814 0.2218266725540161 0.0
33 0.0 0.0 0.17488957941532135 0.0 0.0 0.0 0.43045729398727417 0.10903101414442062 0.0 0.0 0.25392261147499084 0.12614332139492035 0.0 0.0 0.12222954630851746 0.31071722507476807 0.2938840687274933 0.0 0.0 0.19304893910884857 0.0 0.0 0.0 0.0 0.22941668331623077 0.0 0.22008156776428223 0.0 0.06875111162662506 0.22158053517341614 0.21814166009426117 0.0
34 0.0 0.0 0.17598086595535278 0.0 0.0 0.0 0.4480746388435364 0.10032165795564651 0.0 0.0 0.2501266598701477 0.12845949828624725 0.0 0.0 0.1101207286119461 0.3135438561439514 0.2946092188358307 0.0 0.0 0.19717630743980408 0.0 0.0 0.0 0.0 0.2372421771287918 0.0 0.22851434350013733 0.0 0.07594931870698929 0.21473252773284912 0.21913102269172668 0.0
35 0.0 0.0 0.1651701033115387 0.0 0.0 0.0 0.404352605342865 0.10142087191343307 0.0 0.0 0.24599498510360718 0.11337264627218246 0.0 0.0 0.10922685265541077 0.30283841490745544 0.2917253375053406 0.0 0.0 0.19085074961185455 0.0 0.0 0.0 0.0 0.2372206449508667 0.0 0.21013176441192627 0.0 0.07923949509859085 0.21978741884231567 0.2140781581401825 0.0
36 0.0 0.0 0.16129852831363678 0.0 0.0 0.0 0.40646588802337646 0.10914374142885208 0.0 0.0 0.2415245771408081 0.11789682507514954 0.0 0.0 0.11872467398643494 0.30881309509277344 0.2897542119026184 0.0 0.0 0.18637363612651825 0.0 0.0 0.0 0.0 0.23934119939804077 0.0 0.20680831372737885 0.0 0.07191354036331177 0.22314083576202393 0.2123131901025772 0.0
37 0.0 0.0 0.15842974185943604 0.0 0.0 0.0 0.4029786288738251 0.10955638438463211 0.0 0.0 0.23984114825725555 0.10859434306621552 0.0 0.0 0.11153653264045715 0.305869460105896 0.292533814907074 0.0 0.0 0.18448486924171448 0.0 0.0 0.0 0.0 0.2341034710407257 0.0 0.20803673565387726 0.0 0.06953328847885132 0.21445128321647644 0.2113683968782425 0.0
38 0.0 0.0 0.16478589177131653 0.0 0.0 0.0 0.40266773104667664 0.10412216931581497 0.0 0.0 0.24075213074684143 0.1213362067937851 0.0 0.0 0.1079961434006691 0.30855998396873474 0.29263797402381897 0.0 0.0 0.19054590165615082 0.0 0.0 0.0 0.0 0.241389200091362 0.0 0.20383334159851074 0.0 0.07355668395757675 0.2238571047782898 0.21239863336086273 0.0
39 0.0 0.0 0.14702415466308594 0.0 0.0 0.0 0.3674600124359131 0.09608638286590576 0.0 0.0 0.23444747924804688 0.09377068281173706 0.0 0.0 0.10136356949806213 0.29067501425743103 0.29456833004951477 0.0 0.0 0.17313040792942047 0.0 0.0 0.0 0.0 0.24464108049869537 0.0 0.19624285399913788 0.0 0.06714855134487152 0.20532619953155518 0.21410837769508362 0.0
40 0.0 0.0 0.15165962278842926 0.0 0.0 0.0 0.42998504638671875 0.1034478098154068 0.0 0.0 0.24500682950019836 0.11250998824834824 0.0 0.0 0.09684334695339203 0.3125356435775757 0.28863954544067383 0.0 0.0 0.1870141625404358 0.0 0.0 0.0 0.0 0.23266573250293732 0.0 0.2292233407497406 0.0 0.09122982621192932 0.23312535881996155 0.21144546568393707 0.0
41 0.0 0.0 0.14962127804756165 0.0 0.0 0.0 0.44075924158096313 0.10851309448480606 0.0 0.0 0.2409461885690689 0.12298673391342163 0.0 0.0 0.10513670742511749 0.3173356056213379 0.2886967658996582 0.0 0.0 0.190365731716156 0.0 0.0 0.0 0.0 0.2330927550792694 0.0 0.2315022498369217 0.0 0.08783195167779922 0.23982733488082886 0.21473389863967896 0.0
42 0.0 0.0 0.15844938158988953 0.0 0.0 0.0 0.41757339239120483 0.10287880152463913 0.0 0.0 0.2459576278924942 0.11384119838476181 0.0 0.0 0.10573503375053406 0.2994803190231323 0.28945642709732056 0.0 0.0 0.19443032145500183 0.0 0.0 0.0 0.0 0.23522204160690308 0.0 0.2179146707057953 0.0 0.0765995904803276 0.22055603563785553 0.21609073877334595 0.0
43 0.0 0.0 0.15665020048618317 0.0 0.0 0.0 0.4092487692832947 0.10277833789587021 0.0 0.0 0.24257245659828186 0.11275006830692291 0.0 0.0 0.11213712394237518 0.30592837929725647 0.2925969958305359 0.0 0.0 0.1827062964439392 0.0 0.0 0.0 0.0 0.2375211864709854 0.0 0.20919013023376465 0.0 0.07148183882236481 0.21850064396858215 0.2147732824087143 0.0
44 0.0 0.0 0.16263681650161743 0.0 0.0 0.0 0.4335721731185913 0.10833510011434555 0.0 0.0 0.24691295623779297 0.1215076595544815 0.0 0.0 0.10354776680469513 0.312283456325531 0.29033154249191284 0.0 0.0 0.20095820724964142 0.0 0.0 0.0 0.0 0.2321106344461441 0.0 0.22417359054088593 0.0 0.07852046936750412 0.2265910804271698 0.2111535668373108 0.0
45 0.0 0.0 0.15648725628852844 0.0 0.0 0.0 0.4215356111526489 0.1082100197672844 0.0 0.0 0.24614612758159637 0.12305416166782379 0.0 0.0 0.11040880531072617 0.31305891275405884 0.2907034456729889 0.0 0.0 0.18414494395256042 0.0 0.0 0.0 0.0 0.23774555325508118 0.0 0.21509554982185364 0.0 0.0832137018442154 0.2333672046661377 0.21415919065475464 0.0
46 0.0 0.0 0.1611381620168686 0.0 0.0 0.0 0.4038093090057373 0.10745296627283096 0.0 0.0 0.24046030640602112 0.11852490901947021 0.0 0.0 0.11682121455669403 0.3038284182548523 0.29032883048057556 0.0 0.0 0.18582400679588318 0.0 0.0 0.0 0.0 0.23239178955554962 0.0 0.206255704164505 0.0 0.05934138968586922 0.2139594852924347 0.21230800449848175 0.0
47 0.0 0.0 0.1613377183675766 0.0 0.0 0.0 0.40960538387298584 0.106819286942482 0.0 0.0 0.2461610734462738 0.11644122749567032 0.0 0.0 0.11596769094467163 0.3074322044849396 0.2944282591342926 0.0 0.0 0.18746358156204224 0.0 0.0 0.0 0.0 0.234510600566864 0.0 0.2136463075876236 0.0 0.06704381853342056 0.22334659099578857 0.21395479142665863 0.0
48 0.0 0.0 0.1614309698343277 0.0 0.0 0.0 0.4150616526603699 0.10862462222576141 0.0 0.0 0.24345305562019348 0.11595945060253143 0.0 0.0 0.1160615086555481 0.3100968599319458 0.2971697747707367 0.0 0.0 0.1857140064239502 0.0 0.0 0.0 0.0 0.23378251492977142 0.0 0.213964581489563 0.0 0.06835660338401794 0.2172251045703888 0.2113623023033142 0.0
49 0.0 0.0 0.17358553409576416 0.0 0.0 0.0 0.3907614052295685 0.1006283238530159 0.0 0.0 0.24239279329776764 0.10760317742824554 0.0 0.0 0.13009515404701233 0.29348716139793396 0.30070698261260986 0.0 0.0 0.18591752648353577 0.0 0.0 0.0 0.0 0.24130529165267944 0.0 0.19285114109516144 0.0 0.05435561761260033 0.19472822546958923 0.22568924725055695 0.0
50 0.0 0.0 0.15036574006080627 0.0 0.0 0.0 0.431216299533844 0.10492783784866333 0.0 0.0 0.24306990206241608 0.12596672773361206 0.0 0.0 0.09997908771038055 0.3199383616447449 0.28411799669265747 0.0 0.0 0.185979425907135 0.0 0.0 0.0 0.0 0.24055615067481995 0.0 0.21959276497364044 0.0 0.09417562186717987 0.24181252717971802 0.21349316835403442 0.0
51 0.0 0.0 0.15608260035514832 0.0 0.0 0.0 0.4150831699371338 0.1023968979716301 0.0 0.0 0.2425861656665802 0.11942797154188156 0.0 0.0 0.10664638876914978 0.31038394570350647 0.29217079281806946 0.0 0.0 0.1854707896709442 0.0 0.0 0.0 0.0 0.24000760912895203 0.0 0.2121259719133377 0.0 0.07439544796943665 0.21774500608444214 0.21416839957237244 0.0
52 0.0 0.0 0.15372391045093536 0.0 0.0 0.0 0.4207485318183899 0.1061435341835022 0.0 0.0 0.23881015181541443 0.1155974417924881 0.0 0.0 0.10724280029535294 0.3053615689277649 0.2885466516017914 0.0 0.0 0.19460418820381165 0.0 0.0 0.0 0.0 0.23944301903247833 0.0 0.21230974793434143 0.0 0.06817536056041718 0.20922070741653442 0.21124206483364105 0.0
53 0.0 0.0 0.15931051969528198 0.0 0.0 0.0 0.4194716811180115 0.10760863125324249 0.0 0.0 0.24668465554714203 0.12382301688194275 0.0 0.0 0.11403916776180267 0.3058047592639923 0.29178813099861145 0.0 0.0 0.19355876743793488 0.0 0.0 0.0 0.0 0.22945168614387512 0.0 0.21799004077911377 0.0 0.06558559089899063 0.2251720428466797 0.21774427592754364 0.0
54 0.0 0.0 0.1738387942314148 0.0 0.0 0.0 0.43359804153442383 0.10953771322965622 0.0 0.0 0.252573162317276 0.12843556702136993 0.0 0.0 0.11823159456253052 0.31660160422325134 0.29433879256248474 0.0 0.0 0.19206055998802185 0.0 0.0 0.0 0.0 0.2393294870853424 0.0 0.21776308119297028 0.0 0.08329954743385315 0.23056966066360474 0.21592605113983154 0.0
55 0.0 0.0 0.14399410784244537 0.0 0.0 0.0 0.41762059926986694 0.10575775057077408 0.0 0.0 0.23868222534656525 0.11597122251987457 0.0 0.0 0.10410122573375702 0.3108898997306824 0.28672200441360474 0.0 0.0 0.1798851191997528 0.0 0.0 0.0 0.0 0.2361195832490921 0.0 0.2134290635585785 0.0 0.07930602878332138 0.22706598043441772 0.20835444331169128 0.0
56 0.0 0.0 0.17056171596050262 0.0 0.0 0.0 0.3995002508163452 0.10323940962553024 0.0 0.0 0.24291761219501495 0.10708927363157272 0.0 0.0 0.12336559593677521 0.30300623178482056 0.2949773669242859 0.0 0.0 0.1786789894104004 0.0 0.0 0.0 0.0 0.236729234457016 0.0 0.2079695761203766 0.0 0.05699543282389641 0.21325665712356567 0.2126612365245819 0.0
57 0.0 0.0 0.1557750701904297 0.0 0.0 0.0 0.39041632413864136 0.0994371697306633 0.0 0.0 0.23812849819660187 0.10252726078033447 0.0 0.0 0.10472096502780914 0.30028820037841797 0.29109615087509155 0.0 0.0 0.17608191072940826 0.0 0.0 0.0 0.0 0.23652967810630798 0.0 0.2057717740535736 0.0 0.0699612945318222 0.21395635604858398 0.2134544998407364 0.0
58 0.0 0.0 0.14152120053768158 0.0 0.0 0.0 0.41031378507614136 0.11184806376695633 0.0 0.0 0.23889261484146118 0.11007459461688995 0.0 0.0 0.09535259008407593 0.30106642842292786 0.28899717330932617 0.0 0.0 0.18910017609596252 0.0 0.0 0.0 0.0 0.23370088636875153 0.0 0.212723970413208 0.0 0.06637556850910187 0.21693703532218933 0.20390033721923828 0.0
59 0.0 0.0 0.1630897969007492 0.0 0.0 0.0 0.39074763655662537 0.1030164361000061 0.0 0.0 0.24252039194107056 0.11661067605018616 0.0 0.0 0.12433713674545288 0.29836520552635193 0.2960415482521057 0.0 0.0 0.18101146817207336 0.0 0.0 0.0 0.0 0.2371610701084137 0.0 0.19618389010429382 0.0 0.06151852384209633 0.2051701843738556 0.2202228158712387 0.0
60 0.0 0.0 0.15766075253486633 0.0 0.0 0.0 0.41903531551361084 0.10663440078496933 0.0 0.0 0.24604952335357666 0.11902012676000595 0.0 0.0 0.10992926359176636 0.31034016609191895 0.2918766438961029 0.0 0.0 0.1882038712501526 0.0 0.0 0.0 0.0 0.23464335501194 0.0 0.21314547955989838 0.0 0.08131808787584305 0.22493012249469757 0.21510323882102966 0.0
61 0.0 0.0 0.15224963426589966 0.0 0.0 0.0 0.4298831820487976 0.11083995550870895 0.0 0.0 0.24346569180488586 0.1221049427986145 0.0 0.0 0.09471693634986877 0.30724459886550903 0.28391408920288086 0.0 0.0 0.19827669858932495 0.0 0.0 0.0 0.0 0.2308371663093567 0.0 0.221051886677742 0.0 0.07075129449367523 0.22533679008483887 0.20849347114562988 0.0
62 0.0 0.0 0.16311824321746826 0.0 0.0 0.0 0.4253290891647339 0.10179769992828369 0.0 0.0 0.24903953075408936 0.11409033089876175 0.0 0.0 0.10831381380558014 0.3012513518333435 0.2959339916706085 0.0 0.0 0.19127357006072998 0.0 0.0 0.0 0.0 0.2388318032026291 0.0 0.21999326348304749 0.0 0.07388469576835632 0.21781925857067108 0.217757910490036 0.0
63 0.0 0.0 0.14195261895656586 0.0 0.0 0.0 0.40001988410949707 0.10424354672431946 0.0 0.0 0.23560203611850739 0.11401405930519104 0.0 0.0 0.09830091893672943 0.3062901198863983 0.2864803671836853 0.0 0.0 0.18462879955768585 0.0 0.0 0.0 0.0 0.2459966242313385 0.0 0.20589523017406464 0.0 0.07581453770399094 0.23061923682689667 0.21139511466026306 0.0
64 0.0 0.0 0.15963873267173767 0.0 0.0 0.0 0.4348684847354889 0.09770926833152771 0.0 0.0 0.2412089705467224 0.12185732275247574 0.0 0.0 0.11308544874191284 0.31265324354171753 0.2936866879463196 0.0 0.0 0.18458731472492218 0.0 0.0 0.0 0.0 0.23739714920520782 0.0 0.22493043541908264 0.0 0.08258165419101715 0.2234780639410019 0.22051694989204407 0.0
65 0.0 0.0 0.16829296946525574 0.0 0.0 0.0 0.41981714963912964 0.10255168378353119 0.0 0.0 0.24858783185482025 0.12557366490364075 0.0 0.0 0.11268321424722672 0.31296199560165405 0.29179301857948303 0.0 0.0 0.19101929664611816 0.0 0.0 0.0 0.0 0.23344220221042633 0.0 0.21082404255867004 0.0 0.07359900325536728 0.22380763292312622 0.22124391794204712 0.0
66 0.0 0.0 0.1625591218471527 0.0 0.0 0.0 0.38717737793922424 0.10805664211511612 0.0 0.0 0.24254828691482544 0.11005665361881256 0.0 0.0 0.12149497866630554 0.2977602481842041 0.29532989859580994 0.0 0.0 0.17675858736038208 0.0 0.0 0.0 0.0 0.23518666625022888 0.0 0.19886913895606995 0.0 0.05896903946995735 0.21183501183986664 0.2073351889848709 0.0
67 0.0 0.0 0.1589152067899704 0.0 0.0 0.0 0.3923196494579315 0.10125675052404404 0.0 0.0 0.23447337746620178 0.10774820297956467 0.0 0.0 0.10257507860660553 0.3009973168373108 0.2887786030769348 0.0 0.0 0.1851045787334442 0.0 0.0 0.0 0.0 0.2332896888256073 0.0 0.20820648968219757 0.0 0.06650535017251968 0.21363402903079987 0.20424211025238037 0.0
68 0.0 0.0 0.15687799453735352 0.0 0.0 0.0 0.3898651599884033 0.10815301537513733 0.0 0.0 0.23641082644462585 0.10541144758462906 0.0 0.0 0.10589487850666046 0.30436092615127563 0.29269173741340637 0.0 0.0 0.18284636735916138 0.0 0.0 0.0 0.0 0.23488283157348633 0.0 0.2054232954978943 0.0 0.0696830302476883 0.2193993479013443 0.20945417881011963 0.0
69 0.0 0.0 0.1750982701778412 0.0 0.0 0.0 0.3987042307853699 0.10403206944465637 0.0 0.0 0.2510616183280945 0.10324151813983917 0.0 0.0 0.1185438483953476 0.28963348269462585 0.2999397814273834 0.0 0.0 0.18952256441116333 0.0 0.0 0.0 0.0 0.2347700595855713 0.0 0.20107358694076538 0.0 0.04872544854879379 0.1922365427017212 0.21876221895217896 0.0
70 0.0 0.0 0.17060214281082153 0.0 0.0 0.0 0.40522512793540955 0.11036621034145355 0.0 0.0 0.25079190731048584 0.12220829725265503 0.0 0.0 0.1157340556383133 0.30592766404151917 0.293644517660141 0.0 0.0 0.18896257877349854 0.0 0.0 0.0 0.0 0.2326628565788269 0.0 0.20993274450302124 0.0 0.06942597776651382 0.22600674629211426 0.2121754139661789 0.0
71 0.0 0.0 0.15508463978767395 0.0 0.0 0.0 0.4236642122268677 0.10496146976947784 0.0 0.0 0.23688773810863495 0.12484879791736603 0.0 0.0 0.10156062245368958 0.314943790435791 0.28497937321662903 0.0 0.0 0.19175046682357788 0.0 0.0 0.0 0.0 0.24064581096172333 0.0 0.22031083703041077 0.0 0.08395026624202728 0.23259416222572327 0.21116463840007782 0.0
72 0.0 0.0 0.1612178534269333 0.0 0.0 0.0 0.42810118198394775 0.10186193138360977 0.0 0.0 0.2383587807416916 0.11908078193664551 0.0 0.0 0.10910509526729584 0.3166343867778778 0.28983622789382935 0.0 0.0 0.18276828527450562 0.0 0.0 0.0 0.0 0.2370443344116211 0.0 0.22203215956687927 0.0 0.07458362728357315 0.22806335985660553 0.20975074172019958 0.0
73 0.0 0.0 0.15621298551559448 0.0 0.0 0.0 0.42532873153686523 0.108021579682827 0.0 0.0 0.24546965956687927 0.12045203149318695 0.0 0.0 0.11101515591144562 0.3134666681289673 0.29103806614875793 0.0 0.0 0.18839414417743683 0.0 0.0 0.0 0.0 0.23231807351112366 0.0 0.222459614276886 0.0 0.07897067070007324 0.2349611073732376 0.21056337654590607 0.0
74 0.0 0.0 0.14736178517341614 0.0 0.0 0.0 0.4225386381149292 0.1041361540555954 0.0 0.0 0.23837047815322876 0.11097244918346405 0.0 0.0 0.10348063707351685 0.3106309473514557 0.28794699907302856 0.0 0.0 0.18329782783985138 0.0 0.0 0.0 0.0 0.23466332256793976 0.0 0.22482967376708984 0.0 0.07569172978401184 0.22882485389709473 0.20717748999595642 0.0
75 0.0 0.0 0.16330598294734955 0.0 0.0 0.0 0.41537123918533325 0.10467104613780975 0.0 0.0 0.2452172189950943 0.11225557327270508 0.0 0.0 0.10924363136291504 0.30436971783638 0.29312390089035034 0.0 0.0 0.1873995065689087 0.0 0.0 0.0 0.0 0.238312765955925 0.0 0.21178945899009705 0.0 0.06675238162279129 0.21124963462352753 0.2120414674282074 0.0
76 0.0 0.0 0.17869694530963898 0.0 0.0 0.0 0.4159841537475586 0.10696418583393097 0.0 0.0 0.2480475902557373 0.1211746335029602 0.0 0.0 0.12016010284423828 0.3019411861896515 0.29528021812438965 0.0 0.0 0.19249463081359863 0.0 0.0 0.0 0.0 0.22862254083156586 0.0 0.20801079273223877 0.0 0.05593182519078255 0.20601552724838257 0.21471481025218964 0.0
77 0.0 0.0 0.1655629426240921 0.0 0.0 0.0 0.4071183502674103 0.10693102329969406 0.0 0.0 0.24886050820350647 0.12025998532772064 0.0 0.0 0.11333569139242172 0.3075546324253082 0.2893477976322174 0.0 0.0 0.19060447812080383 0.0 0.0 0.0 0.0 0.23312067985534668 0.0 0.20208540558815002 0.0 0.0607302263379097 0.2185797393321991 0.2171224057674408 0.0
78 0.0 0.0 0.17148816585540771 0.0 0.0 0.0 0.40927717089653015 0.1047624945640564 0.0 0.0 0.24471153318881989 0.11110308766365051 0.0 0.0 0.11302231252193451 0.29859840869903564 0.2897340655326843 0.0 0.0 0.19464394450187683 0.0 0.0 0.0 0.0 0.22971826791763306 0.0 0.21297886967658997 0.0 0.05712185055017471 0.20863918960094452 0.21446797251701355 0.0
79 0.0 0.0 0.15828582644462585 0.0 0.0 0.0 0.379934161901474 0.11100813746452332 0.0 0.0 0.24238990247249603 0.09940364956855774 0.0 0.0 0.11578135192394257 0.2873293161392212 0.2934054136276245 0.0 0.0 0.1931374967098236 0.0 0.0 0.0 0.0 0.2306511402130127 0.0 0.19369634985923767 0.0 0.039630308747291565 0.1891501247882843 0.21154405176639557 0.0
80 0.0 0.0 0.17686529457569122 0.0 0.0 0.0 0.43923407793045044 0.11166025698184967 0.0 0.0 0.2565463185310364 0.12564679980278015 0.0 0.0 0.13008204102516174 0.3184039294719696 0.29843923449516296 0.0 0.0 0.1892891675233841 0.0 0.0 0.0 0.0 0.2242967188358307 0.0 0.2278059720993042 0.0 0.07447013258934021 0.22894923388957977 0.21850934624671936 0.0
81 0.0 0.0 0.15413089096546173 0.0 0.0 0.0 0.4566870331764221 0.10470152646303177 0.0 0.0 0.241815984249115 0.1273699849843979 0.0 0.0 0.08886346220970154 0.32447293400764465 0.28450629115104675 0.0 0.0 0.19511301815509796 0.0 0.0 0.0 0.0 0.23686888813972473 0.0 0.24234139919281006 0.0 0.10741516202688217 0.24947112798690796 0.20596200227737427 0.0
82 0.0 0.0 0.15959438681602478 0.0 0.0 0.0 0.44741642475128174 0.10034842044115067 0.0 0.0 0.24457471072673798 0.1261146366596222 0.0 0.0 0.09395856410264969 0.3256971538066864 0.2865588068962097 0.0 0.0 0.19218161702156067 0.0 0.0 0.0 0.0 0.241437628865242 0.0 0.23322588205337524 0.0 0.10512453317642212 0.24426239728927612 0.21171459555625916 0.0
83 0.0 0.0 0.1590067446231842 0.0 0.0 0.0 0.4412568211555481 0.09841611236333847 0.0 0.0 0.24100758135318756 0.12085571140050888 0.0 0.0 0.0948728546500206 0.3284192383289337 0.2840580344200134 0.0 0.0 0.18317706882953644 0.0 0.0 0.0 0.0 0.24701093137264252 0.0 0.2274712473154068 0.0 0.10404225438833237 0.24630385637283325 0.21561309695243835 0.0
84 0.0 0.0 0.16594615578651428 0.0 0.0 0.0 0.4419710040092468 0.09938330203294754 0.0 0.0 0.24554502964019775 0.1226697713136673 0.0 0.0 0.1061771959066391 0.32181036472320557 0.2920268177986145 0.0 0.0 0.19120243191719055 0.0 0.0 0.0 0.0 0.2382189780473709 0.0 0.22894293069839478 0.0 0.08595894277095795 0.2315916121006012 0.21667754650115967 0.0
85 0.0 0.0 0.1481858789920807 0.0 0.0 0.0 0.4192497432231903 0.11132568120956421 0.0 0.0 0.23925445973873138 0.11649198830127716 0.0 0.0 0.09995085000991821 0.30754685401916504 0.2853676378726959 0.0 0.0 0.1921415477991104 0.0 0.0 0.0 0.0 0.22615398466587067 0.0 0.2174532115459442 0.0 0.06492561846971512 0.22283634543418884 0.2089943289756775 0.0
86 0.0 0.0 0.15592238306999207 0.0 0.0 0.0 0.42119741439819336 0.10926733911037445 0.0 0.0 0.23792366683483124 0.12496332824230194 0.0 0.0 0.10885954648256302 0.3121868669986725 0.2874735891819 0.0 0.0 0.19370543956756592 0.0 0.0 0.0 0.0 0.23530112206935883 0.0 0.21420317888259888 0.0 0.06741146743297577 0.22117291390895844 0.21213139593601227 0.0
87 0.0 0.0 0.16313506662845612 0.0 0.0 0.0 0.4066529870033264 0.10378161072731018 0.0 0.0 0.24437126517295837 0.11181655526161194 0.0 0.0 0.11330229789018631 0.30290159583091736 0.2940092384815216 0.0 0.0 0.18672607839107513 0.0 0.0 0.0 0.0 0.24089238047599792 0.0 0.20599669218063354 0.0 0.0668518990278244 0.2161170393228531 0.21391639113426208 0.0
88 0.0 0.0 0.17188188433647156 0.0 0.0 0.0 0.4241466522216797 0.10706883668899536 0.0 0.0 0.24802735447883606 0.12146135419607162 0.0 0.0 0.1252555251121521 0.30785810947418213 0.29768648743629456 0.0 0.0 0.19334304332733154 0.0 0.0 0.0 0.0 0.23514871299266815 0.0 0.2183324545621872 0.0 0.06956644356250763 0.22474265098571777 0.22166575491428375 0.0
89 0.0 0.0 0.16395756602287292 0.0 0.0 0.0 0.3816428482532501 0.10719356685876846 0.0 0.0 0.23541566729545593 0.10872558504343033 0.0 0.0 0.12110814452171326 0.2926352024078369 0.2894173562526703 0.0 0.0 0.18728113174438477 0.0 0.0 0.0 0.0 0.23552937805652618 0.0 0.19176071882247925 0.0 0.04644140601158142 0.19991880655288696 0.21275447309017181 0.0
90 0.0 0.0 0.1589776575565338 0.0 0.0 0.0 0.44690462946891785 0.10645196586847305 0.0 0.0 0.2432587742805481 0.12243933230638504 0.0 0.0 0.10267281532287598 0.3277432918548584 0.2884902060031891 0.0 0.0 0.18794815242290497 0.0 0.0 0.0 0.0 0.23613086342811584 0.0 0.23884662985801697 0.0 0.09878376871347427 0.2512581944465637 0.20962285995483398 0.0
91 0.0 0.0 0.15746541321277618 0.0 0.0 0.0 0.4763687252998352 0.10448814928531647 0.0 0.0 0.25307974219322205 0.13853979110717773 0.0 0.0 0.10014085471630096 0.33217641711235046 0.2902589440345764 0.0 0.0 0.19727277755737305 0.0 0.0 0.0 0.0 0.23236659169197083 0.0 0.25091245770454407 0.0 0.10427647829055786 0.25214001536369324 0.21677038073539734 0.0
92 0.0 0.0 0.15281611680984497 0.0 0.0 0.0 0.46191972494125366 0.09877999126911163 0.0 0.0 0.24181470274925232 0.12534141540527344 0.0 0.0 0.0963524580001831 0.32640060782432556 0.29017549753189087 0.0 0.0 0.18641287088394165 0.0 0.0 0.0 0.0 0.23644347488880157 0.0 0.24525052309036255 0.0 0.10030479729175568 0.24322836101055145 0.20930582284927368 0.0
93 0.0 0.0 0.16038742661476135 0.0 0.0 0.0 0.46465861797332764 0.10266555845737457 0.0 0.0 0.24905171990394592 0.1297890692949295 0.0 0.0 0.10779407620429993 0.32785505056381226 0.29169052839279175 0.0 0.0 0.19332517683506012 0.0 0.0 0.0 0.0 0.24120065569877625 0.0 0.24368342757225037 0.0 0.10491187870502472 0.24714311957359314 0.21649441123008728 0.0
94 0.0 0.0 0.1546092927455902 0.0 0.0 0.0 0.4230663776397705 0.10266266763210297 0.0 0.0 0.24218201637268066 0.12096591293811798 0.0 0.0 0.10940052568912506 0.31410619616508484 0.2932577133178711 0.0 0.0 0.1850014477968216 0.0 0.0 0.0 0.0 0.23531825840473175 0.0 0.21780189871788025 0.0 0.07235873490571976 0.2252930998802185 0.21772634983062744 0.0
95 0.0 0.0 0.16275779902935028 0.0 0.0 0.0 0.40301260352134705 0.10704183578491211 0.0 0.0 0.24396675825119019 0.11936469376087189 0.0 0.0 0.11017037183046341 0.3041362762451172 0.2934900224208832 0.0 0.0 0.19195899367332458 0.0 0.0 0.0 0.0 0.2378702014684677 0.0 0.202257439494133 0.0 0.0743439793586731 0.2164040207862854 0.21139344573020935 0.0
96 0.0 0.0 0.1517333686351776 0.0 0.0 0.0 0.4074539542198181 0.10669129341840744 0.0 0.0 0.22869479656219482 0.12214292585849762 0.0 0.0 0.0980636328458786 0.3093731999397278 0.2831798493862152 0.0 0.0 0.19031855463981628 0.0 0.0 0.0 0.0 0.24002940952777863 0.0 0.20378944277763367 0.0 0.07048004865646362 0.22082754969596863 0.20344534516334534 0.0
97 0.0 0.0 0.1515512615442276 0.0 0.0 0.0 0.4007619023323059 0.10666314512491226 0.0 0.0 0.24033382534980774 0.10808094590902328 0.0 0.0 0.1131918728351593 0.3031059205532074 0.2912343740463257 0.0 0.0 0.1767725646495819 0.0 0.0 0.0 0.0 0.24212218821048737 0.0 0.20436999201774597 0.0 0.07258639484643936 0.2196286916732788 0.20687568187713623 0.0
98 0.0 0.0 0.151663675904274 0.0 0.0 0.0 0.40411990880966187 0.1067841649055481 0.0 0.0 0.2387867122888565 0.11237639933824539 0.0 0.0 0.10930527746677399 0.3108905255794525 0.288634717464447 0.0 0.0 0.17602139711380005 0.0 0.0 0.0 0.0 0.23761846125125885 0.0 0.20632106065750122 0.0 0.07264263927936554 0.22882729768753052 0.20997534692287445 0.0
99 0.0 0.0 0.15897613763809204 0.0 0.0 0.0 0.3366738259792328 0.10536157339811325 0.0 0.0 0.22877612709999084 0.09660863876342773 0.0 0.0 0.10570138692855835 0.28304532170295715 0.286737322807312 0.0 0.0 0.18233270943164825 0.0 0.0 0.0 0.0 0.2407769113779068 0.0 0.1781824827194214 0.0 0.049588125199079514 0.2122090458869934 0.20273429155349731 0.0
