100 32 
0 0.0 0.034804560244083405 0.0 0.2631731927394867 0.1835157573223114 0.0 0.0 0.07529201358556747 0.0 0.0 0.0 0.0 0.12943053245544434 0.1029343530535698 0.0 0.018081020563840866 0.0 0.0 0.0 0.09011123329401016 0.1287173330783844 0.0 0.3715042769908905 0.26594579219818115 0.0 0.0 0.0 0.2184065580368042 0.06859160959720612 0.2028660774230957 0.0 0.0
1 0.0 0.0358881913125515 0.0 0.2687709331512451 0.1659771054983139 0.0 0.0 0.07728764414787292 0.0 0.0 0.0 0.0 0.12776072323322296 0.11651264131069183 0.0 0.01961534284055233 0.0 0.0 0.0 0.09701322019100189 0.12830711901187897 0.0 0.3772812783718109 0.26956719160079956 0.0 0.0 0.0 0.23246942460536957 0.06381585448980331 0.21453405916690826 0.0 0.0
2 0.0 0.03479663282632828 0.0 0.27295154333114624 0.1744186282157898 0.0 0.0 0.08141208440065384 0.0 0.0 0.0 0.0 0.132403165102005 0.10873880237340927 0.0 0.01736396551132202 0.0 0.0 0.0 0.09801464527845383 0.13121464848518372 0.0 0.3788750171661377 0.2607835829257965 0.0 0.0 0.0 0.21993893384933472 0.07407242059707642 0.20632025599479675 0.0 0.0
3 0.0 0.03362363576889038 0.0 0.269520103931427 0.16232186555862427 0.0 0.0 0.07621736824512482 0.0 0.0 0.0 0.0 0.12234796583652496 0.11723237484693527 0.0 0.012039270251989365 0.0 0.0 0.0 0.10507598519325256 0.13166892528533936 0.0 0.37624797224998474 0.2580989599227905 0.0 0.0 0.0 0.22633224725723267 0.06897073239088058 0.21218495070934296 0.0 0.0
4 0.0 0.030707556754350662 0.0 0.2660708427429199 0.16951662302017212 0.0 0.0 0.07772772759199142 0.0 0.0 0.0 0.0 0.13206042349338531 0.10357527434825897 0.0 0.02136601321399212 0.0 0.0 0.0 0.08403802663087845 0.1208687275648117 0.0 0.3780769407749176 0.2697160840034485 0.0 0.0 0.0 0.23230379819869995 0.06777995824813843 0.21669360995292664 0.0 0.0
5 0.0 0.028353434056043625 0.0 0.2680214047431946 0.1635397970676422 0.0 0.0 0.07911989092826843 0.0 0.0 0.0 0.0 0.12031250447034836 0.11241178959608078 0.0 0.014161081984639168 0.0 0.0 0.0 0.10382945090532303 0.13649064302444458 0.0 0.37229394912719727 0.2633205056190491 0.0 0.0 0.0 0.22172968089580536 0.06525091081857681 0.2088855803012848 0.0 0.0
6 0.0 0.034067343920469284 0.0 0.27530306577682495 0.16838079690933228 0.0 0.0 0.08055320382118225 0.0 0.0 0.0 0.0 0.12269160896539688 0.12180168181657791 0.0 0.019211888313293457 0.0 0.0 0.0 0.09783072769641876 0.12397361546754837 0.0 0.3800448477268219 0.2538975179195404 0.0 0.0 0.0 0.2204744964838028 0.06346079707145691 0.21099376678466797 0.0 0.0
7 0.0 0.03409191220998764 0.0 0.25691813230514526 0.17545466125011444 0.0 0.0 0.07366029918193817 0.0 0.0 0.0 0.0 0.12629663944244385 0.10591897368431091 0.0 0.008880854584276676 0.0 0.0 0.0 0.0937972441315651 0.12096819281578064 0.0 0.36757293343544006 0.25742605328559875 0.0 0.0 0.0 0.22818708419799805 0.07614143192768097 0.21835777163505554 0.0 0.0
8 0.0 0.041639938950538635 0.0 0.2586289346218109 0.17964795231819153 0.0 0.0 0.07546291500329971 0.0 0.0 0.0 0.0 0.1198415458202362 0.1175195574760437 0.0 0.008978152647614479 0.0 0.0 0.0 0.09005934000015259 0.11923608928918839 0.0 0.36828336119651794 0.25546228885650635 0.0 0.0 0.0 0.22140870988368988 0.06887800991535187 0.20689243078231812 0.0 0.0
9 0.0 0.036832451820373535 0.0 0.25951138138771057 0.17498202621936798 0.0 0.0 0.07543143630027771 0.0 0.0 0.0 0.0 0.11613045632839203 0.12309209257364273 0.0 0.0 0.0 0.0 0.0 0.0965154841542244 0.12290729582309723 0.0 0.3658038377761841 0.25536826252937317 0.0 0.0 0.0 0.2162039428949356 0.0753951445221901 0.20337945222854614 0.0 0.0
10 0.0 0.033760759979486465 0.0 0.2619808614253998 0.17536257207393646 0.0 0.0 0.07241059094667435 0.0 0.0 0.0 0.0 0.12382186204195023 0.11145582050085068 0.0 0.008406144566833973 0.0 0.0 0.0 0.0965292826294899 0.12405164539813995 0.0 0.3639354705810547 0.26412102580070496 0.0 0.0 0.0 0.22599618136882782 0.07202783226966858 0.2059721201658249 0.0 0.0
11 0.0 0.03665651008486748 0.0 0.2627420723438263 0.16611172258853912 0.0 0.0 0.08299991488456726 0.0 0.0 0.0 0.0 0.11976447701454163 0.12598736584186554 0.0 0.015847906470298767 0.0 0.0 0.0 0.10238032042980194 0.1298520267009735 0.0 0.3786478042602539 0.2529413402080536 0.0 0.0 0.0 0.22161617875099182 0.05998887121677399 0.21191367506980896 0.0 0.0
12 0.0 0.03270756080746651 0.0 0.2690443992614746 0.17083625495433807 0.0 0.0 0.07175062596797943 0.0 0.0 0.0 0.0 0.12171358615159988 0.1189039796590805 0.0 0.011945836246013641 0.0 0.0 0.0 0.09847178310155869 0.12261871248483658 0.0 0.36245664954185486 0.25878334045410156 0.0 0.0 0.0 0.22773391008377075 0.06401566416025162 0.20979651808738708 0.0 0.0
13 0.0 0.03813191503286362 0.0 0.2643600404262543 0.1595897376537323 0.0 0.0 0.08435089141130447 0.0 0.0 0.0 0.0 0.11888712644577026 0.12804542481899261 0.0 0.013336972333490849 0.0 0.0 0.0 0.09744778275489807 0.1219090148806572 0.0 0.3851551115512848 0.2593141198158264 0.0 0.0 0.0 0.23102571070194244 0.0632086992263794 0.21785032749176025 0.0 0.0
14 0.0 0.03186710551381111 0.0 0.2770223915576935 0.173658549785614 0.0 0.0 0.08352415263652802 0.0 0.0 0.0 0.0 0.13422544300556183 0.10108381509780884 0.0 0.019304588437080383 0.0 0.0 0.0 0.09163787961006165 0.12780886888504028 0.0 0.3893226981163025 0.26347291469573975 0.0 0.0 0.0 0.2168966382741928 0.07730842381715775 0.20193345844745636 0.0 0.0
15 0.0 0.03222012147307396 0.0 0.2652675211429596 0.16803519427776337 0.0 0.0 0.07672606408596039 0.0 0.0 0.0 0.0 0.12841376662254333 0.1074225902557373 0.0 0.013964438810944557 0.0 0.0 0.0 0.09919552505016327 0.13262511789798737 0.0 0.37053006887435913 0.2685415744781494 0.0 0.0 0.0 0.22648456692695618 0.06996087729930878 0.20802517235279083 0.0 0.0
16 0.0 0.03642252832651138 0.0 0.27115070819854736 0.16442883014678955 0.0 0.0 0.07943060249090195 0.0 0.0 0.0 0.0 0.11801131814718246 0.12754468619823456 0.0 0.013053220696747303 0.0 0.0 0.0 0.09722795337438583 0.11718494445085526 0.0 0.3703571557998657 0.25480714440345764 0.0 0.0 0.0 0.22499486804008484 0.060621049255132675 0.20733842253684998 0.0 0.0
17 0.0 0.03446333855390549 0.0 0.2603485882282257 0.17164470255374908 0.0 0.0 0.08167964220046997 0.0 0.0 0.0 0.0 0.12077915668487549 0.11396551877260208 0.0 0.011147275567054749 0.0 0.0 0.0 0.09437774121761322 0.12932875752449036 0.0 0.37702980637550354 0.2617264688014984 0.0 0.0 0.0 0.2234095185995102 0.06225668638944626 0.21234166622161865 0.0 0.0
18 0.0 0.034818634390830994 0.0 0.2567906677722931 0.17042802274227142 0.0 0.0 0.08293581753969193 0.0 0.0 0.0 0.0 0.11654217541217804 0.12602964043617249 0.0 0.005693965591490269 0.0 0.0 0.0 0.09797355532646179 0.12553991377353668 0.0 0.37352705001831055 0.2578614056110382 0.0 0.0 0.0 0.22332338988780975 0.06359262764453888 0.21835316717624664 0.0 0.0
19 0.0 0.03837759047746658 0.0 0.261462539434433 0.17701570689678192 0.0 0.0 0.0766557827591896 0.0 0.0 0.0 0.0 0.12060870230197906 0.11967199295759201 0.0 0.007157173939049244 0.0 0.0 0.0 0.09431800991296768 0.1200529932975769 0.0 0.3643450140953064 0.25348320603370667 0.0 0.0 0.0 0.21810360252857208 0.06991880387067795 0.2054162174463272 0.0 0.0
20 0.0 0.03293973207473755 0.0 0.259764164686203 0.1775488555431366 0.0 0.0 0.08070935308933258 0.0 0.0 0.0 0.0 0.1261579990386963 0.11011339724063873 0.0 0.012501458637416363 0.0 0.0 0.0 0.09349004924297333 0.12439267337322235 0.0 0.37361225485801697 0.2649936079978943 0.0 0.0 0.0 0.22363395988941193 0.06928509473800659 0.21061666309833527 0.0 0.0
21 0.0 0.03331834822893143 0.0 0.2707633376121521 0.15947014093399048 0.0 0.0 0.0782909244298935 0.0 0.0 0.0 0.0 0.11870153248310089 0.12389931082725525 0.0 0.016849618405103683 0.0 0.0 0.0 0.10705521702766418 0.13102534413337708 0.0 0.3752731382846832 0.2570408582687378 0.0 0.0 0.0 0.22665272653102875 0.06076362729072571 0.2138853818178177 0.0 0.0
22 0.0 0.03727593645453453 0.0 0.27306997776031494 0.16484060883522034 0.0 0.0 0.07563194632530212 0.0 0.0 0.0 0.0 0.12106291204690933 0.12632110714912415 0.0 0.017303455621004105 0.0 0.0 0.0 0.09614041447639465 0.11709346622228622 0.0 0.37693357467651367 0.2508624494075775 0.0 0.0 0.0 0.22629709541797638 0.062017932534217834 0.21429185569286346 0.0 0.0
23 0.0 0.0340074822306633 0.0 0.27161309123039246 0.15876296162605286 0.0 0.0 0.0799870640039444 0.0 0.0 0.0 0.0 0.11719082295894623 0.12416047602891922 0.0 0.013372174464166164 0.0 0.0 0.0 0.09648948162794113 0.12213881313800812 0.0 0.37913230061531067 0.260484904050827 0.0 0.0 0.0 0.22726359963417053 0.060522355139255524 0.2112593948841095 0.0 0.0
24 0.0 0.033980827778577805 0.0 0.2787567377090454 0.1378539502620697 0.0 0.0 0.0843062773346901 0.0 0.0 0.0 0.0 0.1159650981426239 0.13510224223136902 0.0 0.012570966966450214 0.0 0.0 0.0 0.11294934153556824 0.13346518576145172 0.0 0.38716527819633484 0.2572486996650696 0.0 0.0 0.0 0.23181834816932678 0.058259185403585434 0.22079017758369446 0.0 0.0
25 0.0 0.03316817432641983 0.0 0.27074700593948364 0.1723605990409851 0.0 0.0 0.07635190337896347 0.0 0.0 0.0 0.0 0.12343233823776245 0.10947605222463608 0.0 0.007304775528609753 0.0 0.0 0.0 0.09049838781356812 0.12339144945144653 0.0 0.3688623905181885 0.2635658383369446 0.0 0.0 0.0 0.21905973553657532 0.07749925553798676 0.200914204120636 0.0 0.0
26 0.0 0.03691096976399422 0.0 0.2694976329803467 0.16705192625522614 0.0 0.0 0.07851432263851166 0.0 0.0 0.0 0.0 0.11483102291822433 0.13026490807533264 0.0 0.01086338795721531 0.0 0.0 0.0 0.09199855476617813 0.11194245517253876 0.0 0.36848023533821106 0.2528282105922699 0.0 0.0 0.0 0.22252286970615387 0.0628972202539444 0.20915119349956512 0.0 0.0
27 0.0 0.03737001493573189 0.0 0.2610982656478882 0.18292634189128876 0.0 0.0 0.07540255039930344 0.0 0.0 0.0 0.0 0.12664388120174408 0.11335491389036179 0.0 0.007598916068673134 0.0 0.0 0.0 0.09024924039840698 0.12118213623762131 0.0 0.3693337142467499 0.2598068118095398 0.0 0.0 0.0 0.21972644329071045 0.07104126363992691 0.20943878591060638 0.0 0.0
28 0.0 0.03783603012561798 0.0 0.26610317826271057 0.1641714870929718 0.0 0.0 0.07977716624736786 0.0 0.0 0.0 0.0 0.11369071900844574 0.1288379728794098 0.0 0.009477319195866585 0.0 0.0 0.0 0.10541731864213943 0.12540028989315033 0.0 0.37136924266815186 0.2524647116661072 0.0 0.0 0.0 0.22059808671474457 0.06407147645950317 0.20758157968521118 0.0 0.0
29 0.0 0.03848806023597717 0.0 0.2575860917568207 0.18038371205329895 0.0 0.0 0.08001743257045746 0.0 0.0 0.0 0.0 0.11875995248556137 0.11698778718709946 0.0 0.006681099534034729 0.0 0.0 0.0 0.09516546130180359 0.11948272585868835 0.0 0.3729815185070038 0.25328049063682556 0.0 0.0 0.0 0.2148611843585968 0.07376980781555176 0.20529724657535553 0.0 0.0
30 0.0 0.03760825842618942 0.0 0.27237969636917114 0.16669829189777374 0.0 0.0 0.08427858352661133 0.0 0.0 0.0 0.0 0.1296532154083252 0.11441916972398758 0.0 0.01717264950275421 0.0 0.0 0.0 0.09696675837039948 0.12947434186935425 0.0 0.3842690885066986 0.2610011696815491 0.0 0.0 0.0 0.2240271419286728 0.07195790112018585 0.21150091290473938 0.0 0.0
31 0.0 0.03370935842394829 0.0 0.2789420485496521 0.17492125928401947 0.0 0.0 0.07640944421291351 0.0 0.0 0.0 0.0 0.13175490498542786 0.10304852575063705 0.0 0.016759909689426422 0.0 0.0 0.0 0.09416434913873672 0.1325675994157791 0.0 0.3794047236442566 0.26805105805397034 0.0 0.0 0.0 0.22065649926662445 0.07502231746912003 0.20307138562202454 0.0 0.0
32 0.0 0.031389474868774414 0.0 0.26306694746017456 0.1556965857744217 0.0 0.0 0.08341444283723831 0.0 0.0 0.0 0.0 0.11261652410030365 0.1297333836555481 0.0 0.0025724172592163086 0.0 0.0 0.0 0.10266207158565521 0.12285608053207397 0.0 0.3750321567058563 0.2503878176212311 0.0 0.0 0.0 0.22343982756137848 0.06641223281621933 0.21597164869308472 0.0 0.0
33 0.0 0.03233339264988899 0.0 0.26643237471580505 0.1759653240442276 0.0 0.0 0.07212505489587784 0.0 0.0 0.0 0.0 0.13037167489528656 0.10645245760679245 0.0 0.015838028863072395 0.0 0.0 0.0 0.08838348090648651 0.12260572612285614 0.0 0.3653028905391693 0.268157035112381 0.0 0.0 0.0 0.2283092588186264 0.07129201292991638 0.21309198439121246 0.0 0.0
34 0.0 0.03534933179616928 0.0 0.2645995020866394 0.1721530258655548 0.0 0.0 0.08379565179347992 0.0 0.0 0.0 0.0 0.12784314155578613 0.10816103965044022 0.0 0.017291855067014694 0.0 0.0 0.0 0.09207592904567719 0.1270599514245987 0.0 0.38044923543930054 0.27266329526901245 0.0 0.0 0.0 0.2211252599954605 0.07133807986974716 0.20863142609596252 0.0 0.0
35 0.0 0.03341882303357124 0.0 0.262468546628952 0.17220576107501984 0.0 0.0 0.07836946099996567 0.0 0.0 0.0 0.0 0.1219387874007225 0.11626240611076355 0.0 0.007907172664999962 0.0 0.0 0.0 0.09678740054368973 0.12605014443397522 0.0 0.3709581792354584 0.25837165117263794 0.0 0.0 0.0 0.22035636007785797 0.07141407579183578 0.2082728147506714 0.0 0.0
36 0.0 0.03790883347392082 0.0 0.26884227991104126 0.16946850717067719 0.0 0.0 0.08247155696153641 0.0 0.0 0.0 0.0 0.11663861572742462 0.13510645925998688 0.0 0.015824485570192337 0.0 0.0 0.0 0.09911858290433884 0.11926078796386719 0.0 0.3711802065372467 0.24910840392112732 0.0 0.0 0.0 0.22166766226291656 0.05306171998381615 0.2091648131608963 0.0 0.0
37 0.0 0.03379693627357483 0.0 0.26674067974090576 0.18205684423446655 0.0 0.0 0.07389459013938904 0.0 0.0 0.0 0.0 0.1273125410079956 0.10528387129306793 0.0 0.009198342449963093 0.0 0.0 0.0 0.09022656828165054 0.12050121277570724 0.0 0.3660474717617035 0.2621757686138153 0.0 0.0 0.0 0.21922455728054047 0.07618307322263718 0.20221905410289764 0.0 0.0
38 0.0 0.042096592485904694 0.0 0.2680920362472534 0.16409502923488617 0.0 0.0 0.07878543436527252 0.0 0.0 0.0 0.0 0.11438823491334915 0.13250701129436493 0.0 0.01101609319448471 0.0 0.0 0.0 0.09819088876247406 0.1210019513964653 0.0 0.38019272685050964 0.25370097160339355 0.0 0.0 0.0 0.22353695333003998 0.06124554201960564 0.2067582905292511 0.0 0.0
39 0.0 0.03761038929224014 0.0 0.25815510749816895 0.17322072386741638 0.0 0.0 0.08572367578744888 0.0 0.0 0.0 0.0 0.11206355690956116 0.12634338438510895 0.0 0.001188274472951889 0.0 0.0 0.0 0.10051407665014267 0.1254022866487503 0.0 0.37517741322517395 0.24742324650287628 0.0 0.0 0.0 0.2089497148990631 0.07299226522445679 0.20159375667572021 0.0 0.0
40 0.0 0.030808918178081512 0.0 0.2830824851989746 0.1521608531475067 0.0 0.0 0.07495957612991333 0.0 0.0 0.0 0.0 0.12310344725847244 0.12248538434505463 0.0 0.021173853427171707 0.0 0.0 0.0 0.10782023519277573 0.13778018951416016 0.0 0.37474846839904785 0.26662373542785645 0.0 0.0 0.0 0.2280944585800171 0.05861883610486984 0.21095311641693115 0.0 0.0
41 0.0 0.030980270355939865 0.0 0.2750687301158905 0.16639573872089386 0.0 0.0 0.07136815041303635 0.0 0.0 0.0 0.0 0.13075080513954163 0.10344881564378738 0.0 0.012389356270432472 0.0 0.0 0.0 0.09601069986820221 0.12996184825897217 0.0 0.37119460105895996 0.26991552114486694 0.0 0.0 0.0 0.22356583178043365 0.07907851785421371 0.2121434062719345 0.0 0.0
42 0.0 0.037166059017181396 0.0 0.2684137225151062 0.16594140231609344 0.0 0.0 0.07536502927541733 0.0 0.0 0.0 0.0 0.11634819954633713 0.1296229064464569 0.0 0.008245236240327358 0.0 0.0 0.0 0.10028897970914841 0.12554214894771576 0.0 0.37103721499443054 0.24934937059879303 0.0 0.0 0.0 0.22458511590957642 0.06174171343445778 0.2144663780927658 0.0 0.0
43 0.0 0.02929539978504181 0.0 0.2658390402793884 0.16387973725795746 0.0 0.0 0.07553204894065857 0.0 0.0 0.0 0.0 0.12007322907447815 0.1158440113067627 0.0 0.008915926329791546 0.0 0.0 0.0 0.10090922564268112 0.12967447936534882 0.0 0.3674749732017517 0.263179749250412 0.0 0.0 0.0 0.22614561021327972 0.06625906378030777 0.21142920851707458 0.0 0.0
44 0.0 0.0327623076736927 0.0 0.2682933509349823 0.17352963984012604 0.0 0.0 0.06980918347835541 0.0 0.0 0.0 0.0 0.133762389421463 0.09913880378007889 0.0 0.017276065424084663 0.0 0.0 0.0 0.0908239558339119 0.1280316710472107 0.0 0.3726474940776825 0.2727186381816864 0.0 0.0 0.0 0.23079590499401093 0.07240592688322067 0.20951209962368011 0.0 0.0
45 0.0 0.03540379926562309 0.0 0.26784244179725647 0.17124420404434204 0.0 0.0 0.07848629355430603 0.0 0.0 0.0 0.0 0.1262131929397583 0.11669492721557617 0.0 0.010389123111963272 0.0 0.0 0.0 0.0976920872926712 0.12765145301818848 0.0 0.37675610184669495 0.26382145285606384 0.0 0.0 0.0 0.22552157938480377 0.06947578489780426 0.21036012470722198 0.0 0.0
46 0.0 0.03495011478662491 0.0 0.26364749670028687 0.16218431293964386 0.0 0.0 0.08630656450986862 0.0 0.0 0.0 0.0 0.11604069173336029 0.13048197329044342 0.0 0.014046813361346722 0.0 0.0 0.0 0.10382122546434402 0.12900865077972412 0.0 0.37185370922088623 0.2527756989002228 0.0 0.0 0.0 0.22500093281269073 0.051488496363162994 0.2147018313407898 0.0 0.0
47 0.0 0.03270341828465462 0.0 0.2607614994049072 0.16228938102722168 0.0 0.0 0.07656203210353851 0.0 0.0 0.0 0.0 0.11210338771343231 0.12946389615535736 0.0 0.007757027633488178 0.0 0.0 0.0 0.10442186892032623 0.12651130557060242 0.0 0.3663604259490967 0.25068774819374084 0.0 0.0 0.0 0.2248569279909134 0.056704774498939514 0.21457229554653168 0.0 0.0
48 0.0 0.038669876754283905 0.0 0.2633037567138672 0.1686573326587677 0.0 0.0 0.07786118984222412 0.0 0.0 0.0 0.0 0.12055367231369019 0.11933626234531403 0.0 0.006691371090710163 0.0 0.0 0.0 0.09234696626663208 0.1193552017211914 0.0 0.37032386660575867 0.2609328031539917 0.0 0.0 0.0 0.22652477025985718 0.0696103647351265 0.20939938724040985 0.0 0.0
49 0.0 0.03645756468176842 0.0 0.26573047041893005 0.1745886206626892 0.0 0.0 0.0808131992816925 0.0 0.0 0.0 0.0 0.11865848302841187 0.12484290450811386 0.0 0.01048966869711876 0.0 0.0 0.0 0.10114511847496033 0.12520615756511688 0.0 0.37365439534187317 0.24896512925624847 0.0 0.0 0.0 0.21758289635181427 0.06697095930576324 0.20575055480003357 0.0 0.0
50 0.0 0.03405226022005081 0.0 0.2792344391345978 0.17037999629974365 0.0 0.0 0.07071955502033234 0.0 0.0 0.0 0.0 0.1330229490995407 0.11152822524309158 0.0 0.02061551809310913 0.0 0.0 0.0 0.1019507646560669 0.12951040267944336 0.0 0.3806552290916443 0.2602801024913788 0.0 0.0 0.0 0.22196967899799347 0.07005135715007782 0.20932969450950623 0.0 0.0
51 0.0 0.034009091556072235 0.0 0.2681174576282501 0.17074400186538696 0.0 0.0 0.07400425523519516 0.0 0.0 0.0 0.0 0.12771034240722656 0.11108028888702393 0.0 0.01997150108218193 0.0 0.0 0.0 0.09194537997245789 0.12396470457315445 0.0 0.37283772230148315 0.26700928807258606 0.0 0.0 0.0 0.22573697566986084 0.06548551470041275 0.20901493728160858 0.0 0.0
52 0.0 0.03477581590414047 0.0 0.2614468038082123 0.17543993890285492 0.0 0.0 0.07941824942827225 0.0 0.0 0.0 0.0 0.1257079839706421 0.11344246566295624 0.0 0.019449874758720398 0.0 0.0 0.0 0.09347110986709595 0.12883815169334412 0.0 0.37467753887176514 0.2638952434062958 0.0 0.0 0.0 0.2189289629459381 0.06359048187732697 0.20810063183307648 0.0 0.0
53 0.0 0.03404228389263153 0.0 0.2616266906261444 0.17473362386226654 0.0 0.0 0.07233244925737381 0.0 0.0 0.0 0.0 0.1289445459842682 0.10944877564907074 0.0 0.01578804850578308 0.0 0.0 0.0 0.09314163029193878 0.12909400463104248 0.0 0.3682239353656769 0.2662310302257538 0.0 0.0 0.0 0.2289421260356903 0.06668317317962646 0.21807092428207397 0.0 0.0
54 0.0 0.0353073887526989 0.0 0.2664286494255066 0.17521534860134125 0.0 0.0 0.08372601121664047 0.0 0.0 0.0 0.0 0.12701594829559326 0.11279167234897614 0.0 0.01744011975824833 0.0 0.0 0.0 0.09642355144023895 0.12726785242557526 0.0 0.3784909248352051 0.2606867253780365 0.0 0.0 0.0 0.22289305925369263 0.0675487294793129 0.20806430280208588 0.0 0.0
55 0.0 0.029711753129959106 0.0 0.2782253324985504 0.1659592241048813 0.0 0.0 0.0757104903459549 0.0 0.0 0.0 0.0 0.1297263503074646 0.11325082927942276 0.0 0.01631085015833378 0.0 0.0 0.0 0.09857197105884552 0.12488073855638504 0.0 0.3728087246417999 0.260627418756485 0.0 0.0 0.0 0.22539301216602325 0.0735989511013031 0.21509398519992828 0.0 0.0
56 0.0 0.03496257960796356 0.0 0.26619136333465576 0.17353476583957672 0.0 0.0 0.07419372349977493 0.0 0.0 0.0 0.0 0.12375732511281967 0.11231357604265213 0.0 0.009886710904538631 0.0 0.0 0.0 0.08841776847839355 0.11873795092105865 0.0 0.37169671058654785 0.2573300302028656 0.0 0.0 0.0 0.22122181951999664 0.07276839017868042 0.21163955330848694 0.0 0.0
57 0.0 0.03558672219514847 0.0 0.2655975818634033 0.17274624109268188 0.0 0.0 0.08083198964595795 0.0 0.0 0.0 0.0 0.11859646439552307 0.11856000870466232 0.0 0.010587207041680813 0.0 0.0 0.0 0.09227118641138077 0.11807899922132492 0.0 0.3780989944934845 0.2515811026096344 0.0 0.0 0.0 0.22114969789981842 0.06980011612176895 0.21046382188796997 0.0 0.0
58 0.0 0.038118794560432434 0.0 0.26442041993141174 0.158859983086586 0.0 0.0 0.08173656463623047 0.0 0.0 0.0 0.0 0.10355658829212189 0.14323937892913818 0.0 0.0 0.0 0.0 0.0 0.10644844174385071 0.12052220106124878 0.0 0.3755697011947632 0.23931573331356049 0.0 0.0 0.0 0.21641094982624054 0.06413362175226212 0.2108059972524643 0.0 0.0
59 0.0 0.03664945811033249 0.0 0.27227094769477844 0.16944101452827454 0.0 0.0 0.08057993650436401 0.0 0.0 0.0 0.0 0.11845335364341736 0.1268068253993988 0.0 0.007612060755491257 0.0 0.0 0.0 0.10156858712434769 0.12463250756263733 0.0 0.37335270643234253 0.24578498303890228 0.0 0.0 0.0 0.21448950469493866 0.07124368846416473 0.20591530203819275 0.0 0.0
60 0.0 0.03604297339916229 0.0 0.2760302424430847 0.1707105189561844 0.0 0.0 0.08361135423183441 0.0 0.0 0.0 0.0 0.12919868528842926 0.11619509756565094 0.0 0.017190754413604736 0.0 0.0 0.0 0.09843728691339493 0.1289321482181549 0.0 0.3833393156528473 0.2588929831981659 0.0 0.0 0.0 0.22396600246429443 0.07355663925409317 0.21273194253444672 0.0 0.0
61 0.0 0.035711124539375305 0.0 0.2709762752056122 0.1689334511756897 0.0 0.0 0.07499761879444122 0.0 0.0 0.0 0.0 0.12343232333660126 0.12176184356212616 0.0 0.014836618676781654 0.0 0.0 0.0 0.10227126628160477 0.12776507437229156 0.0 0.36829543113708496 0.2545022666454315 0.0 0.0 0.0 0.22129717469215393 0.06747426092624664 0.21473243832588196 0.0 0.0
62 0.0 0.035109829157590866 0.0 0.26797086000442505 0.16461972892284393 0.0 0.0 0.0799131691455841 0.0 0.0 0.0 0.0 0.11912395805120468 0.1231621652841568 0.0 0.012967833317816257 0.0 0.0 0.0 0.10629912465810776 0.128119096159935 0.0 0.3742421865463257 0.2563522458076477 0.0 0.0 0.0 0.22580447793006897 0.06079497188329697 0.21018090844154358 0.0 0.0
63 0.0 0.03897379711270332 0.0 0.2743443548679352 0.17240320146083832 0.0 0.0 0.07795881479978561 0.0 0.0 0.0 0.0 0.12289179116487503 0.11955194920301437 0.0 0.01242064032703638 0.0 0.0 0.0 0.10036903619766235 0.123650461435318 0.0 0.37589478492736816 0.25521355867385864 0.0 0.0 0.0 0.21833056211471558 0.07677150517702103 0.20071853697299957 0.0 0.0
64 0.0 0.03353634104132652 0.0 0.27714911103248596 0.17821848392486572 0.0 0.0 0.0707676038146019 0.0 0.0 0.0 0.0 0.13183850049972534 0.10925829410552979 0.0 0.018626973032951355 0.0 0.0 0.0 0.09210563451051712 0.12048041075468063 0.0 0.3769742250442505 0.25849175453186035 0.0 0.0 0.0 0.22269810736179352 0.07416152209043503 0.21002908051013947 0.0 0.0
65 0.0 0.032736413180828094 0.0 0.26433059573173523 0.164385586977005 0.0 0.0 0.07953299582004547 0.0 0.0 0.0 0.0 0.12435685098171234 0.11551045626401901 0.0 0.016206001862883568 0.0 0.0 0.0 0.09543704241514206 0.12333497405052185 0.0 0.3751373291015625 0.26392167806625366 0.0 0.0 0.0 0.23102915287017822 0.06405001878738403 0.21640782058238983 0.0 0.0
66 0.0 0.03661605715751648 0.0 0.26513198018074036 0.16926315426826477 0.0 0.0 0.08183716237545013 0.0 0.0 0.0 0.0 0.11787346750497818 0.12881876528263092 0.0 0.013348225504159927 0.0 0.0 0.0 0.09816736727952957 0.11995770782232285 0.0 0.3701532781124115 0.2546372413635254 0.0 0.0 0.0 0.22478266060352325 0.05677271634340286 0.2107144147157669 0.0 0.0
67 0.0 0.03520289435982704 0.0 0.25930091738700867 0.17773769795894623 0.0 0.0 0.08617572486400604 0.0 0.0 0.0 0.0 0.12376198172569275 0.11216110736131668 0.0 0.008900819346308708 0.0 0.0 0.0 0.08836285024881363 0.12207823246717453 0.0 0.3748977482318878 0.25941845774650574 0.0 0.0 0.0 0.21660108864307404 0.07512829452753067 0.2094731479883194 0.0 0.0
68 0.0 0.04114990681409836 0.0 0.2580857276916504 0.1774980127811432 0.0 0.0 0.08207976073026657 0.0 0.0 0.0 0.0 0.11582864075899124 0.12551221251487732 0.0 0.005181649699807167 0.0 0.0 0.0 0.0944608673453331 0.11659148335456848 0.0 0.37133562564849854 0.24751605093479156 0.0 0.0 0.0 0.2143227756023407 0.06976877152919769 0.20694378018379211 0.0 0.0
69 0.0 0.032575368881225586 0.0 0.2647404372692108 0.16815324127674103 0.0 0.0 0.07691225409507751 0.0 0.0 0.0 0.0 0.1157432496547699 0.11951857805252075 0.0 0.0 0.0 0.0 0.0 0.10301259905099869 0.12743686139583588 0.0 0.36477425694465637 0.25297045707702637 0.0 0.0 0.0 0.21490474045276642 0.07487679272890091 0.20503394305706024 0.0 0.0
70 0.0 0.03280455991625786 0.0 0.26194214820861816 0.17517411708831787 0.0 0.0 0.07309034466743469 0.0 0.0 0.0 0.0 0.12575848400592804 0.11182783544063568 0.0 0.008757050149142742 0.0 0.0 0.0 0.09684192389249802 0.12648902833461761 0.0 0.3657960295677185 0.2620733678340912 0.0 0.0 0.0 0.22393490374088287 0.07182873040437698 0.21236750483512878 0.0 0.0
71 0.0 0.034463927149772644 0.0 0.26415932178497314 0.1735963523387909 0.0 0.0 0.08574449270963669 0.0 0.0 0.0 0.0 0.12397845089435577 0.11130578070878983 0.0 0.01233777217566967 0.0 0.0 0.0 0.09313205629587173 0.12825243175029755 0.0 0.38124728202819824 0.25853508710861206 0.0 0.0 0.0 0.2222491204738617 0.06876003742218018 0.20924976468086243 0.0 0.0
72 0.0 0.032298825681209564 0.0 0.2685674726963043 0.1729218065738678 0.0 0.0 0.08414678275585175 0.0 0.0 0.0 0.0 0.12655121088027954 0.10619243234395981 0.0 0.015271343290805817 0.0 0.0 0.0 0.0891401618719101 0.12416984885931015 0.0 0.38046321272850037 0.2602304518222809 0.0 0.0 0.0 0.22170871496200562 0.07250753045082092 0.21070542931556702 0.0 0.0
73 0.0 0.03133577108383179 0.0 0.2671511173248291 0.16511170566082 0.0 0.0 0.0786125659942627 0.0 0.0 0.0 0.0 0.12160210311412811 0.11344853043556213 0.0 0.009343684650957584 0.0 0.0 0.0 0.09645024687051773 0.12324149161577225 0.0 0.372121125459671 0.2586229145526886 0.0 0.0 0.0 0.2257661670446396 0.06985583901405334 0.21445120871067047 0.0 0.0
74 0.0 0.034392643719911575 0.0 0.275233656167984 0.1680571436882019 0.0 0.0 0.0759667158126831 0.0 0.0 0.0 0.0 0.12877658009529114 0.11261462420225143 0.0 0.01765301823616028 0.0 0.0 0.0 0.09388391673564911 0.12235669046640396 0.0 0.37802132964134216 0.2641890048980713 0.0 0.0 0.0 0.22741162776947021 0.07094131410121918 0.20964841544628143 0.0 0.0
75 0.0 0.033925801515579224 0.0 0.2654784619808197 0.17105457186698914 0.0 0.0 0.07779424637556076 0.0 0.0 0.0 0.0 0.1255660355091095 0.11825525760650635 0.0 0.01534263975918293 0.0 0.0 0.0 0.09828843176364899 0.1250571310520172 0.0 0.3703674376010895 0.2589130103588104 0.0 0.0 0.0 0.22214758396148682 0.06588765978813171 0.20947928726673126 0.0 0.0
76 0.0 0.03573470562696457 0.0 0.265764445066452 0.16582117974758148 0.0 0.0 0.07785879820585251 0.0 0.0 0.0 0.0 0.12055202573537827 0.12570832669734955 0.0 0.01551575306802988 0.0 0.0 0.0 0.10166347771883011 0.12289859354496002 0.0 0.36690399050712585 0.25835326313972473 0.0 0.0 0.0 0.2274729460477829 0.06026357412338257 0.21374189853668213 0.0 0.0
77 0.0 0.035390935838222504 0.0 0.27084341645240784 0.16990534961223602 0.0 0.0 0.07684694975614548 0.0 0.0 0.0 0.0 0.12460299581289291 0.11921843886375427 0.0 0.013914410956203938 0.0 0.0 0.0 0.09647674858570099 0.11974195390939713 0.0 0.36700648069381714 0.25345951318740845 0.0 0.0 0.0 0.22300416231155396 0.06771621853113174 0.21264222264289856 0.0 0.0
78 0.0 0.034626659005880356 0.0 0.2720375657081604 0.16388735175132751 0.0 0.0 0.08175227046012878 0.0 0.0 0.0 0.0 0.11707574874162674 0.12887370586395264 0.0 0.014192171394824982 0.0 0.0 0.0 0.10174433141946793 0.12178549915552139 0.0 0.37504464387893677 0.2554224133491516 0.0 0.0 0.0 0.22478187084197998 0.05882447585463524 0.20770315825939178 0.0 0.0
79 0.0 0.03493361175060272 0.0 0.2555466592311859 0.17931461334228516 0.0 0.0 0.07228591293096542 0.0 0.0 0.0 0.0 0.11876152455806732 0.115657277405262 0.0 0.001035585068166256 0.0 0.0 0.0 0.09659575670957565 0.12261011451482773 0.0 0.3517267405986786 0.25956857204437256 0.0 0.0 0.0 0.21912474930286407 0.07537267357110977 0.20681697130203247 0.0 0.0
80 0.0 0.03329211473464966 0.0 0.2685418426990509 0.1595437079668045 0.0 0.0 0.08722007274627686 0.0 0.0 0.0 0.0 0.12183987349271774 0.11927074193954468 0.0 0.014869960956275463 0.0 0.0 0.0 0.09823163598775864 0.1287240833044052 0.0 0.38261330127716064 0.26107358932495117 0.0 0.0 0.0 0.22600500285625458 0.06276070326566696 0.21385708451271057 0.0 0.0
81 0.0 0.029446259140968323 0.0 0.2816871702671051 0.1480138748884201 0.0 0.0 0.0845295861363411 0.0 0.0 0.0 0.0 0.12445893883705139 0.12400330603122711 0.0 0.021662963554263115 0.0 0.0 0.0 0.11179948598146439 0.141012504696846 0.0 0.387209951877594 0.26353147625923157 0.0 0.0 0.0 0.2302144467830658 0.05761173740029335 0.21640148758888245 0.0 0.0
82 0.0 0.026834428310394287 0.0 0.2896817624568939 0.15526331961154938 0.0 0.0 0.07616793364286423 0.0 0.0 0.0 0.0 0.12629543244838715 0.1174645647406578 0.0 0.026510432362556458 0.0 0.0 0.0 0.10453639924526215 0.1370736062526703 0.0 0.3763259947299957 0.2645421028137207 0.0 0.0 0.0 0.2259589284658432 0.05800049006938934 0.21253147721290588 0.0 0.0
83 0.0 0.03149180859327316 0.0 0.27179834246635437 0.17544704675674438 0.0 0.0 0.07994796335697174 0.0 0.0 0.0 0.0 0.13179166615009308 0.10444875061511993 0.0 0.020219139754772186 0.0 0.0 0.0 0.09157080203294754 0.12666651606559753 0.0 0.3834686577320099 0.2653546631336212 0.0 0.0 0.0 0.2242894023656845 0.06473895907402039 0.21030500531196594 0.0 0.0
84 0.0 0.03037036582827568 0.0 0.27950507402420044 0.17080479860305786 0.0 0.0 0.08037464320659637 0.0 0.0 0.0 0.0 0.13427585363388062 0.1070120558142662 0.0 0.019371196627616882 0.0 0.0 0.0 0.10052450746297836 0.13587141036987305 0.0 0.3710886240005493 0.2664296329021454 0.0 0.0 0.0 0.22311565279960632 0.07191913574934006 0.20920003950595856 0.0 0.0
85 0.0 0.036586444824934006 0.0 0.2594512104988098 0.16777531802654266 0.0 0.0 0.08770003914833069 0.0 0.0 0.0 0.0 0.12003138661384583 0.12434259057044983 0.0 0.010511720553040504 0.0 0.0 0.0 0.09931129217147827 0.12701837718486786 0.0 0.38006845116615295 0.254354864358902 0.0 0.0 0.0 0.2208363562822342 0.06575094163417816 0.21357361972332 0.0 0.0
86 0.0 0.03687898442149162 0.0 0.27079781889915466 0.17792439460754395 0.0 0.0 0.07662498205900192 0.0 0.0 0.0 0.0 0.12976470589637756 0.1081404983997345 0.0 0.01107015460729599 0.0 0.0 0.0 0.09205164015293121 0.12144195288419724 0.0 0.3674253225326538 0.2608920633792877 0.0 0.0 0.0 0.22356027364730835 0.07889953255653381 0.20779526233673096 0.0 0.0
87 0.0 0.03684055805206299 0.0 0.2609672546386719 0.1841905415058136 0.0 0.0 0.0762607604265213 0.0 0.0 0.0 0.0 0.12595252692699432 0.11054933816194534 0.0 0.009878281503915787 0.0 0.0 0.0 0.08869346976280212 0.11753568798303604 0.0 0.36867254972457886 0.25520941615104675 0.0 0.0 0.0 0.2224157750606537 0.07624560594558716 0.211093932390213 0.0 0.0
88 0.0 0.03931450843811035 0.0 0.2686261534690857 0.16916780173778534 0.0 0.0 0.08188707381486893 0.0 0.0 0.0 0.0 0.118598073720932 0.12513642013072968 0.0 0.01263504195958376 0.0 0.0 0.0 0.10247200727462769 0.12789767980575562 0.0 0.37586939334869385 0.25354692339897156 0.0 0.0 0.0 0.21870091557502747 0.06708531826734543 0.20380237698554993 0.0 0.0
89 0.0 0.03465364873409271 0.0 0.25292477011680603 0.16572478413581848 0.0 0.0 0.0833142101764679 0.0 0.0 0.0 0.0 0.10905425995588303 0.1302114874124527 0.0 0.0006358940154314041 0.0 0.0 0.0 0.09887950122356415 0.12293177843093872 0.0 0.36179113388061523 0.2560727000236511 0.0 0.0 0.0 0.22286280989646912 0.05937633663415909 0.20565228164196014 0.0 0.0
90 0.0 0.03342915698885918 0.0 0.2682001292705536 0.16105279326438904 0.0 0.0 0.08492662757635117 0.0 0.0 0.0 0.0 0.1253877729177475 0.119418665766716 0.0 0.018978578969836235 0.0 0.0 0.0 0.1002102941274643 0.13001058995723724 0.0 0.387532114982605 0.2604215145111084 0.0 0.0 0.0 0.2287169098854065 0.0614544153213501 0.2139197587966919 0.0 0.0
91 0.0 0.03350137919187546 0.0 0.2801510989665985 0.1723172664642334 0.0 0.0 0.0818639025092125 0.0 0.0 0.0 0.0 0.14156357944011688 0.10089723765850067 0.0 0.029388422146439552 0.0 0.0 0.0 0.0926971584558487 0.13168670237064362 0.0 0.3827855885028839 0.27497369050979614 0.0 0.0 0.0 0.228424072265625 0.06875600665807724 0.2131306678056717 0.0 0.0
92 0.0 0.030058149248361588 0.0 0.2869563102722168 0.15972793102264404 0.0 0.0 0.08165928721427917 0.0 0.0 0.0 0.0 0.13543634116649628 0.10922246426343918 0.0 0.025201313197612762 0.0 0.0 0.0 0.0992254838347435 0.1335202157497406 0.0 0.3837454617023468 0.26970183849334717 0.0 0.0 0.0 0.227188378572464 0.06960275024175644 0.21425563097000122 0.0 0.0
93 0.0 0.02929810807108879 0.0 0.2790793180465698 0.1608869433403015 0.0 0.0 0.07665332406759262 0.0 0.0 0.0 0.0 0.12972040474414825 0.11495404690504074 0.0 0.02343394048511982 0.0 0.0 0.0 0.1021011471748352 0.1338208168745041 0.0 0.3768870234489441 0.26434043049812317 0.0 0.0 0.0 0.23029643297195435 0.06046830862760544 0.2155238389968872 0.0 0.0
94 0.0 0.03495200350880623 0.0 0.26706552505493164 0.1699627786874771 0.0 0.0 0.0767841637134552 0.0 0.0 0.0 0.0 0.1222924143075943 0.11864645779132843 0.0 0.013119966723024845 0.0 0.0 0.0 0.10182606428861618 0.1253417730331421 0.0 0.3661014437675476 0.2582387328147888 0.0 0.0 0.0 0.22671373188495636 0.0679275244474411 0.21194536983966827 0.0 0.0
95 0.0 0.03421792387962341 0.0 0.2691700756549835 0.16336160898208618 0.0 0.0 0.07969096302986145 0.0 0.0 0.0 0.0 0.11766421049833298 0.1265013962984085 0.0 0.009939647279679775 0.0 0.0 0.0 0.10759039223194122 0.1336980164051056 0.0 0.3736070990562439 0.2568943202495575 0.0 0.0 0.0 0.22067297995090485 0.06367630511522293 0.20903849601745605 0.0 0.0
96 0.0 0.033381782472133636 0.0 0.26638972759246826 0.17334185540676117 0.0 0.0 0.07772287726402283 0.0 0.0 0.0 0.0 0.1273387372493744 0.1112334206700325 0.0 0.014957163482904434 0.0 0.0 0.0 0.09245867282152176 0.12139774858951569 0.0 0.3737020194530487 0.26074206829071045 0.0 0.0 0.0 0.22684524953365326 0.06753775477409363 0.2119983434677124 0.0 0.0
97 0.0 0.030001772567629814 0.0 0.26719504594802856 0.1699298620223999 0.0 0.0 0.07176807522773743 0.0 0.0 0.0 0.0 0.1245991662144661 0.11360937356948853 0.0 0.011970503255724907 0.0 0.0 0.0 0.09443432837724686 0.12158355116844177 0.0 0.3606535792350769 0.2656898498535156 0.0 0.0 0.0 0.22963595390319824 0.06592798233032227 0.21571774780750275 0.0 0.0
98 0.0 0.032789841294288635 0.0 0.26436126232147217 0.1717824637889862 0.0 0.0 0.0741967037320137 0.0 0.0 0.0 0.0 0.12374641746282578 0.1126178577542305 0.0 0.007459742948412895 0.0 0.0 0.0 0.09100019186735153 0.12447170168161392 0.0 0.36712968349456787 0.26295775175094604 0.0 0.0 0.0 0.22234594821929932 0.07103073596954346 0.21125352382659912 0.0 0.0
99 0.0 0.041881684213876724 0.0 0.2483654022216797 0.17437762022018433 0.0 0.0 0.08231077343225479 0.0 0.0 0.0 0.0 0.11020111292600632 0.13301856815814972 0.0 0.0028241435065865517 0.0 0.0 0.0 0.09198087453842163 0.11446598172187805 0.0 0.36805251240730286 0.2458423376083374 0.0 0.0 0.0 0.22278925776481628 0.05932600423693657 0.21420669555664062 0.0 0.0
