100 32 
0 0.16516754031181335 0.0 0.0 0.0 0.10790866613388062 0.07239747047424316 0.0 0.13568314909934998 0.09411600977182388 0.0 0.0 0.28627249598503113 0.18114745616912842 0.2086355984210968 0.2409835010766983 0.0 0.16812685132026672 0.0 0.0 0.0 0.046444687992334366 0.0 0.1230209469795227 0.14563797414302826 0.0 0.0 0.14428266882896423 0.0 0.12738747894763947 0.0 0.00648321770131588 0.0
1 0.1706916242837906 0.0 0.0 0.0 0.11266063153743744 0.08195756375789642 0.0 0.14144977927207947 0.11186137050390244 0.0 0.0 0.2887900471687317 0.15692642331123352 0.21773315966129303 0.24991807341575623 0.0 0.16897857189178467 0.0 0.0 0.0 0.058122240006923676 0.0 0.11921598762273788 0.14705047011375427 0.0 0.0 0.13545820116996765 0.0 0.1283489167690277 0.0 0.0016160756349563599 0.0
2 0.16213752329349518 0.0 0.0 0.0 0.10613827407360077 0.06966947019100189 0.0 0.14625558257102966 0.11696523427963257 0.0 0.0 0.2899291515350342 0.16414284706115723 0.22667285799980164 0.24958066642284393 0.0 0.17329226434230804 0.0 0.0 0.0 0.06543424725532532 0.0 0.12078767269849777 0.14130961894989014 0.0 0.0 0.13156664371490479 0.0 0.1377710998058319 0.0 0.0 0.0
3 0.16974785923957825 0.0 0.0 0.0 0.09610965847969055 0.07785531878471375 0.0 0.1413455456495285 0.10279730707406998 0.0 0.0 0.28316301107406616 0.1878521889448166 0.2120891809463501 0.24817778170108795 0.0 0.17317143082618713 0.0 0.0 0.0 0.0518488809466362 0.0 0.12791675329208374 0.13909530639648438 0.0 0.0 0.14425243437290192 0.0 0.12940911948680878 0.0 0.006952699273824692 0.0
4 0.1674918830394745 0.001989292912185192 0.0 0.0 0.10845543444156647 0.07886606454849243 0.0 0.13275767862796783 0.09482374787330627 0.0 0.0 0.2858585715293884 0.18280409276485443 0.20959924161434174 0.24663151800632477 0.0 0.168007031083107 0.0 0.0 0.0 0.04870985448360443 0.0 0.136513352394104 0.1361030787229538 0.0 0.0 0.1430908739566803 0.0 0.11697521060705185 0.0 0.005620861425995827 0.0
5 0.16906264424324036 0.0 0.0 0.0 0.1085403710603714 0.07062222063541412 0.0 0.13880901038646698 0.1080484613776207 0.0 0.0 0.2889474630355835 0.17391401529312134 0.2114446461200714 0.24502338469028473 0.0 0.17191623151302338 0.0 0.0 0.0 0.05115972086787224 0.0 0.11963309347629547 0.1418771743774414 0.0 0.0 0.13274994492530823 0.0 0.13220657408237457 0.0 0.0 0.0
6 0.16960665583610535 0.0 0.0 0.0 0.11532628536224365 0.0734027773141861 0.0 0.13510341942310333 0.09648680686950684 0.0 0.0 0.28881925344467163 0.18473872542381287 0.2102663815021515 0.24230559170246124 0.0 0.17622901499271393 0.0 0.0 0.0 0.04341355711221695 0.0 0.11044344305992126 0.14953598380088806 0.0 0.0 0.1422586441040039 0.0 0.12520022690296173 0.0 0.0010636672377586365 0.0
7 0.1702171266078949 0.0 0.0 0.0 0.11028984189033508 0.07526102662086487 0.0 0.13962893187999725 0.105333112180233 0.0 0.0 0.28523874282836914 0.18695242702960968 0.20364108681678772 0.24649739265441895 0.0 0.16676723957061768 0.0 0.0 0.0 0.0495726615190506 0.0 0.11976288259029388 0.14582176506519318 0.0 0.0 0.1418086588382721 0.0 0.13928623497486115 0.0 0.0008392240852117538 0.0
8 0.1738424152135849 0.0 0.0 0.0 0.12170525640249252 0.07281424105167389 0.0 0.13547873497009277 0.10298918187618256 0.0 0.0 0.2864873707294464 0.1815526783466339 0.20353253185749054 0.24254566431045532 0.0 0.17251375317573547 0.0 0.0 0.0 0.04050733894109726 0.0 0.11546428501605988 0.14361676573753357 0.0 0.0 0.14800362288951874 0.0 0.13146670162677765 0.0 0.003883982077240944 0.0
9 0.15655463933944702 0.0 0.0 0.0 0.11725308746099472 0.07287804037332535 0.0 0.14243292808532715 0.13247880339622498 0.0 0.0 0.29262587428092957 0.1423083245754242 0.2236626148223877 0.24973151087760925 0.0 0.1616896688938141 0.0 0.0 0.0 0.04792940989136696 0.0 0.10813380777835846 0.14915600419044495 0.0 0.0 0.13163667917251587 0.0 0.15588107705116272 0.0 0.0026892274618148804 0.0
10 0.17210493981838226 0.00020932545885443687 0.0 0.0 0.11188718676567078 0.07317368686199188 0.0 0.13091856241226196 0.09094216674566269 0.0 0.0 0.2831419110298157 0.18535515666007996 0.20070135593414307 0.23835088312625885 0.0 0.16934435069561005 0.0 0.0 0.0 0.04204048961400986 0.0 0.125523179769516 0.143950417637825 0.0 0.0 0.1465512067079544 0.0 0.11588981747627258 0.0 0.00803188793361187 0.0
11 0.1680724024772644 0.0 0.0 0.0 0.10703276097774506 0.0706363245844841 0.0 0.13844400644302368 0.1131870225071907 0.0 0.0 0.2876722812652588 0.176397442817688 0.2085842788219452 0.2475324124097824 0.0 0.17587561905384064 0.0 0.0 0.0 0.054751597344875336 0.0 0.11984825134277344 0.14558009803295135 0.0 0.0 0.1374165415763855 0.0 0.12921395897865295 0.0 0.0034679993987083435 0.0
12 0.16351862251758575 0.0 0.0 0.0 0.11701876670122147 0.06670572608709335 0.0 0.13686586916446686 0.11966901272535324 0.0 0.0 0.2908397316932678 0.1540943682193756 0.21083147823810577 0.24602694809436798 0.0 0.16869068145751953 0.0 0.0 0.0 0.05154434219002724 0.0 0.10926325619220734 0.15628913044929504 0.0 0.0 0.1267380267381668 0.0 0.13780231773853302 0.0 0.0 0.0
13 0.16282740235328674 0.0 0.0 0.0 0.11657234281301498 0.07374061644077301 0.0 0.1461247056722641 0.13470692932605743 0.0 0.0 0.2958991229534149 0.1534917652606964 0.21676023304462433 0.25239700078964233 0.0 0.17983666062355042 0.0 0.0 0.0 0.05478063225746155 0.0 0.09915761649608612 0.1415778547525406 0.0 0.0 0.13277468085289001 0.0 0.14761123061180115 0.0 0.0028167515993118286 0.0
14 0.1677544116973877 0.0 0.0 0.0 0.10966449975967407 0.07384039461612701 0.0 0.14639286696910858 0.11072885990142822 0.0 0.0 0.2884737551212311 0.17290633916854858 0.2300877720117569 0.2495366334915161 0.0 0.17273226380348206 0.0 0.0 0.0 0.055872052907943726 0.0 0.1157900020480156 0.13059592247009277 0.0 0.0 0.13036154210567474 0.0 0.13690117001533508 0.0 0.0 0.0
15 0.17205896973609924 0.0 0.0 0.0 0.11318007111549377 0.06810690462589264 0.0 0.13946495950222015 0.10397906601428986 0.0 0.0 0.29011523723602295 0.175343856215477 0.21163101494312286 0.2444443553686142 0.0 0.17325778305530548 0.0 0.0 0.0 0.05124162137508392 0.0 0.10815161466598511 0.1417735517024994 0.0 0.0 0.1337362378835678 0.0 0.13700824975967407 0.0 0.0 0.0
16 0.16077305376529694 0.0 0.0 0.0 0.1151309385895729 0.07174252718687057 0.0 0.13198970258235931 0.10520631074905396 0.0 0.0 0.28139543533325195 0.1584303081035614 0.2002459466457367 0.2460166960954666 0.0 0.16217941045761108 0.0 0.0 0.0 0.04874742776155472 0.0 0.10854706168174744 0.15795579552650452 0.0 0.0 0.13268053531646729 0.0 0.13731731474399567 0.0 0.0062150415033102036 0.0
17 0.16791754961013794 0.0 0.0 0.0 0.1096268817782402 0.07198531925678253 0.0 0.1407020390033722 0.10844366997480392 0.0 0.0 0.2885216772556305 0.18582621216773987 0.21318921446800232 0.2439991533756256 0.0 0.1704462170600891 0.0 0.0 0.0 0.049172140657901764 0.0 0.1185489371418953 0.14299249649047852 0.0 0.0 0.13858899474143982 0.0 0.13171036541461945 0.0 0.0037985555827617645 0.0
18 0.1758001744747162 0.0 0.0 0.0 0.10846149921417236 0.07936853915452957 0.0 0.13558343052864075 0.09710180014371872 0.0 0.0 0.2864381670951843 0.19017058610916138 0.19854795932769775 0.24607504904270172 0.0 0.1781681478023529 0.0 0.0 0.0 0.04136314243078232 0.0 0.12106867879629135 0.14132100343704224 0.0 0.0 0.15817223489284515 0.0 0.1263832002878189 0.0 0.013940401375293732 0.0
19 0.16283704340457916 0.0 0.0 0.0 0.11406704783439636 0.07064652442932129 0.0 0.13370394706726074 0.1163756251335144 0.0 0.0 0.28601619601249695 0.1439400464296341 0.2203618586063385 0.2469393014907837 0.0 0.16462670266628265 0.0 0.0 0.0 0.045034196227788925 0.0 0.11769207566976547 0.1345459371805191 0.0 0.0 0.13080467283725739 0.0 0.1414903700351715 0.0 0.0012915637344121933 0.0
20 0.17679134011268616 0.0 0.0 0.0 0.11541527509689331 0.07938138395547867 0.0 0.13803085684776306 0.0969715416431427 0.0 0.0 0.28645429015159607 0.19073456525802612 0.2045494019985199 0.24572871625423431 0.0 0.17221422493457794 0.0 0.0 0.0 0.044998593628406525 0.0 0.11924656480550766 0.1431400328874588 0.0 0.0 0.15093249082565308 0.0 0.1310766488313675 0.0 0.002320224419236183 0.0
21 0.167935311794281 0.0 0.0 0.0 0.1139882504940033 0.07930063456296921 0.0 0.1317606121301651 0.11243411898612976 0.0 0.0 0.2845032215118408 0.17349618673324585 0.20940649509429932 0.2540546953678131 0.0 0.16946665942668915 0.0 0.0 0.0 0.05317198485136032 0.0 0.12012717127799988 0.14443714916706085 0.0 0.0 0.13895641267299652 0.0 0.13654515147209167 0.0 0.0050704460591077805 0.0
22 0.17229054868221283 0.0 0.0 0.0 0.10810980200767517 0.0793629139661789 0.0 0.14044925570487976 0.11234337836503983 0.0 0.0 0.2854149639606476 0.1884947121143341 0.2059260606765747 0.24728412926197052 0.0 0.17129170894622803 0.0 0.0 0.0 0.049924593418836594 0.0 0.11627017706632614 0.147932767868042 0.0 0.0 0.14136667549610138 0.0 0.1318206787109375 0.0 0.008960774168372154 0.0
23 0.16548927128314972 0.0 0.0 0.0 0.11154350638389587 0.06980018317699432 0.0 0.13762076199054718 0.11901307106018066 0.0 0.0 0.2897649109363556 0.16326676309108734 0.21218177676200867 0.2456132471561432 0.0 0.1747252494096756 0.0 0.0 0.0 0.051599059253931046 0.0 0.10794280469417572 0.14414024353027344 0.0 0.0 0.13102276623249054 0.0 0.1310308277606964 0.0 0.0033334363251924515 0.0
24 0.17052848637104034 0.0 0.0 0.0 0.10662372410297394 0.07663846015930176 0.0 0.14842823147773743 0.12166544795036316 0.0 0.0 0.2926110327243805 0.17880137264728546 0.21832028031349182 0.2535253167152405 0.0 0.18571744859218597 0.0 0.0 0.0 0.05958098918199539 0.0 0.11498687416315079 0.14543098211288452 0.0 0.0 0.14337891340255737 0.0 0.13784907758235931 0.0 0.0 0.0
25 0.17427964508533478 0.0 0.0 0.0 0.10780192911624908 0.07285374402999878 0.0 0.14032937586307526 0.1030774861574173 0.0 0.0 0.2896314561367035 0.18321673572063446 0.21467125415802002 0.24370722472667694 0.0 0.17879554629325867 0.0 0.0 0.0 0.05312919244170189 0.0 0.1215561032295227 0.1430063247680664 0.0 0.0 0.14207912981510162 0.0 0.12516334652900696 0.0 0.000530727207660675 0.0
26 0.16651016473770142 0.0 0.0 0.0 0.1147102564573288 0.06758909672498703 0.0 0.13285788893699646 0.10227854549884796 0.0 0.0 0.28556352853775024 0.1709716022014618 0.20411501824855804 0.24370793998241425 0.0 0.17562685906887054 0.0 0.0 0.0 0.04512978345155716 0.0 0.10703147202730179 0.15286482870578766 0.0 0.0 0.13967645168304443 0.0 0.1291026771068573 0.0 0.004641663283109665 0.0
27 0.17463524639606476 0.0 0.0 0.0 0.1221831738948822 0.06818435341119766 0.0 0.14006303250789642 0.11921985447406769 0.0 0.0 0.290894478559494 0.17230144143104553 0.20707827806472778 0.24811775982379913 0.0 0.17399170994758606 0.0 0.0 0.0 0.046736329793930054 0.0 0.11205844581127167 0.14427843689918518 0.0 0.0 0.1416965126991272 0.0 0.14207887649536133 0.0 0.0 0.0
28 0.17214204370975494 0.0 0.0 0.0 0.11216641962528229 0.06867266446352005 0.0 0.14413787424564362 0.11331252753734589 0.0 0.0 0.2902041971683502 0.1700712889432907 0.2189469337463379 0.2399509847164154 0.0 0.1722891628742218 0.0 0.0 0.0 0.054900962859392166 0.0 0.12155792117118835 0.14850503206253052 0.0 0.0 0.13567674160003662 0.0 0.1277453452348709 0.0 0.0 0.0
29 0.15482747554779053 0.0 0.0 0.0 0.10889187455177307 0.07714279741048813 0.0 0.14063261449337006 0.11974048614501953 0.0 0.0 0.28699231147766113 0.1447853147983551 0.22132517397403717 0.2503170967102051 0.0 0.1567840576171875 0.0 0.0 0.0 0.054294995963573456 0.0 0.1201872006058693 0.1538597047328949 0.0 0.0 0.13132861256599426 0.0 0.14254078269004822 0.0 0.005285339429974556 0.0
30 0.17093425989151 0.0 0.0 0.0 0.11476393043994904 0.08068022131919861 0.0 0.14217156171798706 0.10456547886133194 0.0 0.0 0.290199339389801 0.16747471690177917 0.21715955436229706 0.24570907652378082 0.0 0.1690482646226883 0.0 0.0 0.0 0.05593717098236084 0.0 0.12302769720554352 0.14096683263778687 0.0 0.0 0.13604767620563507 0.0 0.12767693400382996 0.0 0.0 0.0
31 0.17088106274604797 0.0 0.0 0.0 0.1146223321557045 0.07317456603050232 0.0 0.13854160904884338 0.10453770309686661 0.0 0.0 0.28793397545814514 0.18284109234809875 0.20864251255989075 0.24238960444927216 0.0 0.1703605055809021 0.0 0.0 0.0 0.04899859428405762 0.0 0.11543489992618561 0.1522844135761261 0.0 0.0 0.14116495847702026 0.0 0.12834414839744568 0.0 0.0033190399408340454 0.0
32 0.1754504293203354 0.0 0.0 0.0 0.11551155894994736 0.07430858910083771 0.0 0.1347028762102127 0.09811688959598541 0.0 0.0 0.28831204771995544 0.18031495809555054 0.2099188268184662 0.24439391493797302 0.0 0.174320787191391 0.0 0.0 0.0 0.04932047426700592 0.0 0.12286113202571869 0.14234410226345062 0.0 0.0 0.14308394491672516 0.0 0.12171393632888794 0.0 0.0 0.0
33 0.17370855808258057 0.0 0.0 0.0 0.11050936579704285 0.07799245417118073 0.0 0.14203910529613495 0.10204043984413147 0.0 0.0 0.2870370149612427 0.18642480671405792 0.2083524763584137 0.24845606088638306 0.0 0.17608542740345 0.0 0.0 0.0 0.05122634023427963 0.0 0.12664878368377686 0.14186593890190125 0.0 0.0 0.14542044699192047 0.0 0.1259680986404419 0.0 0.0006619170308113098 0.0
34 0.1611296534538269 0.003666566452011466 0.0 0.0 0.11326643824577332 0.06889795511960983 0.0 0.13067692518234253 0.10143411159515381 0.0 0.0 0.28699514269828796 0.17369218170642853 0.21142372488975525 0.2468733787536621 0.0 0.17201149463653564 0.0 0.0 0.0 0.048062898218631744 0.0 0.12203150242567062 0.1358843743801117 0.0 0.0 0.1403656303882599 0.0 0.1313849836587906 0.0 0.0052781421691179276 0.0
35 0.1716478168964386 0.0 0.0 0.0 0.1110372245311737 0.07166492938995361 0.0 0.13360829651355743 0.09132643043994904 0.0 0.0 0.2848953902721405 0.17981228232383728 0.20291468501091003 0.2405988723039627 0.0 0.17326843738555908 0.0 0.0 0.0 0.04275418817996979 0.0 0.12066924571990967 0.14192108809947968 0.0 0.0 0.1442721039056778 0.0 0.1250884085893631 0.0 0.000611916184425354 0.0
36 0.16346651315689087 0.0 0.0 0.0 0.11339633911848068 0.06889905035495758 0.0 0.13773134350776672 0.11218846589326859 0.0 0.0 0.2893465459346771 0.16562479734420776 0.20958395302295685 0.24315975606441498 0.0 0.17528720200061798 0.0 0.0 0.0 0.048296742141246796 0.0 0.10856890678405762 0.15002799034118652 0.0 0.0 0.136627659201622 0.0 0.12864573299884796 0.0 0.0030553024262189865 0.0
37 0.17374108731746674 0.0033726997207850218 0.0 0.0 0.12138454616069794 0.07171325385570526 0.0 0.13302668929100037 0.1231033131480217 0.0 0.0 0.29223400354385376 0.16181614995002747 0.20980682969093323 0.2514636516571045 0.0 0.18208356201648712 0.0 0.0 0.0 0.047966040670871735 0.0 0.10469157248735428 0.1486559510231018 0.0 0.0 0.13897912204265594 0.0 0.1383836418390274 0.0 0.007121462374925613 0.0
38 0.16861090064048767 0.0 0.0 0.0 0.11572457104921341 0.07367312908172607 0.0 0.14174124598503113 0.11594089865684509 0.0 0.0 0.2890373766422272 0.1606835126876831 0.22822529077529907 0.24819043278694153 0.0 0.1688254028558731 0.0 0.0 0.0 0.05567166209220886 0.0 0.11765711009502411 0.13912805914878845 0.0 0.0 0.12832894921302795 0.0 0.13635767996311188 0.0 0.0 0.0
39 0.15052436292171478 0.0 0.0 0.0 0.12043457478284836 0.07573376595973969 0.0 0.145574688911438 0.15133635699748993 0.0 0.0 0.3012993335723877 0.10335611552000046 0.24167057871818542 0.25338560342788696 0.0 0.15944647789001465 0.0 0.0 0.0 0.05991285294294357 0.0 0.10785353928804398 0.12809592485427856 0.0 0.0 0.11855897307395935 0.0 0.17228834331035614 0.0 0.0 0.0
40 0.16995775699615479 0.0 0.0 0.0 0.1097288727760315 0.0825781375169754 0.0 0.14293085038661957 0.10340210795402527 0.0 0.0 0.29007428884506226 0.17353522777557373 0.22186696529388428 0.24834638833999634 0.0 0.1732393354177475 0.0 0.0 0.0 0.05816986411809921 0.0 0.12479627132415771 0.14341169595718384 0.0 0.0 0.13719439506530762 0.0 0.12225542962551117 0.0 0.0 0.0
41 0.16309499740600586 0.0 0.0 0.0 0.10636945068836212 0.07366729527711868 0.0 0.14202925562858582 0.11055207252502441 0.0 0.0 0.2893158793449402 0.1684725284576416 0.22155269980430603 0.24683541059494019 0.0 0.16846466064453125 0.0 0.0 0.0 0.05567435175180435 0.0 0.11528773605823517 0.149814173579216 0.0 0.0 0.12926287949085236 0.0 0.13560234010219574 0.0 0.0 0.0
42 0.1671951711177826 0.0 0.0 0.0 0.11119966208934784 0.07266759872436523 0.0 0.1417040377855301 0.11708879470825195 0.0 0.0 0.2899227738380432 0.16504517197608948 0.21219411492347717 0.246562197804451 0.0 0.1757163256406784 0.0 0.0 0.0 0.05017492547631264 0.0 0.10642433166503906 0.15112894773483276 0.0 0.0 0.13780581951141357 0.0 0.13747571408748627 0.0 0.005052223801612854 0.0
43 0.16888819634914398 0.0 0.0 0.0 0.12215661257505417 0.07109656929969788 0.0 0.12772920727729797 0.10418470203876495 0.0 0.0 0.2905595302581787 0.1565471887588501 0.20929379761219025 0.24679698050022125 0.0 0.1689196079969406 0.0 0.0 0.0 0.05149898678064346 0.0 0.10710318386554718 0.14360535144805908 0.0 0.0 0.1343270093202591 0.0 0.13742908835411072 0.0 0.0 0.0
44 0.1684468388557434 0.0 0.0 0.0 0.10827910900115967 0.07102499902248383 0.0 0.14601165056228638 0.11768782138824463 0.0 0.0 0.28984346985816956 0.17492297291755676 0.21808642148971558 0.24657361209392548 0.0 0.18407753109931946 0.0 0.0 0.0 0.05361934006214142 0.0 0.11395648866891861 0.14668147265911102 0.0 0.0 0.13844339549541473 0.0 0.13169051706790924 0.0 0.0017977692186832428 0.0
45 0.1672355681657791 0.0 0.0 0.0 0.11426562070846558 0.0738820731639862 0.0 0.13517145812511444 0.10311532020568848 0.0 0.0 0.2898852229118347 0.17106135189533234 0.2158679962158203 0.24447883665561676 0.0 0.173258975148201 0.0 0.0 0.0 0.048389773815870285 0.0 0.11881730705499649 0.15366455912590027 0.0 0.0 0.1403028964996338 0.0 0.12920056283473969 0.0 0.0018783900886774063 0.0
46 0.1720506101846695 0.0036821248941123486 0.0 0.0 0.11744004487991333 0.06674754619598389 0.0 0.1271323263645172 0.10420721769332886 0.0 0.0 0.2886124551296234 0.17873910069465637 0.1989130824804306 0.2418227344751358 0.0 0.1728934496641159 0.0 0.0 0.0 0.044728927314281464 0.0 0.1153852567076683 0.14564616978168488 0.0 0.0 0.1423865258693695 0.0 0.12942713499069214 0.0 0.0022868793457746506 0.0
47 0.17496754229068756 0.0011564772576093674 0.0 0.0 0.11867894232273102 0.0685691386461258 0.0 0.13177919387817383 0.10372184962034225 0.0 0.0 0.2892718017101288 0.18223349750041962 0.20622384548187256 0.24423235654830933 0.0 0.17697438597679138 0.0 0.0 0.0 0.04647263512015343 0.0 0.1180911511182785 0.14038479328155518 0.0 0.0 0.14315743744373322 0.0 0.12658357620239258 0.0 0.000670112669467926 0.0
48 0.16389921307563782 0.0 0.0 0.0 0.11186476051807404 0.06919509172439575 0.0 0.14256368577480316 0.1252494901418686 0.0 0.0 0.29176652431488037 0.16086742281913757 0.22259114682674408 0.24826952815055847 0.0 0.1716478168964386 0.0 0.0 0.0 0.05915097892284393 0.0 0.10559902340173721 0.15222907066345215 0.0 0.0 0.12461212277412415 0.0 0.14146874845027924 0.0 0.0 0.0
49 0.15161819756031036 0.0 0.0 0.0 0.1149756908416748 0.07748086750507355 0.0 0.1513616293668747 0.16236722469329834 0.0 0.0 0.2982880473136902 0.10284578055143356 0.2417721450328827 0.26280638575553894 0.0 0.15536414086818695 0.0 0.0 0.0 0.060506176203489304 0.0 0.11454033106565475 0.12807060778141022 0.0 0.0 0.1210266724228859 0.0 0.19101299345493317 0.0 0.0 0.0
50 0.1771898865699768 0.0 0.0 0.0 0.10508599877357483 0.0745464637875557 0.0 0.13624152541160583 0.09556213766336441 0.0 0.0 0.28934046626091003 0.195118248462677 0.21341654658317566 0.24732433259487152 0.0 0.18494026362895966 0.0 0.0 0.0 0.05145280808210373 0.0 0.12302088737487793 0.13667216897010803 0.0 0.0 0.14180654287338257 0.0 0.12029624730348587 0.0 0.0 0.0
51 0.16571445763111115 0.0 0.0 0.0 0.11640429496765137 0.07127417623996735 0.0 0.14240394532680511 0.11665907502174377 0.0 0.0 0.29356396198272705 0.1774531602859497 0.20500245690345764 0.24248404800891876 0.0 0.16749916970729828 0.0 0.0 0.0 0.051792219281196594 0.0 0.10565606504678726 0.14622023701667786 0.0 0.0 0.1324002891778946 0.0 0.1345091462135315 0.0 0.0016366112977266312 0.0
52 0.17600172758102417 0.0 0.0 0.0 0.11369586735963821 0.07033081352710724 0.0 0.138024240732193 0.10123158246278763 0.0 0.0 0.2888520359992981 0.1751174032688141 0.21073654294013977 0.24609029293060303 0.0 0.18451015651226044 0.0 0.0 0.0 0.04572200030088425 0.0 0.11535036563873291 0.14155714213848114 0.0 0.0 0.1436743587255478 0.0 0.1292964518070221 0.0 0.0 0.0
53 0.17524360120296478 0.0 0.0 0.0 0.11758028715848923 0.0799483209848404 0.0 0.1380116045475006 0.10400079935789108 0.0 0.0 0.28961339592933655 0.1838856041431427 0.20240452885627747 0.24580007791519165 0.0 0.17481939494609833 0.0 0.0 0.0 0.045604586601257324 0.0 0.1165740117430687 0.14411993324756622 0.0 0.0 0.1457665115594864 0.0 0.12515243887901306 0.0 0.006394714117050171 0.0
54 0.1798482984304428 0.0 0.0 0.0 0.10316850244998932 0.07976718991994858 0.0 0.14871001243591309 0.10250628739595413 0.0 0.0 0.29183429479599 0.19906099140644073 0.20191508531570435 0.2467588186264038 0.0 0.17856161296367645 0.0 0.0 0.0 0.05349063128232956 0.0 0.12615405023097992 0.1373138129711151 0.0 0.0 0.1462583988904953 0.0 0.12203779816627502 0.0 0.003194667398929596 0.0
55 0.17453505098819733 0.0 0.0 0.0 0.11549445986747742 0.07199741899967194 0.0 0.14091283082962036 0.11393018066883087 0.0 0.0 0.2920874059200287 0.18088459968566895 0.20997871458530426 0.24855665862560272 0.0 0.17821422219276428 0.0 0.0 0.0 0.05410465598106384 0.0 0.12255260348320007 0.15076594054698944 0.0 0.0 0.14236906170845032 0.0 0.13387887179851532 0.0 0.0 0.0
56 0.17092464864253998 0.0 0.0 0.0 0.11568169295787811 0.0692557841539383 0.0 0.13342249393463135 0.11191702634096146 0.0 0.0 0.2885637879371643 0.1792054921388626 0.2058393806219101 0.24568326771259308 0.0 0.1734226942062378 0.0 0.0 0.0 0.05054846033453941 0.0 0.1091015487909317 0.14636249840259552 0.0 0.0 0.13636624813079834 0.0 0.13485319912433624 0.0 0.0 0.0
57 0.16574372351169586 0.004938430152833462 0.0 0.0 0.11031919717788696 0.06459993869066238 0.0 0.1310761570930481 0.10081052780151367 0.0 0.0 0.28452497720718384 0.18291795253753662 0.19637781381607056 0.24042998254299164 0.0 0.1702927052974701 0.0 0.0 0.0 0.041379570960998535 0.0 0.1210077702999115 0.14119930565357208 0.0 0.0 0.14570066332817078 0.0 0.1285959929227829 0.0 0.008303996175527573 0.0
58 0.1623045951128006 0.0 0.0 0.0 0.11994286626577377 0.06819602847099304 0.0 0.13705182075500488 0.1049840897321701 0.0 0.0 0.2861636281013489 0.1529405117034912 0.2214120477437973 0.2438647747039795 0.0 0.16580845415592194 0.0 0.0 0.0 0.04713980853557587 0.0 0.11213480681180954 0.14355328679084778 0.0 0.0 0.1342640221118927 0.0 0.13921433687210083 0.0 0.0 0.0
59 0.15539607405662537 0.0 0.0 0.0 0.11396943777799606 0.07154840975999832 0.0 0.1463651955127716 0.1564491093158722 0.0 0.0 0.292049378156662 0.10127898305654526 0.23212042450904846 0.2567375898361206 0.0 0.15401270985603333 0.0 0.0 0.0 0.05252194404602051 0.0 0.10557961463928223 0.13272391259670258 0.0 0.0 0.1178019717335701 0.0 0.187245175242424 0.0 0.0 0.0
60 0.17393013834953308 0.0 0.0 0.0 0.11803135275840759 0.07351165264844894 0.0 0.1396423876285553 0.10674171149730682 0.0 0.0 0.2897716462612152 0.17254474759101868 0.20669294893741608 0.2485457807779312 0.0 0.17825275659561157 0.0 0.0 0.0 0.05249356850981712 0.0 0.11864104121923447 0.14490897953510284 0.0 0.0 0.14285366237163544 0.0 0.13037241995334625 0.0 0.0 0.0
61 0.16910420358181 0.0 0.0 0.0 0.10867198556661606 0.07460823655128479 0.0 0.13947759568691254 0.10637512058019638 0.0 0.0 0.2904280722141266 0.183309406042099 0.20617295801639557 0.24452270567417145 0.0 0.1738252490758896 0.0 0.0 0.0 0.055068887770175934 0.0 0.11534598469734192 0.14925888180732727 0.0 0.0 0.1367785483598709 0.0 0.12511925399303436 0.0 0.0 0.0
62 0.16737227141857147 0.0 0.0 0.0 0.11660999804735184 0.07512082159519196 0.0 0.13916707038879395 0.10849121958017349 0.0 0.0 0.2940192222595215 0.17324869334697723 0.21635308861732483 0.243570014834404 0.0 0.17703108489513397 0.0 0.0 0.0 0.04800170287489891 0.0 0.10971938073635101 0.14094483852386475 0.0 0.0 0.1383291631937027 0.0 0.12868237495422363 0.0 0.0 0.0
63 0.1692836731672287 0.0032478882931172848 0.0 0.0 0.11608656495809555 0.07308284193277359 0.0 0.14020109176635742 0.10299763828516006 0.0 0.0 0.2937571406364441 0.1686917245388031 0.22148996591567993 0.24226011335849762 0.0 0.18167270720005035 0.0 0.0 0.0 0.052464522421360016 0.0 0.1247951090335846 0.1491827815771103 0.0 0.0 0.142076313495636 0.0 0.11441037058830261 0.0 0.0 0.0
64 0.17422854900360107 0.0 0.0 0.0 0.11529797315597534 0.07008246332406998 0.0 0.1402755081653595 0.10675074905157089 0.0 0.0 0.2933500111103058 0.17428795993328094 0.22157172858715057 0.24746564030647278 0.0 0.18460538983345032 0.0 0.0 0.0 0.05462925136089325 0.0 0.11651399731636047 0.13712643086910248 0.0 0.0 0.13928253948688507 0.0 0.12685807049274445 0.0 0.0 0.0
65 0.17400549352169037 0.0 0.0 0.0 0.11181116104125977 0.06947875022888184 0.0 0.13417363166809082 0.1043359786272049 0.0 0.0 0.2891991138458252 0.18125683069229126 0.2102988362312317 0.24959902465343475 0.0 0.18041656911373138 0.0 0.0 0.0 0.054251909255981445 0.0 0.12414400279521942 0.13576571643352509 0.0 0.0 0.14186060428619385 0.0 0.12457302957773209 0.0 0.0 0.0
66 0.1673477292060852 0.0 0.0 0.0 0.11357306689023972 0.07103092968463898 0.0 0.13971059024333954 0.11601629853248596 0.0 0.0 0.29379698634147644 0.17647185921669006 0.209593266248703 0.24513684213161469 0.0 0.17413747310638428 0.0 0.0 0.0 0.04896730184555054 0.0 0.111796073615551 0.14140380918979645 0.0 0.0 0.1379559487104416 0.0 0.13322994112968445 0.0 0.002791108563542366 0.0
67 0.17458434402942657 0.0 0.0 0.0 0.10999879986047745 0.07472630590200424 0.0 0.13560080528259277 0.09407562017440796 0.0 0.0 0.2813519239425659 0.18446162343025208 0.19879266619682312 0.24035923182964325 0.0 0.16716255247592926 0.0 0.0 0.0 0.041722722351551056 0.0 0.1230301782488823 0.15506722033023834 0.0 0.0 0.14448381960391998 0.0 0.1229017898440361 0.0 0.007917305454611778 0.0
68 0.16214871406555176 0.005757355596870184 0.0 0.0 0.10718277096748352 0.06369268149137497 0.0 0.1349535435438156 0.10108912736177444 0.0 0.0 0.28569692373275757 0.16939425468444824 0.20960764586925507 0.23581044375896454 0.0 0.16461515426635742 0.0 0.0 0.0 0.04697287827730179 0.0 0.12373913824558258 0.1523967981338501 0.0 0.0 0.13446849584579468 0.0 0.1219727173447609 0.0 0.004561919718980789 0.0
69 0.16085529327392578 0.0 0.0 0.0 0.11224056035280228 0.061740126460790634 0.0 0.13763059675693512 0.1281636655330658 0.0 0.0 0.2900456488132477 0.12689438462257385 0.2304469645023346 0.24805210530757904 0.0 0.16645702719688416 0.0 0.0 0.0 0.051260337233543396 0.0 0.10851260274648666 0.13725343346595764 0.0 0.0 0.12403824925422668 0.0 0.15512651205062866 0.0 0.0 0.0
70 0.16763107478618622 0.0 0.0 0.0 0.1232118010520935 0.07159177213907242 0.0 0.1371767520904541 0.11874712258577347 0.0 0.0 0.29640358686447144 0.15938550233840942 0.21707232296466827 0.24667644500732422 0.0 0.1761227399110794 0.0 0.0 0.0 0.054265499114990234 0.0 0.1020629033446312 0.14971625804901123 0.0 0.0 0.13097813725471497 0.0 0.13415056467056274 0.0 0.0 0.0
71 0.1693304479122162 0.0 0.0 0.0 0.10400500893592834 0.07789909094572067 0.0 0.1454780250787735 0.11092749238014221 0.0 0.0 0.2847408354282379 0.18086236715316772 0.21751415729522705 0.24767859280109406 0.0 0.17091713845729828 0.0 0.0 0.0 0.05681338161230087 0.0 0.12450380623340607 0.1449274718761444 0.0 0.0 0.14199836552143097 0.0 0.13333508372306824 0.0 0.00023948028683662415 0.0
72 0.17492470145225525 0.0 0.0 0.0 0.10508384555578232 0.07787138968706131 0.0 0.14421284198760986 0.10641349107027054 0.0 0.0 0.2869837284088135 0.1797402799129486 0.20461559295654297 0.24894392490386963 0.0 0.17395175993442535 0.0 0.0 0.0 0.05845477804541588 0.0 0.1241840124130249 0.14305506646633148 0.0 0.0 0.13929778337478638 0.0 0.12861528992652893 0.0 0.00019882991909980774 0.0
73 0.1740550398826599 0.0 0.0 0.0 0.10887500643730164 0.08121933043003082 0.0 0.142667755484581 0.10428375005722046 0.0 0.0 0.29194405674934387 0.1846218705177307 0.21504685282707214 0.24707460403442383 0.0 0.17818237841129303 0.0 0.0 0.0 0.05426944047212601 0.0 0.11481741070747375 0.1450139284133911 0.0 0.0 0.1373920738697052 0.0 0.1260090470314026 0.0 0.0 0.0
74 0.1720331758260727 0.0 0.0 0.0 0.09842947125434875 0.0801745355129242 0.0 0.14387165009975433 0.11722094565629959 0.0 0.0 0.2898070514202118 0.1859598457813263 0.21940946578979492 0.25347763299942017 0.0 0.181051105260849 0.0 0.0 0.0 0.0602492094039917 0.0 0.12265528738498688 0.1424514353275299 0.0 0.0 0.14159375429153442 0.0 0.12920983135700226 0.0 0.007657816633582115 0.0
75 0.16175033152103424 0.0 0.0 0.0 0.11604296416044235 0.07264789193868637 0.0 0.14242242276668549 0.1254129707813263 0.0 0.0 0.29481762647628784 0.17275208234786987 0.2141106128692627 0.24742045998573303 0.0 0.17222577333450317 0.0 0.0 0.0 0.05506687983870506 0.0 0.09978519380092621 0.15338943898677826 0.0 0.0 0.13055036962032318 0.0 0.1381005048751831 0.0 0.0031327567994594574 0.0
76 0.1668160855770111 0.0 0.0 0.0 0.11898134648799896 0.0659039095044136 0.0 0.13735458254814148 0.1111343652009964 0.0 0.0 0.286834716796875 0.16336962580680847 0.20555585622787476 0.24201048910617828 0.0 0.16836857795715332 0.0 0.0 0.0 0.04692276567220688 0.0 0.10912199318408966 0.14952628314495087 0.0 0.0 0.13444827497005463 0.0 0.13634775578975677 0.0 0.0 0.0
77 0.1641673445701599 0.0 0.0 0.0 0.12176071852445602 0.07376782596111298 0.0 0.14515326917171478 0.12660300731658936 0.0 0.0 0.30151858925819397 0.1624373495578766 0.21952670812606812 0.24908161163330078 0.0 0.1735340803861618 0.0 0.0 0.0 0.05295426398515701 0.0 0.09269999712705612 0.15196141600608826 0.0 0.0 0.12922173738479614 0.0 0.14710481464862823 0.0 0.0 0.0
78 0.16579146683216095 0.0 0.0 0.0 0.10769392549991608 0.06598860025405884 0.0 0.14111734926700592 0.1082618236541748 0.0 0.0 0.28433579206466675 0.1788981556892395 0.2142598032951355 0.2427952140569687 0.0 0.17143049836158752 0.0 0.0 0.0 0.04605128988623619 0.0 0.10899879038333893 0.14636731147766113 0.0 0.0 0.13747985661029816 0.0 0.13929447531700134 0.0 9.449012577533722e-05 0.0
79 0.16554147005081177 0.0 0.0 0.0 0.12078346312046051 0.06359601765871048 0.0 0.1333293318748474 0.11485961079597473 0.0 0.0 0.290924608707428 0.15860407054424286 0.21577084064483643 0.23932600021362305 0.0 0.16575954854488373 0.0 0.0 0.0 0.044866327196359634 0.0 0.10251246392726898 0.1473614126443863 0.0 0.0 0.12972362339496613 0.0 0.1391851305961609 0.0 0.0 0.0
80 0.16991569101810455 0.0 0.0 0.0 0.10875704884529114 0.07733233273029327 0.0 0.1419581174850464 0.10081242769956589 0.0 0.0 0.28870245814323425 0.18807700276374817 0.2146110236644745 0.24508056044578552 0.0 0.16919390857219696 0.0 0.0 0.0 0.04999038577079773 0.0 0.12542372941970825 0.13902300596237183 0.0 0.0 0.14241498708724976 0.0 0.12787291407585144 0.0 0.002277947962284088 0.0
81 0.18631477653980255 0.0 0.0 0.0 0.11574725806713104 0.09018450230360031 0.0 0.15097364783287048 0.10712616890668869 0.0 0.0 0.29403170943260193 0.18744103610515594 0.2225283831357956 0.2522946298122406 0.0 0.17844630777835846 0.0 0.0 0.0 0.06886690855026245 0.0 0.13484208285808563 0.1339000165462494 0.0 0.0 0.13615746796131134 0.0 0.11762357503175735 0.0 0.0 0.0
82 0.18005357682704926 0.0 0.0 0.0 0.11099625378847122 0.08867166936397552 0.0 0.15197771787643433 0.1079314574599266 0.0 0.0 0.2976403534412384 0.17673367261886597 0.23225648701190948 0.25585082173347473 0.0 0.18107269704341888 0.0 0.0 0.0 0.06836769729852676 0.0 0.1324424296617508 0.12778645753860474 0.0 0.0 0.13297010958194733 0.0 0.12800318002700806 0.0 0.0 0.0
83 0.17463336884975433 0.0 0.0 0.0 0.11010665446519852 0.08562205731868744 0.0 0.14850080013275146 0.11150376498699188 0.0 0.0 0.2938075065612793 0.17327210307121277 0.2313625067472458 0.25912633538246155 0.0 0.18038083612918854 0.0 0.0 0.0 0.06857973337173462 0.0 0.12114930152893066 0.12619245052337646 0.0 0.0 0.12922388315200806 0.0 0.13548041880130768 0.0 0.0 0.0
84 0.1717253178358078 0.0 0.0 0.0 0.11243640631437302 0.08326476812362671 0.0 0.14914780855178833 0.12045255303382874 0.0 0.0 0.2942720949649811 0.17712858319282532 0.22836792469024658 0.254965215921402 0.0 0.17996057868003845 0.0 0.0 0.0 0.06158383563160896 0.0 0.11973599344491959 0.13083265721797943 0.0 0.0 0.135843425989151 0.0 0.13594384491443634 0.0 0.0 0.0
85 0.16870704293251038 0.003010059241205454 0.0 0.0 0.11251173913478851 0.07457031309604645 0.0 0.14047324657440186 0.114740751683712 0.0 0.0 0.2894607484340668 0.17248158156871796 0.20881325006484985 0.24563190340995789 0.0 0.17293015122413635 0.0 0.0 0.0 0.05233962833881378 0.0 0.12102918326854706 0.1497420370578766 0.0 0.0 0.14027054607868195 0.0 0.1302068829536438 0.0 0.003205258399248123 0.0
86 0.1696772575378418 0.0 0.0 0.0 0.11733833700418472 0.07552346587181091 0.0 0.1428610235452652 0.10703173279762268 0.0 0.0 0.2900528907775879 0.1676836907863617 0.2148963212966919 0.24710267782211304 0.0 0.17285241186618805 0.0 0.0 0.0 0.05233902484178543 0.0 0.11332887411117554 0.14287905395030975 0.0 0.0 0.13883455097675323 0.0 0.1343686580657959 0.0 0.0 0.0
87 0.1693733185529709 0.0 0.0 0.0 0.11891081184148788 0.07355944812297821 0.0 0.141072615981102 0.11157668381929398 0.0 0.0 0.29337823390960693 0.15570688247680664 0.22255286574363708 0.24892845749855042 0.0 0.17749109864234924 0.0 0.0 0.0 0.05707009509205818 0.0 0.12095752358436584 0.14957231283187866 0.0 0.0 0.13836327195167542 0.0 0.13133762776851654 0.0 0.0 0.0
88 0.1683131605386734 0.0 0.0 0.0 0.10945119708776474 0.07186390459537506 0.0 0.14352816343307495 0.1142447218298912 0.0 0.0 0.2891412377357483 0.17418533563613892 0.21507899463176727 0.2471552938222885 0.0 0.17335200309753418 0.0 0.0 0.0 0.05524129420518875 0.0 0.11365417391061783 0.14249847829341888 0.0 0.0 0.1342819631099701 0.0 0.1356346309185028 0.0 0.0 0.0
89 0.16477054357528687 0.003151037497445941 0.0 0.0 0.10861863940954208 0.06963896751403809 0.0 0.1285092830657959 0.08649500459432602 0.0 0.0 0.28354644775390625 0.17250725626945496 0.2016557902097702 0.23559150099754333 0.0 0.16218070685863495 0.0 0.0 0.0 0.037646666169166565 0.0 0.118281289935112 0.15074557065963745 0.0 0.0 0.1474502831697464 0.0 0.12459704279899597 0.0 0.012203661724925041 0.0
90 0.17313118278980255 0.0 0.0 0.0 0.10980325192213058 0.08438141644001007 0.0 0.14003609120845795 0.09932608902454376 0.0 0.0 0.2866121232509613 0.1781609058380127 0.2168695032596588 0.25568515062332153 0.0 0.17521439492702484 0.0 0.0 0.0 0.05897059291601181 0.0 0.12070247530937195 0.13404352962970734 0.0 0.0 0.1378592997789383 0.0 0.1328393518924713 0.0 0.0 0.0
91 0.17239601910114288 0.0 0.0 0.0 0.09588687121868134 0.0823553279042244 0.0 0.16136664152145386 0.1195569634437561 0.0 0.0 0.296817421913147 0.18475985527038574 0.23591305315494537 0.2538425922393799 0.0 0.18627765774726868 0.0 0.0 0.0 0.07316502928733826 0.0 0.12135448306798935 0.13339781761169434 0.0 0.0 0.13330669701099396 0.0 0.1307460367679596 0.0 0.0 0.0
92 0.16967561841011047 0.0 0.0 0.0 0.11261153221130371 0.08078691363334656 0.0 0.15913592278957367 0.12756390869617462 0.0 0.0 0.3001222312450409 0.16674882173538208 0.23951074481010437 0.25727522373199463 0.0 0.18527653813362122 0.0 0.0 0.0 0.07050348818302155 0.0 0.11954694241285324 0.13429908454418182 0.0 0.0 0.1280532330274582 0.0 0.13869619369506836 0.0 0.0 0.0
93 0.17719371616840363 0.0 0.0 0.0 0.10377202183008194 0.08552540093660355 0.0 0.15809398889541626 0.10121459513902664 0.0 0.0 0.29093149304389954 0.17940545082092285 0.22594428062438965 0.25269410014152527 0.0 0.17512597143650055 0.0 0.0 0.0 0.06398516893386841 0.0 0.13206233084201813 0.13024058938026428 0.0 0.0 0.1407322734594345 0.0 0.1310305893421173 0.0 0.0 0.0
94 0.17457860708236694 0.0 0.0 0.0 0.11236024647951126 0.07398784160614014 0.0 0.13836313784122467 0.1015288382768631 0.0 0.0 0.28535133600234985 0.18266721069812775 0.20698730647563934 0.24357007443904877 0.0 0.174184650182724 0.0 0.0 0.0 0.05002091825008392 0.0 0.1294364333152771 0.1445435732603073 0.0 0.0 0.1473478227853775 0.0 0.12267196178436279 0.0 0.0015872251242399216 0.0
95 0.16922904551029205 0.0 0.0 0.0 0.11131425201892853 0.07148412615060806 0.0 0.13373105227947235 0.09837592393159866 0.0 0.0 0.2860379219055176 0.18303290009498596 0.20556828379631042 0.2453024536371231 0.0 0.17380233108997345 0.0 0.0 0.0 0.0428386852145195 0.0 0.11826306581497192 0.1386292427778244 0.0 0.0 0.1422290802001953 0.0 0.12605714797973633 0.0 0.005137916654348373 0.0
96 0.16834312677383423 0.0 0.0 0.0 0.11287742108106613 0.0677817314863205 0.0 0.14119437336921692 0.11487269401550293 0.0 0.0 0.290386438369751 0.16811999678611755 0.21626991033554077 0.24525833129882812 0.0 0.17587986588478088 0.0 0.0 0.0 0.053344059735536575 0.0 0.11163222044706345 0.14282064139842987 0.0 0.0 0.13410741090774536 0.0 0.1351666897535324 0.0 0.0 0.0
97 0.17465229332447052 0.0 0.0 0.0 0.12485373020172119 0.07136185467243195 0.0 0.14093181490898132 0.11269287765026093 0.0 0.0 0.2953106462955475 0.16772322356700897 0.2156396508216858 0.2483232468366623 0.0 0.1749180108308792 0.0 0.0 0.0 0.048088520765304565 0.0 0.1104571670293808 0.13956546783447266 0.0 0.0 0.13946102559566498 0.0 0.13993042707443237 0.0 0.0 0.0
98 0.1628229320049286 0.0 0.0 0.0 0.11681143939495087 0.0752062052488327 0.0 0.14106911420822144 0.12270332872867584 0.0 0.0 0.28303393721580505 0.13780498504638672 0.22229455411434174 0.2523769438266754 0.0 0.15655916929244995 0.0 0.0 0.0 0.05885080248117447 0.0 0.1131632998585701 0.14472264051437378 0.0 0.0 0.12038783729076385 0.0 0.1486886441707611 0.0 0.0 0.0
99 0.17193718254566193 0.0012933339457958937 0.0 0.0 0.12027371674776077 0.06768129020929337 0.0 0.12193064391613007 0.09358064085245132 0.0 0.0 0.277751088142395 0.14939665794372559 0.19208016991615295 0.24339424073696136 0.0 0.15773580968379974 0.0 0.0 0.0 0.030900556594133377 0.0 0.11466431617736816 0.14886988699436188 0.0 0.0 0.14132338762283325 0.0 0.14016321301460266 0.0 0.005908334627747536 0.0
