100 32 
0 0.0 0.0 0.0 0.0 0.0 0.0 0.0 0.0 0.0 0.0 0.0 0.0 0.0 0.0 0.0 0.0 0.0 0.0 0.0 0.2876482760287272 0.381047078403969 0.0 0.0 0.0 0.0 4.243555612076799e-276 0.0 0.0 0.0 0.0 0.0 0.0
1 0.0 0.0 0.0 0.0 0.0 0.0 0.0 0.0 0.0 0.0 0.0 0.04725003915550997 0.0 0.0 0.0 0.0 0.0 0.0 0.0 0.7219751830546461 0.0 0.0 0.0 0.0 0.0 1.9160124821111722e-276 0.0 0.0 0.0 0.0 0.0 0.0
2 0.0 0.0 0.0 0.0 0.0 0.0 0.0 0.0 0.0 0.0 0.0 0.0828054863386142 0.0 0.0 0.0 0.0 0.0 0.0 0.0 0.11847203399914569 0.8564130536869167 0.0 0.0 0.11081399892439502 0.0 0.0 0.0 0.0 0.0 0.0 0.0 0.0
3 0.0 0.0 0.0 0.0 0.0 0.0 0.0 0.0 0.0 0.0 0.0 0.9030785280254009 0.0 0.0 0.0 0.0 0.0 0.0 0.0 0.18113037480760227 0.0 0.0 0.0 0.12114641466358396 0.0 0.0 0.0 0.0 0.0 0.0 0.0 0.0
4 0.09864400728751743 0.0 0.7097612045941079 0.0 0.0 0.0 0.0 0.0 0.0 0.0 0.0 0.6095468767733315 0.0 0.0 0.0 0.0 0.0 0.0 0.0 0.0 0.2935267797258774 0.0 0.0 0.0013721163420366486 0.0 0.0 0.0 0.0 0.0 0.0 0.0 0.0
5 0.19121455378538985 0.0 0.08400619477164425 0.0 0.0 0.0 0.0 0.0 0.0 0.0 0.0 0.7584011819636897 0.0 0.0 0.0 0.0 0.0 0.40013031041349717 0.0 0.0 0.0 0.0 0.0 0.0 0.0 0.0 0.0 0.0 0.0 0.0 0.0 0.0
6 0.0 0.0 1.300894399925351 0.0 0.0 0.0 0.0 0.0 0.0 0.0 0.0 0.0 0.0 0.0 0.0 0.0 0.0 0.2850058835746506 0.0 0.0 0.0 0.0 0.0 0.0 0.0 0.0 0.024373231507746965 0.0 0.0 0.0 0.0 0.0
7 0.0 0.0 0.01849221132736056 0.0 0.0 0.2794099541077036 0.0 0.0 0.0 0.0 0.0 0.0 0.0 0.0 0.0 0.0 0.0 0.5472975978186277 0.0 0.0 0.0 0.0 0.0 0.0 0.0 0.0 0.2559585202746597 0.0 0.0 0.0 0.0 0.0
8 0.0 0.0 0.24730302537965274 0.0 0.0 0.7029490227319224 0.0 0.0 0.0 0.0 0.0 0.0 0.0 0.0 0.0 0.0 0.0 0.0 0.0 0.0 0.0 0.0 0.0 0.0 0.0 0.0 0.3260637666161389 0.0 0.0 0.0 0.0 0.0
9 0.0 0.0 0.0 0.0 0.0 0.5381203538890686 0.0 0.0 0.0 0.0 0.0 0.0 0.0 0.0 0.0 0.0 0.0 0.0 0.0 0.0 0.0 0.0 0.0 0.0 0.0 0.0 0.2041808132088324 0.0 0.0 0.0 0.0 0.0
10 0.0 0.34677495324150553 0.0 0.0 0.0 1.8841917247338445e-295 0.0 0.0 0.0 0.0 0.0 0.0 0.0 0.0 0.0 0.0 0.0 0.0 0.0 0.36888615518947065 0.45276241785997456 0.0 0.0 0.0 0.0 0.0 0.0 4.775416519996451e-303 0.0 0.0 0.0 0.0
11 0.0 0.13010125074345436 0.0 0.3720810120608707 0.0 1.1420676177709625e-295 0.0 0.0 0.0 0.0 0.0 0.0 0.0 0.0 0.0 0.0 0.0 0.0 0.0 0.907558350178134 0.0 0.0 0.0 0.0 0.0 0.0 0.0 2.7794798815334324e-303 0.0 0.0 0.0 0.0
12 0.0 0.0 0.0 1.1282930022583146 0.0 0.0 0.0 0.0 0.0 0.0 0.0 0.022645999729154955 0.0 0.0 0.0 0.0 0.0 0.0 0.0 0.11969686973562152 0.9770037535190835 0.0 0.0 0.0 0.0 0.0 0.0 0.0 0.0 0.0 0.0 0.0
13 0.0 0.0 0.0 1.1843464388722442 0.0 0.0 0.0 0.0 0.0 0.0 0.030929586392993067 1.0300642161319102 0.0 0.0 0.0 0.0 0.0 0.0 0.0 0.1666298904409045 0.0 0.0 0.0 0.0 0.0 0.0 0.0 0.0 0.0 0.0 0.0 0.0
14 0.0 0.0 0.9917770408610149 0.4420489860705379 0.0 0.0 0.0 0.0 0.0 0.0 0.2767830811528847 0.6378955956924062 0.0 0.0 0.0 0.0 0.0 0.0 0.0 0.0 0.2824371656306512 0.0 0.0 0.0 0.0 0.0 0.0 0.0 0.0 0.0 0.0 0.0
15 0.0 0.0 0.10543040246417845 0.0 0.0 0.0 0.0 0.0 0.0 0.0 0.39127133780754025 0.8326688756790894 0.0 0.0 0.0 0.0 0.0 0.5620580949881916 0.0 0.0 0.0 0.0 0.0 0.0 0.0 0.0 0.0 0.0 0.0 0.0 0.0 0.0
16 0.0 0.0 1.756550982566971 0.0 0.0 0.0 0.0 0.0 0.0 0.0 0.04762607797067523 0.0 0.0 0.0 0.0 0.0 0.0 0.4373381854065055 0.0 0.0 0.0 0.0 0.0 0.0 0.0772007362341908 0.0 0.0 0.0 0.0 0.0 0.0 0.0
17 0.0 0.0 0.0 0.0 0.0 0.4602600203221864 0.0 0.0 0.0 0.0 0.0 0.0 0.0 0.0 0.05031069619741489 0.0 0.0 0.866750180762566 0.0 0.0 0.0 0.0 0.0 0.0 0.06350833560489047 0.0 0.0 0.0 0.0 0.0 0.0 0.0
18 0.0 0.0 0.29308476860799254 0.0 0.0 1.114818395151725 0.0 0.0 0.0 0.0 0.0 0.0 0.0 0.0 0.17549725374486935 0.0 0.0 0.0 0.0 0.0 0.0 0.0 0.0 0.0 0.04623383383363356 0.0 0.0 0.0 0.0 0.0 0.0 0.0
19 0.0 0.0 0.0 0.0 0.0 0.8019374125918324 0.0 0.0 0.0 0.0 0.0 0.0 0.0 0.0 0.21933895710053414 0.0 0.0 0.0 0.0 0.0 0.0 0.0 0.0 0.0 0.0 0.0 0.0 0.0 0.0 0.0 0.0 0.0
20 0.0 1.335006491110588 0.0 0.0 0.0 0.0 0.0 0.0 0.0 0.0 0.0 0.0 0.0 0.0 0.0 0.0 0.0 0.0 0.0 0.19454793798937078 0.240643830536997 0.0 0.0 0.0 0.0 6.29950788986404e-276 0.0 0.0 0.0 0.0 0.0 0.0
21 0.0 1.3413914105043137 0.0 0.0 0.0 0.0 0.0 0.0 0.0 0.0 0.0 0.0 0.0 0.0 0.0 0.0 0.0 0.0 0.0 0.4887213848867425 0.0 0.0 0.0 0.2657499167838192 0.0 4.253660852258351e-276 0.0 0.0 0.0 0.0 0.0 0.0
22 0.0 0.6747068476678588 0.0 0.2105588644841458 0.0 0.0 0.0 0.0 0.0 0.0 0.0 0.0 0.0 0.0 0.0 0.0 0.0 0.0 0.0 0.0 0.47518774983685025 0.0 0.0 0.6376083246647657 0.0 1.043260461582914e-276 0.0 0.0 0.0 0.0 0.0 0.0
23 0.06209989913804124 0.0 0.0 0.14347181846429802 0.0 0.0 0.0 0.0 0.0 0.0 0.1441511665210579 0.3481028692533302 0.0 0.0 0.0 0.0 0.0 0.0 0.0 0.011524584103302569 0.0 0.0 0.0 0.8460685983802119 0.0 0.0 0.0 0.0 0.0 0.0 0.0 0.0
24 1.8036050861246564 0.0 0.689004002645494 0.2759053652761462 0.0 0.0 0.0 0.0 0.0 0.0 0.11019442020075039 0.23338978805472632 0.0 0.0 0.0 0.0 0.0 0.0 0.0 0.0 0.07980815913729784 0.0 0.0 0.33231612491847895 0.0 0.0 0.0 0.0 0.0 0.0 0.0 0.0
25 2.3765549007370814 0.0 0.0 0.0 0.0 0.0 0.0 0.0 0.0 0.0 0.2749360659119264 0.4316527173621184 0.0 0.0 0.0 0.0 0.0 0.41723756031744147 0.0 0.0 0.0 0.0 0.0 0.0 0.0 0.0 0.0 0.0 0.0 0.0 0.0 0.0
26 1.4477927125526397 0.0 1.0620520115033358 0.0 0.0 0.0 0.0 0.0 0.0 0.0 0.0 0.0 0.0 0.0 0.0 0.0 0.0 0.2563156164709977 0.0 0.0 0.0 0.0 0.0 0.0 0.34399271766465395 0.0 0.3986071760906851 0.0 0.0 0.0 0.0 0.0
27 0.2581259136560154 0.0 0.0 0.0 0.0 0.0 0.0 0.0 0.0 0.0 0.031618761894634057 0.0 0.0 0.0 0.09380917733475475 0.0 0.0 0.63006513625864 0.0 0.0 0.0 0.0 0.0 0.0 0.005731860350576016 0.0 1.3507289372994036 0.0 0.0 0.013701886722277063 0.0 0.0
28 0.0 0.0 0.14641972117405427 0.0 0.0 0.3986286206659171 0.0 0.0 0.0 0.0 0.0 0.0 0.0 0.0 0.15213171624014077 0.0 0.0 0.0 0.0 0.0 0.0 0.0 0.0 0.0 0.11821918404689478 0.0 1.6065643211196003 0.0 0.0 0.0 0.0 0.0
29 0.0 0.0 0.0 0.0 0.0 0.26852390677044635 0.0 0.0 0.0 0.0 0.0 0.0 0.0 0.0 0.32120569559391526 0.0 0.0 0.0 0.0 0.0 0.0 0.0 0.0 0.0 0.0 0.0 1.0393620912981547 0.0 0.0 0.0 0.0 0.0
30 0.0 1.7758847442401242 0.0 0.0 0.0 1.343051298890761e-295 0.0 0.0 0.0 0.11637302806960875 0.0 0.0 0.0 0.0 0.0 0.0 0.0 0.0 0.0 0.02381045922745803 0.004188276959581206 0.0 0.0 0.0 0.0 0.0 0.0 0.0 0.0 0.0 0.010914510601304706 0.0
31 0.0 1.92796991689778 0.0 0.6544570575952744 0.0 9.702227933249227e-296 0.0 0.23152932263793094 0.0 0.11944837411448052 0.0 0.0 0.0 0.0 0.0 0.0 0.0 0.0 0.0 0.044898872563663414 0.0 0.0 0.0 0.0 0.0 0.0 0.0 0.0 0.0 0.0 0.0 0.0
32 0.0 0.972610291982694 0.0 1.568784994882001 0.0 0.0 0.0 0.018672802702901625 0.0 0.014108058195292513 0.0 0.0 0.0 0.0 0.0 0.0 0.0 0.0 0.0 0.0 0.0 0.0 0.0 0.03801558875390873 0.0 0.0 0.0 0.0 0.0 0.0 0.43306918245087833 0.0
33 0.0 0.0 0.0 1.293776341289888 0.0 0.0 0.0 0.6118253836882731 0.0 0.0 0.39981609884103436 0.0 0.0 0.0 0.0 0.0 0.0 0.0 0.0 0.0 0.0 0.0 0.0 0.19866769106048857 0.0 0.0 0.0 0.0 0.0 0.0 0.0 0.0
34 0.4182585855800042 0.0 0.04469642450533775 0.5994101284190537 0.0 0.0 0.0 0.0 0.0 0.0 0.9039036475240624 0.0 0.0 0.0 0.0 0.0 0.0 0.0 0.0 0.0 0.0 0.0 0.0 0.03736283088307119 0.0 0.0 0.0 0.0 0.0 0.0 0.3979267316402392 0.0
35 0.14820394120817185 0.0 0.0 0.0 0.0 0.0 0.0 0.0 0.0 0.0 1.2195738597449313 0.0 0.0 0.0 0.0 0.0 0.0 0.10415048542256138 0.0 0.0 0.0 0.0 0.0 0.0020564713891791644 0.026788189974396723 0.0 0.0 0.0 0.0 0.18632450682296103 0.0 0.0
36 0.0 0.0 0.1662939698529304 0.0 0.0 0.0 0.0 0.0 0.0 0.0 0.3551238259808554 0.0 0.0 0.0 0.0 0.0 0.0 0.08087771763447835 0.0 0.0 0.0 0.0 0.0 0.0 1.255719226423143 0.0 0.0 0.0 0.0 0.008229840044759728 0.0 0.0
37 0.0 0.0 0.0 0.0 0.0 0.0 0.0 0.0 0.0 0.0 0.004483053220358653 0.0 0.0 0.0 0.7072694896507954 0.0 0.0 0.28961105383651586 0.0 0.0 0.0 0.0 0.0 0.0 0.5995936426046877 0.0 0.0 0.0 0.0 0.349576223596177 0.0 0.0
38 0.0 0.0 0.0 0.0 0.0 0.08277234562523951 0.0 0.0 0.0 0.0 0.0 0.0 0.0 0.0 1.295654079123809 0.0 0.0 0.0 0.0 0.0 0.0 0.0 0.0 0.0 0.6879757435095418 0.0 0.0 0.0 0.0 0.0 0.0 0.0
39 0.0 0.0 0.0 0.0 0.0 0.018446699014154553 0.0 0.0 0.0 0.0 0.0 0.0 0.0 0.0 1.3007407126956623 0.0 0.0 0.0 0.0 0.0 0.0 0.0 0.0 0.0 0.0 0.0 0.010576776472703123 0.0 0.0 0.0 0.0 0.0
40 0.0 1.4387889791931805 0.0 0.0 0.0 0.0 0.0 0.0 0.35531380861270717 0.0 0.0 0.0 0.0 0.0 0.0 0.0 0.0 0.0 0.0 0.0 0.0 0.0 0.0 0.0 0.0 0.0 0.0 0.0 0.0 0.0 0.11424373205873306 0.0
41 0.0 1.6242595314954125 0.0 0.0 0.0 0.0 0.0 0.5649571721285274 0.4433066507277083 0.0 0.0 0.0 0.0 0.0 0.0 0.0 0.0 0.0 0.0 0.0 0.0 0.0 0.0 0.06501403716925633 0.0 0.0 0.0 0.0 0.0 0.0 0.0 0.0
42 0.0 0.7204213905729753 0.0 0.0 0.0 0.0 0.0 0.11658754262585976 0.23490442399653222 0.0 0.0 0.0 0.0 0.0 0.0 0.0 0.0 0.0 0.0 0.0 0.0 0.0 0.0 0.27954455285463686 0.0 0.0 0.0 0.0 0.0 0.0 1.0260363440513445 0.0
43 0.3351742821973761 0.0 0.0 0.0 0.0 0.0 0.0 1.2816963557426657 0.0 0.0 0.0 0.0 0.0 0.0 0.0 0.0 0.0 0.0 0.0 0.0 0.0 0.11715342372328841 0.0 0.371985710984294 0.0 0.0 0.0 0.0 0.0 0.0 0.19876674891223084 0.0
44 2.3652569059235518 0.0 0.0 0.0 0.0 0.0 0.0 0.0 0.0 0.0 0.07254657176913008 0.0 0.0 0.0 0.0 0.0 0.0 0.0 0.08022616248041976 0.0 0.0 0.14682859869121614 0.0 0.08320920280216983 0.03306495299582392 0.0 0.0 0.0 0.0 0.0 0.8981828894471521 0.0
45 2.690716497661101 0.0 0.0 0.0 0.0 0.0 0.0 0.3380987223139367 0.0 0.0 0.1615465750289761 0.0 0.0 0.0 0.0 0.0 0.0 0.0 0.0 0.0 0.0 0.06483680926255647 0.0 0.0 0.0 0.0 0.0 0.10385361543469536 0.0 0.45432923393615504 0.0 0.0
46 1.5432926237067 0.0 0.0 0.0 0.0 0.0 0.0 0.0 0.0 0.0 0.0 0.0 0.0 0.0 0.0 0.0 0.0 0.0 0.0 0.0 0.0 0.0 0.0 0.0 0.9121448424093478 0.0 0.1416470550702026 0.44916372372381463 0.0 0.08921071215716887 0.06037755781576168 0.0
47 0.02747982124503713 0.0 0.0 0.0 0.0 0.0 0.0 0.0 0.0 0.0 0.0 0.0 0.0 0.0 0.05406999855676189 0.0 0.0 0.0 0.0 0.0 0.0 0.0 0.0 0.0 0.16055952606912952 0.1606678205265133 0.7993178725693838 0.0860128114233461 0.0 0.7999525024446221 0.0 0.0
48 0.0 0.0 0.0 0.0 0.0 0.0 0.0 0.0 0.0 0.0 0.0 0.0 0.0 0.0 0.40852398909065885 0.0 0.0 0.0 0.0 0.0 0.0 0.0 0.0 0.0 0.52390014379315 0.7051508824326025 0.8803154959911907 0.004586721570606318 0.0 0.0 0.0 0.0
49 0.0 0.0 0.0 0.0 0.0 0.0 0.0 0.0 0.0 0.0 0.0 0.0 0.0 0.0 0.4924098085877236 0.0 0.0 0.0 0.0 0.0 0.0 0.0 0.0 0.0 0.0 0.5291178358712935 0.5816538354165047 0.0 0.0 0.12298932657701335 0.0 0.0
50 0.0 0.21260585272287302 0.0 0.0 0.0 1.752626161813201e-299 0.0 0.0 0.053814752951574084 0.9648157973977918 0.0 0.0 0.0 0.0 0.0 0.0 0.0 0.0 0.0 0.0 0.0 0.0 0.0 0.0 0.0 0.0 0.0 0.0 0.0 0.0 0.09708662772112893 0.0
51 0.0 0.13721002405826493 0.0 0.010284498752299335 0.0 0.0 0.0 0.5365571094678268 0.07321366706939886 1.1712349620894913 0.0 0.0 0.0 0.0 0.0 0.0 0.0 0.0 0.0 0.0 0.0 0.0 0.0 0.0 0.0 0.0 0.0 0.0 0.0 0.0 0.0 0.0
52 0.0 0.0 0.0 0.09037587261332743 0.0 0.0 0.0 0.15405055085640004 0.0 0.5666148544426006 0.0 0.0 0.0 0.0 0.0 0.0 0.0 0.0 0.0 0.0 0.0 0.0 0.3649542003735744 0.0 0.0 0.0 0.0 0.0 0.0 0.0 0.9511484898025718 0.0
53 0.0 0.0 0.0 0.03982442053184756 0.0 0.0 0.0 1.339537924283469 0.0 0.0 0.0 0.0 0.0 0.0 0.0 0.0 0.0 0.0 0.11415509562176578 0.0 0.0 0.0 0.4844222532117639 0.0 0.0 0.0 0.0 0.0 0.0 0.0 0.22221545515831936 0.0
54 0.0 0.0 0.0 0.0 0.0 0.0 0.0 0.05858282736405862 0.0 0.0 0.19356511897780818 0.0 0.0 0.0 0.0 0.0 0.0 0.0 0.8017531228959565 0.0 0.0 0.0 0.18880924519325576 0.0 0.0009410132140997841 0.0 0.0 0.0035315680560962927 0.0 0.0 0.8792804230238873 0.0
55 0.0 0.0 0.0 0.0 0.0 0.0 0.0 0.33781336842986603 0.0 0.0 0.18553531554947836 0.0 0.0 0.0 0.0 0.0 0.0 0.0 0.9696203275434836 0.0 0.0 0.0022884023951558257 0.0 0.0 0.0 0.0 0.0 0.0 0.0 0.46017837552519597 0.0 0.0
56 0.0 0.0 0.0 0.0 0.4094187494884598 0.0 0.0 0.0 0.0 0.0 0.0 0.0 0.0 0.0 0.0 0.0 0.0 0.0 0.702138660127178 0.0 0.0 0.0 0.0 0.0 0.6752042569866128 0.0 0.0 0.38476197922508154 0.0 0.09810333759110375 0.056017077923564265 0.0
57 0.0 0.0 0.0 0.0 1.2253211000112594 0.0 0.0 0.0 0.0 0.0 0.0 0.0 0.0 0.0 0.0 0.0 0.0 0.0 0.06516582278497413 0.0 0.0 0.0 0.0 0.0 0.1602652491954536 0.016264883009557727 0.0 0.0 0.0 0.7692830356866556 0.0 0.0
58 0.0 0.0 0.0 0.0 1.6028846830298022 0.0 0.0 0.0 0.0 0.0 0.0 0.0 0.0 0.0 0.4616318147927756 0.0 0.0 0.0 0.0 0.0 0.0 0.0 0.0 0.0 0.3077781208066314 0.37528421086319164 0.0 0.076401520448515 0.0 0.0 0.0 0.0
59 0.0 0.0 0.0 0.0 0.9794272288599013 0.0 0.0 0.0 0.0 0.0 0.0 0.0 0.0 0.0 0.4470016073932597 0.0 0.0 0.0 0.0 0.0 0.0 0.0 0.0 0.0 0.0 0.32627129309694947 0.0 0.0 0.0 0.11468326334291849 0.0 0.0
60 0.0 0.0 0.0 0.0 0.0 0.0 0.0 0.0 0.7371993450338039 0.16006346574986619 0.0 0.0 0.09648913351981633 0.0 0.0 0.0 0.0 0.0 0.0 0.0 0.0 0.0 0.0 0.0 0.0 0.0 0.0 0.0 0.0 0.0 0.0 0.0
61 0.0 0.0 0.0 0.0 0.0 0.0 0.0 0.06444960199992332 1.0338971009810618 0.1675629044409634 0.0 0.0 0.0 0.0 0.0 0.0 0.0 0.0 0.0 0.0 0.0 0.0 0.10259804440284119 0.0 0.0 0.0 0.0 0.0 0.0 0.0 0.0 0.0981286747074005
62 0.0 0.0 0.0 0.0 0.0 0.0 0.0 0.0 0.6737305186287197 0.0 0.0 0.0 0.0 0.0 0.0 0.0 0.0 0.0 0.0 0.0 0.0 0.36357963384908526 0.3446140928061015 0.0 0.0 0.0 0.0 0.0 0.0 0.0 0.3105642656384953 0.0
63 0.0 0.0 0.0 0.0 0.0 0.0 0.0 0.4095125215717211 0.141729454213515 0.0 0.0 0.0 0.0 0.0 0.0 0.0 0.0 0.0 0.0 0.0 0.0 0.9779644405483081 0.20969949533564614 0.0 0.0 0.0 0.0 0.0 0.0 0.0 0.0 0.08389400949581659
64 0.1415368345386304 0.0 0.0 0.0 0.0 0.0 0.0 0.0 0.0 0.0 0.0 0.0 0.0 0.0 0.0 0.0 0.0 0.0 0.31258316786471524 0.0 0.0 1.0940298840233675 0.03287511930376083 0.0 0.0 0.0 0.0 0.1955408850640385 0.0 0.0 0.13080012521673134 0.0
65 0.2881044050661106 0.0 0.0 0.0 0.0 0.0 0.13917548298915702 0.06883063271047683 0.0 0.0 0.0 0.0 0.0 0.0 0.0 0.0 0.0 0.0 0.32051079730894944 0.0 0.0 0.5341791946414159 0.0 0.0 0.0 0.0 0.0 0.7139063064834702 0.07054969266628996 0.15333492504367566 0.0 0.0
66 0.008782000485516153 0.0 0.0 0.0 0.06440156676976996 0.0 0.0 0.0 0.0 0.0 0.0 0.0 0.0 0.0 0.0 0.0 0.0 0.0 0.16642413451231897 0.0 0.0 0.0 0.0 0.0 0.0 0.0 0.0001356038587796654 1.6663673539581927 0.0 0.0 0.0 0.0
67 0.0 0.0 0.0 0.0 0.25520714297166724 0.0 0.0 0.0 0.0 0.0 0.0 0.0 0.0 0.0 0.0 0.0 0.0 0.0 0.0 0.0 0.0 0.0 0.0 0.0 0.0 0.5442706038086226 0.0 0.8119918441506577 0.40891456936795295 0.23912688111532907 0.0 0.0
68 0.0 0.0 0.0 0.0 0.48894479178640887 0.0 0.0 0.0 0.0 0.0 0.0 0.0 0.0 0.0 0.0 0.17531256114087895 0.0 0.0 0.0 0.0 0.0 0.0 0.0 0.0 0.0 1.0956299792077902 0.0 0.38580069848228254 0.0 0.0 0.0 0.0
69 0.0 0.0 0.0 0.0 0.2825944510118045 0.0 0.0 0.0 0.0 0.0 0.0 0.0 0.0 0.0 0.0 0.09177098271888776 0.0 0.0 0.0 0.0 0.0 0.0 0.0 0.0 0.0 0.9671425040654992 0.0 0.0 0.022885408874004157 0.0 0.0 0.0
70 0.0 0.0 0.0 0.0 0.0 0.0 0.0 0.0 0.0 0.5496954211182692 0.0 0.0 0.6069764108661896 0.0 0.0 0.0 0.0 0.0 0.0 0.0 0.0 0.0 0.0 0.0 0.0 0.0 0.0 0.0 0.0 0.0 0.0 0.0
71 0.0 0.0 0.0 0.0 0.0 0.0 0.0 0.0 0.0 0.6787539121509117 0.0 0.0 0.44741674645061424 0.0 0.0 0.0 0.0 0.0 0.0 0.0 0.0 0.0 0.21596870235815074 0.0 0.0 0.0 0.0 0.0 0.0 0.0 0.0 0.8082254738961757
72 0.0 0.0 0.0 0.0 0.0 0.0 0.0 0.0 0.017566048496782383 0.14878590899936958 0.0 0.0 0.36204362576206744 0.0 0.0 0.0 0.2600383042619241 0.0 0.0 0.0 0.0 0.0 0.926911620380685 0.0 0.0 0.0 0.0 0.0 0.0 0.0 0.0 0.0
73 0.0 0.0 0.0 0.0 0.0 0.0 0.3831981821744059 0.0009981097647256212 0.0 0.0 0.0 0.0 0.0 0.0 0.0 0.0 0.0 0.0 0.058937891731736206 0.0 0.0 0.08434778048986062 0.9376834300117467 0.0 0.0 0.0 0.0 0.0 0.0 0.0 0.0 0.4352583643941845
74 0.0 0.0 0.0 0.0 0.0 0.0 0.3282797181144774 0.0 0.0 0.0 0.0 0.0 0.0 0.14065631301547862 0.0 0.0 0.48284218093083986 0.0 0.6070190631262136 0.0 0.0 0.10101267718577665 0.45594798849029644 0.0 0.0 0.0 0.0 0.0 0.0 0.0 0.0 0.0
75 0.0 0.0 0.0 0.0 0.0 0.0 0.8035132514861848 0.0 0.0 0.0 0.0 0.0 0.0 0.0 0.0 0.0 0.0 0.0 0.8667307937570835 0.0 0.0 0.0 0.0 0.0 0.0 0.0 0.0 0.0 0.336365560382011 0.0 0.0 0.0
76 0.0 0.0 0.0 0.0 0.43160071545168277 0.0 0.0 0.0 0.0 0.0 0.0 0.0 0.0 0.6929880762567557 0.0 0.0 0.0 0.0 0.5936990472137947 0.0 0.0 0.0 0.0 0.0 0.0 0.0 0.0 0.38347373198689716 0.10568594393806885 0.0 0.0 0.0
77 0.0 0.0 0.0 0.0 1.141936351972399 0.0 0.0 0.0 0.0 0.0 0.0 0.0 0.0 0.004595431766984079 0.0 0.0 0.0 0.0 0.12832330804545036 0.0 0.0 0.0 0.0 0.0 0.0 0.0 0.0 0.09530083746264847 1.4678821085546268 0.0 0.0 0.0
78 0.0 0.0 0.0 0.0 1.5244155674139206 0.0 0.0 0.0 0.0 0.0 0.0 0.0 0.0 0.11679428799165474 0.0 0.9718278564323684 0.0 0.0 0.0 0.0 0.0 0.0 0.0 0.0 0.0 0.0 0.0 0.11518416095700704 0.0 0.0 0.0 0.0
79 0.0 0.0 0.0 0.0 0.9435233376604316 0.0 0.0 0.0 0.0 0.0 0.0 0.0 0.0 0.0 0.0 0.6172184755142195 0.0 0.0 0.0 0.0 0.0 0.0 0.0 0.0 0.0 0.09915906625930897 0.0 0.0 0.2234152269515099 0.0 0.0 0.0
80 0.0 0.0 0.0 0.0 0.0 0.0 0.0 0.0 0.11347865075273557 0.0 0.0 0.0 0.8238324189754256 0.0 0.0 0.0 0.002371053729675542 0.0 0.0 0.0 0.0 0.0 0.0 0.0 0.0 0.0 0.0 0.0 0.0 0.0 0.0 0.0
81 0.0 0.0 0.0 0.0 0.0 0.0 0.0 0.0 0.17744022997950473 0.0 0.0 0.0 0.5909825397253867 0.0 0.0 0.0 0.0 0.0 0.0 0.0 0.0 0.0 0.0 0.0 0.0 0.0 0.0 0.0 0.0 0.0 0.0 1.3814666992498097
82 0.0 0.0 0.0 0.0 0.0 0.0 0.0 0.0 0.13711041227405238 0.0 0.0 0.0 0.44862896924905565 0.0 0.0 0.0 1.1096133072384433 0.0 0.0 0.0 0.0 0.12995708184827 0.0 0.0 0.0 0.0 0.0 0.0 0.0 0.0 0.0 0.5026649016895525
83 0.0 0.0 0.0 0.0 0.0 0.0 0.48905332237471916 0.0 0.0 0.0 0.0 0.0 0.0 0.0 0.0 0.0 0.45173748166645333 0.0 0.0 0.0 0.0 0.3641258644635493 0.0 0.0 0.0 0.0 0.0 0.0 0.0 0.0 0.0 1.324037776711634
84 0.0 0.0 0.0 0.0 0.0 0.0 0.4694666555310114 0.0 0.0 0.0 0.0 0.0 0.0 0.25206355272385494 0.0 0.0 1.1052541277301209 0.0 0.0 0.0 0.0 0.380675549030674 0.0 0.0 0.0 0.0 0.0 0.0 0.0 0.0 0.0 0.0
85 0.0 0.0 0.0 0.0 0.0 0.0 1.2791357994106825 0.0 0.0 0.0 0.0 0.0 0.0 0.0 0.0 0.0 0.0 0.0 0.0 0.0 0.0 0.09208335229662551 0.0 0.0 0.0 0.0 0.0 0.19644243078184825 0.3694509879304865 0.0 0.0 0.0
86 0.0 0.0 0.0 0.0 0.0 0.0 0.08224138811939977 0.0 0.0 0.0 0.0 0.0 0.0 1.084654404853487 0.0 0.0 0.0 0.0 0.0 0.0 0.0 0.0 0.0 0.0 0.0 0.0 0.0 0.4509655741641708 0.11597219332936756 0.0 0.0 0.0
87 0.0 0.0 0.0 0.0 0.0 0.0 0.0 0.0 0.0 0.0 0.0 0.0 0.0 0.059796239529399234 0.0 0.15887669787376937 0.0 0.0 0.0 0.0 0.0 0.0 0.0 0.0 0.0 0.013658644467993756 0.0 0.19708226383838565 1.8824994509322148 0.0 0.0 0.0
88 0.0 0.0 0.0 0.0 0.0 0.0 0.0 0.0 0.0 0.0 0.0 0.0 0.0 0.2706695203736884 0.0 1.5460108815983473 0.0 0.0 0.0 0.0 0.0 0.0 0.0 0.0 0.0 0.11137913601894359 0.0 0.061596620023965175 0.0 0.0 0.0 0.0
89 0.0 0.0 0.0 0.0 0.0 0.0 0.0 0.0 0.0 0.0 0.0 0.0 0.0 0.0 0.0 1.0164729101769963 0.0 0.0 0.0 0.0 0.0 0.0 0.0 0.0 0.0 0.1292182081058203 0.0 0.0 0.3123672809308543 0.0 0.0 0.0
90 0.0 0.0 0.0 0.0 0.0 0.0 0.0 0.0 0.0 0.0 0.0 0.0 0.6227341641403379 0.0 0.0 0.0 0.03246103382631498 0.0 0.0 0.0 0.0 0.0 0.0 0.0 0.0 0.0 0.0 0.0 0.0 0.0 0.0 0.0
91 0.0 0.0 0.0 0.0 0.0 0.0 0.0 0.0 0.0 0.0 0.0 0.0 0.4788420075521293 0.0 0.0 0.0 0.0 0.0 0.0 0.0 0.0 0.0 0.0 0.0 0.0 0.0 0.0 0.0 0.0 0.0 0.0 1.0453167585030696
92 0.0 0.0 0.0 0.0 0.0 0.0 0.0 0.0 0.0 0.0 0.0 0.0 0.3682218916249798 0.0 0.0 0.0 0.8789530621660931 0.0 0.0 0.0 0.0 0.0 0.028700770766412666 0.0 0.0 0.0 0.0 0.0 0.0 0.0 0.0 0.3135260405929327
93 0.0 0.0 0.0 0.0 0.0 0.0 0.44084791980147214 0.0 0.0 0.0 0.0 0.0 0.0 0.0 0.0 0.0 0.36910298506373546 0.0 0.0 0.0 0.0 0.0 0.05638871510244365 0.0 0.0 0.0 0.0 0.0 0.0 0.0 0.0 0.9711723158083745
94 0.0 0.0 0.0 0.0 0.0 0.0 0.4244560443008372 0.0 0.0 0.0 0.0 0.0 0.0 0.18862123034534495 0.0 0.0 0.9352967629332128 0.0 0.0 0.0 0.0 0.0 0.0 0.0 0.0 0.0 0.0 0.0 0.0 0.0 0.0 0.0
95 0.0 0.0 0.0 0.0 0.0 0.0 0.9245420375137995 0.0 0.0 0.0 0.0 0.0 0.0 0.10167460403163742 0.0 0.0 0.0 0.0 0.0 0.0 0.0 0.0 0.0 0.0 0.0 0.0 0.0 0.0 0.23199905589165068 0.0 0.0 0.01631004779263751
96 0.0 0.0 0.0 0.0 0.0 0.0 0.008988524218357528 0.0 0.0 0.0 0.0 0.0 0.0 0.9549873546503095 0.0 0.0 0.008926562343884491 0.0 0.0 0.0 0.0 0.0 0.0 0.0 0.0 0.0 0.0 0.0 0.11514428871375204 0.0 0.0 0.0
97 0.0 0.0 0.0 0.0 0.0 0.0 0.0 0.0 0.0 0.0 0.0 0.0 0.0 0.1607460258878914 0.0 0.07153577971967946 0.0 0.0 0.0 0.0 0.0 0.0 0.0 0.0 0.0 0.0 0.0 0.0 1.3151821800513073 0.0 0.0 0.0
98 0.0 0.0 0.0 0.0 0.03892814989085348 0.0 0.0 0.0 0.0 0.0 0.0 0.0 0.0 0.2540115275568455 0.0 1.0700264125556662 0.0 0.0 0.0 0.0 0.0 0.0 0.0 0.0 0.0 0.0 0.0 0.0 0.0 0.0 0.0 0.0
99 0.0 0.0 0.0 0.0 0.0 0.0 0.0 0.0 0.0 0.0 0.0 0.0 0.0 0.0 0.0 0.7484386608040948 0.0 0.0 0.0 0.0 0.0 0.0 0.0 0.0 0.0 0.0 0.0 0.0 0.20463337497456094 0.0 0.0 0.0
